#ifndef WEIGHTS3_H
#define WEIGHTS3_H

// Conv3 : W[KH][KW][IN_C][OUT_C] = [3][3][32][64]
#define C3_KH    3
#define C3_KW    3
#define C3_IN_C  32
#define C3_OUT_C 64

static const float WEIGHTS3[C3_KH][C3_KW][C3_IN_C][C3_OUT_C] = {
  // ky=0
  {
    // kx=0
    {
      { -0.00686071f, -0.04854058f, 0.04221697f, 0.04688949f, 0.05962057f, -0.04439577f, -0.03021559f, -0.01773607f, 0.08715369f, -0.02275060f, -0.00334973f, 0.00140672f, 0.11402053f, -0.07382935f, -0.07209741f, 0.06010827f, 0.11360785f, -0.06939355f, -0.00518773f, 0.03759249f, -0.00354098f, -0.10732604f, -0.02767474f, -0.08114830f, 0.06721673f, -0.00303488f, 0.11044059f, -0.06355995f, 0.07732942f, -0.01248106f, -0.00498526f, -0.05093751f, -0.02533464f, 0.06420480f, -0.04736303f, 0.03919684f, 0.01792812f, -0.00461499f, 0.03584860f, 0.00016380f, -0.02735079f, 0.06731436f, -0.05361704f, 0.00039229f, -0.02761276f, -0.04835510f, -0.05713211f, 0.00316711f, -0.05425584f, -0.04746970f, -0.00116386f, 0.04142477f, 0.00400228f, 0.02569036f, -0.06632423f, -0.04005942f, 0.01020778f, 0.08903831f, -0.07478373f, -0.06393959f, 0.03496911f, 0.00292692f, 0.05901003f, -0.05808064f },
      { 0.03966895f, 0.08139537f, 0.06507458f, -0.03699025f, -0.07034586f, -0.05037812f, 0.00620414f, 0.03969391f, -0.05009973f, -0.05839547f, -0.00982300f, -0.03692676f, 0.03079831f, 0.05101517f, 0.04822303f, -0.00629534f, 0.05285301f, -0.08883655f, 0.00463334f, -0.06542850f, 0.00379676f, -0.04167575f, -0.03048223f, 0.05258565f, -0.02022188f, -0.07097238f, -0.04826811f, 0.03440444f, 0.03836416f, -0.00398275f, -0.00645905f, 0.01932386f, 0.02145390f, 0.05930111f, 0.06557011f, 0.05918773f, -0.01766711f, 0.06419495f, 0.03229698f, -0.05388540f, -0.04325037f, -0.08209774f, 0.01981589f, 0.06338621f, 0.06275811f, -0.07089227f, 0.01000480f, 0.07857519f, 0.03533076f, -0.07391462f, 0.04614701f, 0.01285555f, -0.01395571f, -0.08320381f, -0.00275982f, -0.03183772f, 0.03680155f, -0.00180847f, 0.06577525f, -0.04197789f, -0.08067613f, -0.05380173f, -0.06412380f, -0.05197644f },
      { -0.03107760f, -0.01016982f, -0.04551251f, -0.03675262f, -0.05410314f, -0.06730762f, -0.01003598f, -0.05518437f, 0.07949433f, 0.06589942f, 0.06095974f, -0.04694135f, -0.06189364f, 0.01961990f, 0.03669737f, 0.00796183f, -0.04022867f, 0.00235417f, 0.01768625f, -0.04585483f, -0.04949629f, 0.02831653f, -0.08777107f, -0.01872352f, 0.06266450f, 0.03320820f, 0.08338296f, -0.08411013f, -0.00386728f, -0.08720604f, -0.07089797f, -0.03211930f, -0.03250154f, 0.04177397f, 0.02641827f, 0.04359289f, 0.01724763f, 0.03351096f, 0.07346912f, 0.02097363f, -0.06709723f, -0.09394499f, -0.04687355f, -0.05436181f, -0.03613261f, 0.07198464f, 0.03963578f, -0.03273665f, -0.02454372f, -0.04341340f, 0.01902273f, 0.03631807f, 0.01131653f, -0.07047384f, -0.05117678f, 0.04251762f, 0.00111920f, -0.08371235f, 0.03936201f, 0.02223255f, 0.05297746f, 0.06199633f, 0.07640755f, -0.03309880f },
      { 0.05828198f, -0.04543592f, -0.08711511f, -0.03752068f, 0.02825845f, -0.00741975f, -0.03277234f, -0.08613998f, -0.07624751f, 0.01267046f, -0.00697171f, 0.05117672f, 0.00255874f, -0.01124097f, 0.07851687f, 0.07490171f, -0.07747599f, -0.01003749f, -0.03570100f, -0.02486814f, 0.05969626f, 0.06624394f, 0.05114278f, 0.07084700f, -0.03814400f, 0.04007911f, -0.05556962f, -0.06802966f, 0.02341358f, 0.08114361f, 0.02049729f, 0.02342346f, -0.06867414f, 0.06078963f, 0.04226409f, 0.08097547f, -0.05433957f, -0.05197079f, -0.08518390f, 0.07320563f, 0.02782397f, -0.03361069f, 0.04761522f, 0.01038818f, 0.00093336f, -0.06232388f, -0.05046745f, -0.04660894f, 0.07486809f, 0.02585605f, -0.05591676f, 0.04868644f, 0.03199448f, -0.08785352f, 0.01720380f, -0.01928428f, -0.08227667f, 0.00541317f, 0.08429664f, -0.04805279f, 0.05105769f, 0.05931156f, -0.03252243f, 0.02093503f },
      { 0.08241767f, 0.10329969f, 0.02614004f, 0.06220571f, 0.02278669f, -0.03852639f, -0.07216884f, 0.12178846f, -0.00149768f, -0.00868864f, -0.02412907f, -0.01701021f, -0.04234395f, -0.07141428f, -0.04837141f, -0.00517636f, 0.01892571f, -0.03868387f, 0.03317132f, 0.04492697f, -0.09092490f, 0.05730905f, 0.02923726f, -0.07844909f, 0.07969656f, 0.10591279f, 0.10296870f, 0.00265052f, -0.03318593f, -0.09051730f, 0.02962338f, -0.06342550f, 0.03735301f, 0.04458049f, 0.06871241f, 0.04372788f, 0.06977073f, -0.06255034f, 0.07542807f, -0.00439064f, 0.00561855f, -0.03353202f, 0.06502332f, -0.09689144f, 0.03881347f, -0.01087954f, 0.10105287f, -0.06551628f, 0.03109471f, 0.03253588f, 0.06365583f, -0.08465596f, 0.00161502f, 0.01750354f, -0.00051631f, 0.04639629f, -0.04503661f, -0.00149238f, -0.01686079f, 0.06203975f, 0.01849700f, -0.00050644f, -0.04970282f, -0.04743599f },
      { 0.03656923f, 0.02026809f, -0.05309622f, 0.03517771f, -0.02749544f, -0.02556838f, -0.11168434f, 0.09398241f, -0.00252530f, -0.07073118f, -0.06675894f, -0.07947260f, 0.06161134f, -0.00101499f, 0.01058441f, 0.00983773f, -0.02424994f, -0.04357091f, -0.05932891f, -0.05373219f, 0.02161765f, -0.02418264f, 0.06454010f, 0.12724149f, 0.08751620f, -0.02322559f, 0.02822846f, -0.06051993f, 0.08405984f, 0.05603712f, -0.01280118f, -0.04260369f, -0.03766889f, 0.00967907f, -0.05236151f, 0.04202593f, 0.04647918f, 0.02026042f, 0.00645778f, -0.03020540f, 0.05588919f, 0.01062226f, 0.02094132f, -0.01666876f, 0.04109243f, 0.01622341f, -0.00625970f, -0.06110007f, -0.06043440f, 0.06078225f, 0.05844581f, 0.06408957f, 0.07572536f, -0.02280701f, -0.03539525f, 0.10414395f, 0.01395707f, 0.01124752f, -0.00309354f, -0.02448910f, 0.04231837f, 0.03327010f, 0.00793720f, -0.05306657f },
      { -0.07982905f, -0.02640695f, -0.06953803f, 0.01829205f, 0.05977784f, -0.08453267f, 0.02384806f, 0.01700272f, -0.01863672f, -0.02655853f, 0.07332190f, 0.03898587f, -0.01671447f, -0.08431280f, 0.07256028f, 0.05154061f, 0.04823831f, -0.03126657f, 0.02056472f, -0.04856520f, -0.02742596f, -0.01711893f, -0.00991292f, -0.03374984f, 0.05827772f, 0.04928526f, -0.05861508f, 0.05680391f, -0.01741943f, -0.01953086f, -0.02989581f, -0.00138614f, 0.06131429f, 0.06200312f, 0.06829999f, 0.06531275f, -0.03806512f, 0.02291714f, -0.02692880f, -0.07018048f, 0.04967450f, -0.09491888f, -0.07073421f, 0.04295669f, -0.01160687f, 0.05564046f, 0.06887536f, -0.01491958f, 0.07315229f, 0.04524235f, -0.03950623f, -0.05820070f, -0.03143970f, 0.00353961f, 0.04953689f, 0.02810000f, -0.02434675f, 0.00601842f, 0.05677257f, -0.05933902f, -0.04822815f, -0.02020531f, 0.06263832f, 0.06149731f },
      { 0.04554974f, 0.00886993f, 0.03781699f, 0.04868546f, 0.07507897f, -0.01325878f, 0.05191455f, 0.06145406f, -0.06246109f, -0.03119947f, 0.02578649f, 0.02164468f, -0.05447283f, 0.00968034f, 0.03295520f, 0.07641631f, 0.06900541f, -0.03488721f, 0.06080871f, -0.03615349f, -0.05571810f, -0.07059793f, -0.08449394f, 0.00944170f, -0.05639058f, 0.05228077f, 0.08049411f, 0.00818353f, -0.06103518f, -0.10564195f, 0.07068605f, -0.01426382f, -0.04599538f, 0.04515327f, -0.02000118f, -0.02491618f, 0.06912591f, 0.00405143f, -0.05103121f, -0.03278135f, 0.01755468f, -0.08062045f, -0.02257144f, 0.03549223f, -0.04495804f, -0.04973107f, -0.02121430f, 0.00613284f, -0.06518048f, 0.03797274f, 0.01830542f, 0.00476669f, 0.04133426f, -0.08583234f, -0.06462983f, -0.03940810f, -0.09088288f, 0.04988027f, -0.08151066f, 0.02179154f, 0.04798312f, -0.06433970f, -0.06399198f, 0.01803193f },
      { 0.02108631f, 0.00767498f, -0.08418560f, -0.00799864f, -0.07930257f, 0.03852629f, -0.06096561f, 0.03098085f, -0.02107440f, 0.04777831f, -0.05501344f, -0.08177314f, 0.05076179f, -0.03765605f, -0.02077519f, 0.05953207f, 0.06612606f, -0.04527415f, -0.06717812f, -0.03130794f, -0.06298998f, -0.00147025f, 0.02828389f, -0.00252170f, -0.02460617f, 0.09854803f, 0.05152510f, -0.00505914f, 0.08580200f, 0.00826807f, -0.00352801f, 0.06177543f, -0.04446615f, 0.02160892f, 0.06034459f, -0.00935168f, -0.03023485f, -0.02424913f, 0.03240319f, -0.00568232f, 0.05550690f, 0.04837514f, -0.00792158f, -0.02110099f, -0.05772896f, 0.02610619f, 0.06067667f, -0.12202159f, 0.08487637f, -0.05691504f, 0.00262455f, -0.00372214f, 0.00274585f, 0.00331261f, -0.07028961f, 0.01259883f, 0.00481262f, 0.05441147f, 0.00782270f, 0.03208011f, -0.05452104f, -0.02035359f, -0.03567060f, 0.03153703f },
      { 0.04143239f, -0.01824889f, 0.06120684f, 0.11530701f, 0.01876638f, 0.05103395f, -0.00729705f, 0.00849270f, 0.03966166f, 0.00732147f, 0.05092294f, 0.05382394f, 0.07347520f, 0.07063539f, -0.00550677f, -0.01637542f, 0.08688523f, 0.02971983f, 0.09826719f, -0.08417946f, 0.00386817f, 0.01086302f, -0.01227738f, 0.05580144f, 0.03960990f, 0.06877408f, 0.05371003f, -0.00146080f, 0.11814207f, 0.05560406f, 0.00926035f, 0.02762413f, 0.00040759f, 0.08374950f, 0.05574682f, 0.10484429f, 0.00632546f, -0.09627950f, 0.08789790f, 0.04413757f, -0.04496447f, -0.04475194f, -0.08557112f, -0.09127814f, 0.10623364f, -0.04260550f, 0.04125881f, 0.03452048f, 0.02001076f, 0.10974065f, 0.05282898f, -0.02796784f, 0.12686262f, -0.01237520f, 0.02938939f, 0.05187767f, -0.02897987f, -0.03855455f, -0.10539703f, -0.01455220f, 0.09368013f, -0.04462003f, 0.12283030f, 0.06103655f },
      { 0.09531419f, 0.03633073f, -0.03474545f, 0.07473055f, -0.00340174f, 0.04771326f, 0.03269373f, 0.03840369f, -0.02818024f, 0.02181717f, -0.08285752f, -0.01864364f, -0.00199203f, 0.05343087f, -0.08729338f, 0.06788608f, -0.05079935f, 0.01129914f, 0.00549274f, -0.08039939f, 0.02125138f, 0.05743399f, 0.03061622f, 0.08489767f, 0.09067579f, -0.07123701f, -0.05686782f, -0.03601048f, 0.05631144f, -0.07249199f, 0.05506711f, 0.06187129f, -0.04174870f, 0.08303624f, -0.07934231f, 0.07792315f, -0.01426797f, 0.04533364f, 0.04285922f, -0.05508487f, -0.00730642f, -0.07190465f, 0.07405528f, -0.01647011f, -0.00619701f, 0.00181571f, 0.05400993f, -0.09166028f, -0.01818429f, -0.05857881f, -0.02839790f, 0.01780970f, -0.01496848f, -0.03696491f, -0.05458487f, -0.02845926f, 0.04548283f, -0.01488049f, 0.04784190f, 0.08333987f, -0.02317942f, -0.05499052f, -0.06880568f, -0.02018669f },
      { -0.01726484f, 0.04165933f, -0.09325115f, 0.03171318f, -0.06846733f, 0.00176905f, 0.07825893f, -0.07252824f, -0.03508097f, 0.05086499f, -0.02288837f, -0.03825777f, -0.04573076f, -0.08164404f, -0.00710006f, 0.04297607f, -0.02269968f, 0.06171416f, -0.04017865f, -0.05921420f, -0.03028111f, 0.04450148f, 0.01844260f, 0.06443052f, -0.01432460f, 0.00900290f, 0.04479057f, -0.03521605f, 0.07981531f, 0.07331151f, -0.03251525f, -0.00750364f, 0.05469483f, 0.04097995f, -0.02170516f, 0.02331159f, 0.03968855f, -0.01878970f, -0.06360603f, -0.02522111f, -0.02505395f, -0.02010320f, 0.05262466f, 0.05877551f, 0.02658524f, -0.01320183f, -0.01127324f, -0.07632394f, -0.01569102f, -0.07633701f, -0.05472891f, -0.04671570f, -0.07202736f, -0.08646995f, -0.06168139f, -0.02479222f, -0.00692794f, -0.04212848f, 0.01783832f, 0.05459449f, -0.02844737f, -0.06713650f, -0.05075969f, -0.06851710f },
      { 0.03121768f, -0.01201041f, -0.05425818f, -0.01212638f, -0.02556821f, -0.05298229f, -0.02279925f, -0.07420796f, -0.04243876f, -0.06194221f, -0.03195473f, -0.02509576f, -0.03776127f, 0.05205284f, -0.04217596f, 0.01349729f, -0.00174873f, 0.06622508f, -0.02794852f, -0.06299943f, 0.08405142f, 0.01805126f, -0.00522053f, -0.03296389f, -0.05669501f, 0.05274280f, 0.03246391f, -0.08421217f, 0.04878089f, -0.03907323f, -0.00683930f, -0.00721224f, -0.04424302f, -0.07355383f, -0.02005786f, 0.03498569f, 0.08051007f, -0.05266755f, 0.05221735f, 0.07545541f, 0.00371618f, 0.05822477f, -0.08294208f, 0.08288759f, -0.04996103f, 0.06597423f, 0.06947375f, 0.02659375f, 0.04672144f, -0.00316294f, 0.05847300f, -0.01137758f, 0.08118151f, 0.03884952f, -0.06910226f, 0.00259144f, 0.06438266f, 0.04973517f, 0.02499468f, 0.07072645f, -0.08371039f, 0.02835370f, 0.06507684f, 0.03179659f },
      { -0.00628452f, 0.03652122f, -0.00178834f, -0.02561634f, -0.07481447f, 0.01234946f, 0.00782104f, -0.00028104f, 0.11871915f, -0.06127809f, 0.06019202f, 0.03177047f, 0.04029562f, 0.01260097f, -0.02706098f, 0.10137725f, 0.07500929f, -0.06515633f, -0.01449940f, 0.03972983f, 0.04310210f, 0.02607116f, -0.03802935f, 0.05674911f, -0.01152413f, 0.07294769f, -0.06677229f, 0.00143023f, -0.04768414f, -0.00079837f, -0.10169359f, 0.05280654f, -0.01323218f, 0.10957994f, -0.08796043f, 0.00132002f, 0.02713871f, 0.04938178f, 0.04690186f, -0.05068338f, 0.04209521f, 0.04583478f, -0.01378046f, -0.05961947f, -0.01338599f, -0.03294659f, -0.04764853f, -0.11128700f, -0.01069115f, 0.07784740f, 0.02144704f, 0.03048491f, 0.05843616f, -0.03879403f, -0.09676960f, 0.03940903f, -0.02134339f, 0.06149950f, 0.03951416f, -0.01986756f, 0.03794126f, -0.04639577f, 0.05273477f, 0.05028953f },
      { -0.03890187f, 0.03908121f, -0.06798667f, 0.04534649f, 0.00377638f, -0.04219067f, -0.03478163f, 0.00060857f, -0.05803266f, -0.01412372f, 0.07038672f, 0.03508513f, -0.05854527f, -0.05106011f, 0.08368596f, -0.04701789f, 0.02946121f, -0.06233589f, -0.01568065f, -0.04687419f, 0.08436630f, -0.07491900f, 0.05081776f, 0.07210506f, -0.00994987f, 0.09019298f, -0.03537087f, 0.04756598f, -0.05418783f, -0.03674966f, -0.05259589f, 0.05312960f, 0.00470595f, -0.00909316f, -0.07048719f, -0.02906450f, -0.05136422f, -0.03414539f, 0.02445486f, -0.08175904f, -0.05777725f, 0.01219541f, -0.04272631f, -0.05774010f, 0.00092697f, -0.01344113f, -0.04147689f, -0.02771048f, -0.02559921f, -0.06760565f, 0.01627162f, 0.03287238f, 0.07812958f, -0.00696538f, 0.02988728f, 0.07270095f, -0.02308347f, -0.06878472f, -0.03339285f, -0.05953553f, -0.02098223f, -0.05155195f, -0.01830301f, -0.04213995f },
      { -0.07669199f, -0.04752855f, -0.00177267f, -0.07412267f, 0.04163660f, 0.06103716f, 0.02504181f, -0.08436693f, -0.02712085f, 0.03089185f, -0.04783900f, -0.01164045f, -0.00973491f, 0.01118868f, 0.02036413f, 0.06157818f, 0.00049373f, 0.01245829f, -0.05026693f, 0.04812889f, -0.00751357f, 0.02869306f, -0.08360920f, -0.05669598f, -0.02829422f, -0.01581064f, -0.08235902f, 0.07332991f, -0.00517614f, -0.00533153f, -0.00345062f, 0.03679796f, 0.07020482f, 0.05874594f, 0.02371755f, 0.04266052f, -0.07363763f, -0.06964555f, -0.06922598f, 0.00492587f, 0.08778884f, 0.07019234f, 0.04258059f, -0.00908745f, -0.06803013f, 0.00440012f, 0.07068045f, 0.03225049f, -0.05148214f, -0.00214482f, -0.03597396f, 0.04434400f, -0.05387984f, -0.03001112f, 0.06850314f, 0.05402445f, 0.04123798f, -0.04509562f, -0.03297294f, 0.03630147f, 0.01900833f, 0.09039834f, -0.03176875f, 0.03171949f },
      { -0.07052040f, -0.02500699f, -0.00047133f, -0.00824815f, -0.04298703f, -0.00362891f, -0.00285326f, 0.06637654f, -0.07632373f, 0.02442765f, -0.03965453f, 0.05103802f, -0.04966100f, -0.08925672f, -0.05460643f, 0.06183630f, -0.07603247f, -0.07763746f, 0.05234791f, 0.05883659f, 0.04297510f, -0.02140000f, -0.01544094f, 0.00374489f, -0.07708923f, 0.00600533f, -0.00699660f, -0.07416879f, -0.04466723f, -0.01813725f, -0.05497313f, 0.00938766f, -0.01721322f, 0.05054434f, -0.00521821f, -0.02868604f, 0.03100191f, -0.03015738f, 0.05629954f, 0.04369638f, 0.06136820f, -0.04037305f, 0.05552554f, -0.06893681f, 0.00396594f, -0.01009914f, -0.02046531f, -0.00238330f, 0.05855869f, 0.02853582f, -0.03983068f, -0.05839605f, 0.03270358f, 0.06136353f, -0.02996937f, -0.08264888f, 0.06714658f, 0.05124455f, -0.07932607f, -0.00667140f, 0.06796539f, 0.05198582f, -0.01247274f, -0.00358188f },
      { -0.01530573f, -0.05334061f, 0.04959228f, -0.01301675f, -0.03867836f, -0.08169906f, 0.03491808f, -0.05534378f, -0.02066902f, 0.00245086f, -0.00808264f, 0.00025186f, 0.04235828f, 0.00630252f, -0.01942881f, -0.06911525f, -0.02945855f, -0.08390778f, 0.01404212f, -0.02853040f, 0.07043049f, -0.01512897f, 0.01256935f, 0.01933883f, -0.05318397f, 0.01864049f, -0.04286347f, -0.07582627f, -0.06324459f, 0.05465208f, 0.00505458f, 0.03209643f, -0.08537137f, -0.07942868f, -0.01096023f, 0.04329374f, -0.05446011f, -0.01441198f, 0.02226256f, -0.07793963f, -0.00051389f, -0.01510146f, 0.04929505f, -0.06098222f, 0.03661514f, -0.06505024f, 0.01854311f, 0.01542554f, 0.07442578f, 0.03359778f, -0.03987995f, 0.05643998f, 0.05071079f, -0.01583394f, 0.03573366f, -0.00633657f, 0.07050297f, -0.04773299f, 0.03495724f, -0.02371730f, 0.06374801f, 0.06659550f, -0.00903351f, 0.04182531f },
      { 0.01572295f, 0.09614977f, -0.02926670f, -0.02972631f, -0.04368513f, -0.03007807f, -0.04419913f, -0.01943487f, 0.04803281f, -0.04373001f, 0.06359006f, -0.07281718f, -0.03636168f, 0.02732112f, -0.03637039f, 0.06665896f, -0.02694758f, 0.04166253f, 0.07571892f, 0.01692752f, 0.04280304f, -0.02375552f, 0.00724705f, -0.01642725f, -0.01259056f, 0.06848209f, 0.05231922f, -0.05329095f, 0.01894930f, -0.10380018f, -0.04113971f, 0.06578629f, -0.00477872f, 0.09449346f, 0.04302785f, 0.02580140f, 0.06989127f, -0.06606941f, 0.00284706f, -0.05191891f, -0.03213478f, 0.02002694f, -0.05251877f, -0.03844102f, -0.05806967f, -0.04261852f, 0.04504806f, 0.00125237f, -0.04456521f, -0.02212946f, 0.05139479f, -0.07299388f, 0.11417709f, 0.05503560f, -0.06848520f, 0.02836447f, -0.00126641f, 0.05246082f, -0.08002778f, -0.04787534f, -0.00883822f, -0.06010750f, 0.10394116f, -0.03712716f },
      { 0.09374498f, -0.01241449f, -0.00363396f, 0.07656125f, 0.01166088f, 0.01560193f, 0.02119835f, 0.07518576f, 0.09791217f, 0.00331691f, 0.00018282f, -0.05315656f, 0.10657874f, -0.03652113f, -0.03977091f, -0.00918282f, -0.01776205f, 0.06077050f, 0.03589621f, -0.04850971f, 0.05197598f, -0.06857845f, -0.01707434f, 0.07128363f, 0.07119511f, 0.07594761f, -0.02969624f, -0.07110909f, -0.02439081f, -0.07212898f, -0.06102678f, -0.04051465f, 0.06590090f, 0.03009521f, 0.02473162f, 0.05028081f, 0.06925014f, 0.00046078f, 0.03050923f, 0.04492323f, -0.05067996f, -0.02218167f, 0.00769665f, -0.09183801f, 0.03778849f, -0.06353251f, 0.03364055f, 0.02360437f, -0.07562401f, 0.05989287f, -0.05190605f, 0.07160251f, 0.11430405f, -0.03883965f, -0.01702560f, 0.00820032f, -0.10244391f, 0.08554593f, -0.02245025f, 0.13819379f, 0.04585020f, 0.03707260f, 0.00944078f, 0.04095857f },
      { 0.02778907f, 0.00112825f, -0.09452792f, -0.01460463f, -0.03050863f, -0.06230834f, 0.08040678f, -0.03022421f, -0.02074675f, 0.08062064f, -0.01980770f, -0.02573455f, -0.04162775f, 0.03649842f, 0.03659324f, -0.05445092f, -0.02453542f, 0.01403171f, 0.00502304f, -0.08312044f, 0.00049068f, 0.06688367f, 0.03741112f, -0.02961885f, -0.06506989f, -0.02770453f, -0.05810937f, -0.06305807f, -0.04851620f, -0.06044922f, 0.05623217f, -0.00953349f, -0.05164735f, -0.00459321f, -0.00074331f, 0.06884305f, -0.03994332f, 0.05771184f, 0.03616514f, -0.02283005f, 0.07298101f, -0.00198872f, 0.07728821f, 0.03322406f, -0.05815601f, -0.00001580f, 0.04190698f, 0.03734172f, 0.06042539f, 0.03072088f, -0.06976810f, 0.03166440f, 0.07827178f, 0.01519925f, -0.01179896f, -0.07651895f, 0.04111183f, -0.05613834f, -0.06666212f, 0.00315664f, 0.00677119f, 0.08223808f, -0.08044696f, -0.02534072f },
      { -0.00849798f, 0.08430693f, 0.04097225f, 0.07525403f, -0.06868007f, -0.01649096f, 0.03229881f, 0.03003566f, 0.00849671f, -0.08520159f, -0.03378968f, 0.00568306f, -0.04725837f, 0.04682457f, -0.02107463f, -0.05390826f, 0.05670204f, -0.05747604f, -0.02110322f, 0.05456995f, 0.04245978f, -0.06285885f, -0.05849030f, -0.03885812f, 0.05495278f, -0.06839347f, 0.02449813f, -0.03357149f, -0.00383941f, 0.06627999f, -0.02944042f, -0.06422796f, -0.08459833f, 0.07500690f, -0.01528101f, -0.07878455f, -0.02915035f, -0.08126353f, -0.01110167f, -0.01956774f, -0.06284022f, 0.00180473f, 0.06032192f, -0.00575525f, -0.03557954f, -0.05195229f, 0.06496974f, 0.05521059f, 0.05638677f, -0.01673949f, 0.01964610f, -0.01492606f, -0.01977623f, 0.00934059f, 0.04586823f, 0.03739583f, -0.07373747f, 0.09365742f, 0.00002582f, -0.04143001f, -0.06582133f, -0.04787542f, -0.04901577f, -0.07461791f },
      { 0.04198581f, 0.08671678f, -0.06540845f, 0.08275619f, -0.01036926f, 0.00140940f, 0.05102875f, 0.05212175f, 0.03392035f, -0.04590932f, -0.01824883f, -0.08790264f, 0.07210112f, -0.07779651f, 0.01418920f, -0.00427215f, 0.00755241f, 0.02410282f, 0.08812873f, -0.08344500f, -0.06916529f, 0.06227357f, 0.00521115f, -0.08650059f, -0.03235353f, -0.04057470f, 0.07125892f, -0.06521846f, 0.08204232f, -0.06617856f, 0.01518435f, 0.02685080f, 0.00613132f, 0.08590225f, 0.04827425f, 0.01881460f, -0.01913665f, 0.04497992f, 0.05406171f, -0.05596776f, -0.03897471f, -0.05472004f, 0.00139536f, -0.02655224f, 0.06030698f, 0.03967028f, 0.03825454f, -0.00688240f, -0.07445919f, 0.07347878f, 0.05888574f, 0.07066941f, -0.02418629f, 0.00855467f, -0.03285613f, 0.06929266f, 0.03112479f, -0.02185109f, -0.05578913f, -0.02710404f, -0.02416820f, 0.00950311f, 0.07208565f, -0.08041357f },
      { -0.01268727f, 0.02325199f, -0.01429641f, 0.05622021f, 0.03429920f, -0.06834196f, -0.02482612f, 0.09267553f, 0.07267468f, 0.05333777f, -0.02219107f, 0.05985134f, 0.07868551f, -0.07483822f, -0.06102084f, 0.01149685f, 0.09395617f, -0.04619018f, -0.01802861f, 0.04197212f, -0.03254288f, -0.08488492f, 0.00965536f, 0.06182646f, 0.02093467f, 0.02023760f, 0.06476481f, -0.03419616f, -0.04571901f, -0.01041284f, -0.04941192f, 0.08790816f, -0.02426589f, 0.03679065f, -0.06356815f, 0.08927460f, 0.02641764f, 0.04769896f, 0.10050396f, -0.05221465f, 0.08659542f, 0.04548886f, -0.02389535f, -0.10538660f, -0.01445164f, -0.05636863f, -0.04648815f, -0.02776790f, -0.09533948f, -0.00367564f, 0.06067550f, -0.05634208f, 0.09406095f, 0.00915546f, -0.04979542f, 0.03009862f, 0.04613589f, -0.01426330f, -0.03906206f, 0.00193198f, -0.02274465f, -0.04367974f, -0.03365885f, -0.08274396f },
      { 0.07252061f, 0.04747544f, 0.05977465f, -0.05332595f, 0.07852579f, -0.03440269f, 0.02887512f, 0.06608298f, 0.00352334f, 0.01761534f, -0.01910985f, 0.04851568f, 0.08053861f, 0.05493902f, 0.03590912f, 0.04457751f, 0.04734863f, 0.03140983f, -0.05936690f, 0.03920843f, -0.02824761f, 0.07393482f, 0.07580910f, 0.00319988f, -0.00134818f, -0.06144602f, 0.04015230f, 0.03482330f, -0.04996431f, -0.00595537f, 0.01737230f, 0.03067852f, -0.03981378f, -0.05277337f, -0.03151264f, 0.02803511f, 0.00512019f, 0.01412319f, -0.06089637f, -0.01026005f, 0.08800813f, 0.08362833f, -0.07778095f, 0.06401391f, -0.04054167f, 0.09621283f, -0.04351003f, 0.05025514f, 0.05364592f, 0.08275875f, -0.01226817f, 0.03359129f, -0.06379633f, -0.07634422f, -0.04039672f, -0.03797032f, 0.01186478f, 0.04829517f, 0.08074779f, 0.04748229f, 0.02442176f, -0.02864837f, -0.03700818f, -0.07808316f },
      { 0.08858019f, 0.03910900f, 0.00336791f, 0.04302159f, -0.00735428f, 0.04763077f, 0.01456003f, -0.00732658f, 0.08048182f, -0.04092110f, -0.08117212f, -0.00768580f, 0.09189022f, -0.02858974f, 0.02458303f, -0.06199232f, 0.04107919f, 0.00594448f, 0.05837723f, 0.01842160f, -0.09573588f, -0.07416139f, -0.05226718f, 0.05751044f, -0.01248910f, 0.06517872f, 0.05691448f, 0.03957716f, -0.05212022f, -0.00461134f, 0.03081176f, -0.01977028f, 0.07527727f, 0.05381801f, -0.06015791f, 0.02962990f, 0.04169932f, -0.01504358f, 0.06832276f, -0.06829136f, 0.07522685f, -0.00589677f, -0.07044417f, -0.07987098f, 0.01882979f, 0.05242646f, 0.04731997f, 0.00287045f, 0.10779545f, -0.02358737f, -0.02527180f, 0.00541678f, 0.00775491f, -0.08146375f, -0.00037333f, 0.03485783f, -0.06987186f, 0.00794296f, 0.02550903f, 0.08330867f, -0.07035495f, 0.04290409f, -0.03891932f, 0.04252733f },
      { 0.08061854f, 0.06512782f, 0.04484053f, 0.05337237f, -0.07761531f, -0.03179953f, -0.00878975f, -0.04456634f, 0.00795820f, -0.04216827f, 0.04930972f, -0.06539568f, 0.02701166f, 0.01717609f, -0.05577170f, 0.09649083f, 0.05824417f, 0.01613303f, 0.04604651f, -0.04165617f, -0.02373454f, 0.04067486f, -0.06199428f, -0.07353479f, 0.04169389f, 0.00640631f, -0.03432040f, -0.04557532f, 0.05513396f, 0.04537135f, -0.03581571f, 0.08856164f, -0.06164777f, 0.06361666f, -0.08573040f, 0.05533279f, -0.03105206f, -0.08337400f, 0.03662112f, 0.02608748f, 0.02125329f, -0.00359477f, -0.06200819f, 0.05326958f, -0.02721878f, 0.02377814f, -0.02350605f, -0.08503321f, -0.02687282f, 0.08054058f, 0.08675983f, 0.03160560f, 0.08884433f, 0.00513152f, -0.09219660f, -0.03237302f, -0.08147341f, -0.02137914f, -0.00864741f, 0.06102929f, 0.05022891f, -0.07941493f, 0.07043445f, 0.04712668f },
      { 0.05001780f, 0.05054186f, 0.00869041f, 0.05300672f, 0.03049499f, 0.02627674f, -0.04895730f, -0.00288324f, 0.03391195f, -0.00411178f, -0.05812006f, 0.07141975f, -0.05553395f, 0.07306118f, 0.01202158f, -0.00382884f, 0.06134370f, 0.00067879f, -0.03091878f, 0.04676394f, 0.07107595f, -0.05684483f, 0.00512769f, 0.03508871f, 0.07589286f, 0.00321568f, -0.04588201f, -0.01869012f, 0.08267384f, 0.03909821f, 0.06472976f, 0.06605459f, -0.06243409f, -0.04277135f, -0.04436334f, -0.04903905f, 0.08028844f, 0.05537852f, -0.00433088f, 0.03888870f, -0.03168792f, 0.07779163f, -0.03837653f, -0.02855897f, 0.04868612f, -0.03984965f, 0.04125776f, 0.08859181f, -0.05541640f, -0.08756133f, -0.02499994f, 0.01502810f, 0.01601371f, -0.00225643f, 0.04650425f, -0.05261395f, -0.02022226f, 0.02918496f, 0.04470697f, -0.07810749f, 0.07792906f, -0.01434783f, 0.08096481f, 0.00865074f },
      { 0.10684655f, 0.07488508f, -0.00749043f, -0.02174750f, 0.07735364f, -0.07772294f, -0.07169898f, 0.05256514f, -0.01478649f, -0.10270764f, -0.00339128f, -0.01456672f, 0.04454320f, -0.02847746f, -0.08794034f, 0.02681511f, 0.02076226f, -0.04261399f, 0.10239071f, -0.07406212f, 0.08831391f, -0.05412361f, 0.05634126f, 0.01312909f, 0.09046835f, 0.13750468f, 0.10099998f, -0.08133935f, 0.08911386f, -0.02803810f, -0.05471626f, -0.03619513f, -0.04362055f, 0.10088479f, -0.03438107f, 0.10589534f, -0.00639091f, -0.10223239f, 0.10497647f, -0.10709108f, 0.04393193f, -0.04777940f, -0.05422119f, 0.01176342f, 0.00136580f, -0.00292339f, 0.02310446f, -0.11025645f, -0.04238173f, -0.04213241f, 0.11259543f, -0.04067030f, -0.01921429f, -0.03481222f, -0.01940025f, 0.11605118f, -0.11440840f, 0.04677022f, -0.01419273f, -0.01619137f, -0.00799490f, -0.12607288f, 0.05289900f, -0.01179840f },
      { 0.10905001f, 0.11622432f, -0.01181737f, 0.09754241f, 0.05282420f, -0.03314542f, -0.01290565f, 0.10011932f, -0.02655462f, -0.01620362f, 0.07013436f, 0.02520093f, 0.03725617f, -0.05325660f, 0.01705667f, -0.02726121f, -0.01647941f, 0.06705885f, 0.09067661f, 0.03318767f, 0.00361906f, -0.07605239f, 0.01425923f, 0.04465660f, 0.02114105f, 0.04225576f, -0.01468597f, 0.06954043f, 0.10146111f, -0.00835413f, 0.01518443f, 0.10326116f, 0.04434187f, -0.01225481f, 0.05665118f, 0.02604931f, 0.04490664f, 0.03608686f, 0.06472600f, -0.05165116f, 0.07956042f, -0.08593548f, 0.03815534f, -0.03925829f, -0.04064733f, -0.02511429f, -0.08364879f, 0.01082729f, -0.02242985f, 0.04482268f, 0.02151574f, -0.05090661f, -0.01977848f, 0.02451186f, 0.02273752f, 0.02383724f, -0.03773705f, 0.11163863f, -0.11860976f, 0.00258303f, -0.01311266f, 0.03441706f, -0.09799831f, 0.01807821f },
      { 0.06170729f, 0.05668944f, 0.01230065f, -0.00388475f, 0.08342422f, 0.06962009f, -0.07010921f, 0.05164430f, 0.06262779f, -0.06546145f, 0.04827675f, -0.04750347f, 0.03246415f, 0.00192023f, -0.05167136f, -0.03531220f, 0.09641827f, 0.03397484f, 0.04912413f, 0.04577595f, -0.05048424f, 0.03275357f, 0.00115258f, -0.03830428f, -0.04816116f, 0.06158808f, -0.06816741f, 0.08090301f, 0.08054267f, -0.05425802f, -0.05915044f, -0.01093383f, -0.06876836f, -0.02098243f, -0.05016463f, -0.04158783f, 0.04583173f, 0.03921007f, 0.01782364f, -0.03116558f, 0.07777365f, -0.02083423f, -0.08252118f, -0.08175752f, 0.07051726f, -0.00829313f, -0.06526496f, -0.01051018f, 0.07764259f, -0.06970976f, 0.05437865f, -0.05649035f, 0.09816371f, 0.05057975f, 0.01443171f, 0.05249989f, 0.06403741f, -0.03915766f, 0.01118068f, 0.15050793f, -0.03641725f, 0.06206800f, 0.09164736f, 0.03085440f },
      { 0.03915200f, -0.02957197f, -0.08153360f, 0.05766986f, -0.06389502f, -0.08235625f, 0.01296938f, 0.06909538f, 0.06863947f, -0.06218773f, -0.05407609f, -0.02773131f, -0.06439710f, -0.07712057f, -0.00931597f, 0.05603378f, -0.04400918f, 0.05009487f, -0.01155978f, 0.06559164f, -0.04843646f, -0.01427859f, 0.04683714f, -0.07828940f, 0.06030963f, 0.00570812f, 0.03551853f, 0.08292943f, -0.03228452f, -0.02137516f, 0.09276949f, -0.06587882f, -0.02109223f, 0.07326970f, -0.03281807f, -0.06117088f, 0.04403967f, -0.03515583f, 0.06351565f, 0.04927158f, 0.07079197f, 0.08171703f, -0.02641584f, 0.03409582f, -0.01563400f, -0.01176177f, -0.10001688f, 0.02644049f, -0.03505484f, 0.06374950f, -0.07268298f, -0.03654800f, -0.06070350f, -0.04244528f, 0.09058110f, -0.07212780f, 0.06299454f, -0.01153060f, 0.07652920f, 0.04165549f, -0.04052813f, 0.07069942f, -0.07223039f, -0.05373378f }
    },
    // kx=1
    {
      { -0.04895439f, 0.04247683f, -0.04241571f, 0.08844677f, -0.01417424f, -0.05329154f, -0.02392124f, 0.10910949f, 0.04472306f, -0.09123465f, 0.00859248f, -0.02350207f, 0.07010063f, -0.08512834f, 0.04647591f, 0.03956183f, -0.01024163f, -0.03514485f, -0.04764474f, 0.03073232f, -0.05965381f, -0.05511058f, -0.07308439f, 0.04248650f, 0.08353642f, -0.00478705f, 0.08248736f, -0.00614465f, 0.04601045f, -0.01761714f, -0.04322269f, -0.00293496f, -0.04375941f, 0.02110492f, 0.05614256f, -0.01669046f, 0.02469325f, -0.05370917f, 0.01910742f, -0.09644315f, 0.10621348f, -0.02605163f, 0.05121095f, 0.00264430f, 0.08687317f, -0.00555222f, 0.03511407f, -0.12406863f, 0.04289975f, 0.00960504f, 0.07869312f, 0.05931156f, 0.03120761f, 0.01728836f, -0.09906432f, 0.10046452f, 0.01463210f, 0.05478381f, -0.01958515f, 0.07757949f, -0.08315530f, 0.00480132f, 0.04607333f, -0.04572750f },
      { 0.01371641f, 0.04166505f, -0.07635541f, -0.05741749f, 0.07943035f, 0.00707278f, -0.07671222f, 0.06734382f, -0.03299952f, 0.01249862f, 0.06908269f, 0.02585169f, -0.01917732f, 0.07085810f, -0.02449635f, -0.04999129f, 0.08447029f, 0.02296005f, 0.00572282f, -0.05710794f, 0.07550178f, -0.01641367f, -0.02281032f, -0.01191622f, -0.05254986f, -0.06558033f, 0.06380658f, 0.04265523f, 0.02343911f, -0.01049884f, 0.00894829f, 0.01210697f, 0.01175707f, 0.02455160f, 0.04329087f, -0.01411184f, 0.00153559f, 0.07982194f, 0.01917444f, 0.07332460f, 0.04292275f, -0.08453327f, -0.01259075f, 0.04982536f, -0.02257207f, -0.04440356f, 0.00501375f, -0.04288271f, 0.00851038f, -0.05084504f, 0.02545606f, 0.03344048f, 0.06564219f, 0.04454628f, -0.02767281f, 0.06893485f, -0.00808952f, -0.01445355f, 0.03561737f, 0.05989258f, 0.00862236f, 0.06780301f, -0.02199710f, 0.03050006f },
      { -0.00552313f, 0.08533644f, -0.05385621f, -0.06152028f, -0.01951072f, 0.04028145f, -0.04362190f, 0.04232542f, -0.02228316f, -0.06724796f, 0.05889753f, 0.07183681f, -0.03692290f, -0.02694589f, -0.00198748f, -0.02364184f, -0.00521611f, 0.03977637f, 0.03659562f, -0.03470761f, -0.07984322f, 0.02006322f, -0.03450220f, -0.02889977f, 0.02147140f, 0.05984669f, -0.06482955f, 0.01248802f, 0.05907283f, -0.07295746f, 0.02819207f, 0.05276743f, 0.01116850f, -0.07095962f, -0.00655879f, -0.01037335f, 0.03405861f, -0.07003616f, 0.06797902f, -0.04911515f, 0.07281768f, -0.07527672f, 0.04466495f, -0.01622394f, 0.07671072f, 0.06310108f, -0.00241871f, 0.00191571f, -0.06454612f, -0.07675279f, 0.03074406f, 0.04249805f, -0.05693350f, -0.01515541f, 0.06954075f, 0.07695395f, -0.08770573f, -0.02866603f, -0.06762567f, 0.01735786f, -0.03317115f, 0.06732500f, 0.02741260f, 0.01531963f },
      { 0.07511862f, 0.05292726f, 0.01100612f, 0.07504269f, -0.04720296f, 0.01809716f, -0.04615068f, -0.08204113f, -0.00445279f, 0.02878436f, -0.07552335f, -0.02489960f, -0.03415609f, 0.03290696f, 0.04226532f, 0.05212513f, -0.03670901f, -0.07683907f, -0.04506182f, -0.07589027f, 0.01851213f, -0.05778103f, 0.00913830f, -0.03837707f, 0.00605429f, -0.03695558f, 0.04751166f, 0.04300991f, 0.07555683f, -0.00257564f, -0.00748663f, 0.00495464f, 0.04999039f, -0.08545668f, -0.04431995f, -0.05662667f, 0.07361270f, 0.05711954f, -0.04988725f, 0.07517281f, 0.02653459f, 0.01255870f, -0.00598997f, 0.05868848f, -0.05309582f, -0.03545246f, -0.04011877f, -0.06174399f, 0.06424069f, -0.08748685f, -0.02160583f, 0.06609925f, -0.04103697f, -0.01910066f, -0.02701645f, -0.05470394f, -0.05327728f, -0.00831171f, 0.00562789f, 0.01979893f, -0.06188632f, -0.03296238f, -0.04291411f, -0.00171190f },
      { -0.03868435f, 0.05576358f, 0.02115949f, -0.01775995f, -0.07268543f, 0.00782542f, -0.00025649f, 0.05327214f, 0.05778188f, -0.04496739f, -0.01595256f, -0.05915081f, 0.08552415f, -0.06294897f, -0.01730075f, -0.00654584f, 0.02418244f, -0.04516886f, 0.10131454f, 0.02772537f, -0.05433595f, -0.08957075f, -0.03279455f, 0.03813988f, 0.05585187f, 0.07527626f, 0.03073452f, -0.02943666f, -0.01673467f, -0.02982950f, -0.01535624f, 0.00965594f, -0.01709682f, 0.07810208f, 0.04234912f, -0.06059729f, 0.03397740f, 0.00577470f, 0.08676865f, 0.00757605f, 0.03539609f, -0.04694372f, 0.05646759f, -0.03819676f, 0.05060779f, 0.05915678f, 0.04321439f, 0.02012359f, -0.07310313f, 0.05412359f, -0.02176647f, 0.00594971f, 0.04019069f, -0.08579298f, 0.04201365f, 0.00056844f, 0.04020075f, 0.08007815f, 0.03830791f, -0.01648302f, -0.05201862f, 0.02184201f, -0.05785015f, 0.04495302f },
      { 0.07534578f, 0.05083079f, -0.09478667f, -0.05850128f, 0.07681859f, 0.08364003f, 0.02072724f, -0.03642711f, -0.06797107f, -0.04485862f, -0.02017058f, -0.09193247f, -0.05889688f, -0.06760793f, 0.02793664f, 0.07848844f, 0.02040032f, -0.07276987f, 0.03323478f, -0.08069298f, 0.05620054f, -0.04893676f, -0.01815769f, 0.05894329f, -0.02978978f, 0.00485717f, 0.00802583f, -0.09266230f, -0.00471726f, -0.02782928f, 0.00534921f, 0.07381579f, 0.03722607f, -0.06537028f, 0.07250017f, 0.03103608f, -0.00792180f, -0.07751741f, 0.10429566f, -0.09479848f, -0.01951346f, -0.03890152f, -0.04249112f, -0.13947497f, 0.05178750f, -0.02314541f, -0.05086818f, 0.01224138f, 0.09088312f, -0.06095995f, 0.06305835f, -0.07057302f, 0.03891500f, -0.08416289f, -0.10420576f, -0.01962600f, -0.04926458f, -0.00889056f, -0.08980672f, -0.05221795f, -0.05162911f, -0.07186723f, -0.01850150f, -0.00753925f },
      { 0.05953646f, -0.00707674f, 0.00585811f, 0.00696811f, -0.00064150f, 0.06475109f, 0.06792938f, -0.03034091f, 0.04562797f, 0.04881034f, -0.03585402f, -0.05529708f, 0.07303719f, 0.06717864f, -0.05421255f, -0.00458225f, 0.02333322f, 0.02517625f, -0.02984229f, -0.05639277f, 0.00888344f, -0.08887662f, -0.06264611f, -0.04710206f, 0.08498273f, 0.01577434f, 0.04839028f, -0.08011323f, -0.02605855f, 0.01483544f, -0.06421192f, 0.06907836f, 0.03925379f, -0.02614791f, -0.02085004f, 0.04618672f, 0.05708287f, 0.02381198f, 0.02959757f, 0.03469260f, 0.07852572f, -0.05350111f, 0.04545970f, 0.03335216f, 0.08702797f, -0.02425833f, -0.03786888f, -0.08481889f, 0.04983961f, 0.01869955f, -0.02616950f, 0.00653241f, 0.01024123f, -0.03091051f, -0.06562052f, 0.08087053f, -0.05334514f, -0.02435904f, -0.03974581f, -0.04178883f, 0.04995316f, 0.02391884f, -0.05932263f, 0.00302703f },
      { 0.00274362f, 0.06837524f, -0.05342903f, 0.01322228f, -0.06611631f, 0.02365390f, -0.02243397f, 0.00535869f, -0.03043745f, 0.07336944f, -0.05055161f, 0.06330211f, 0.03164398f, -0.07888687f, -0.02042626f, -0.04352841f, 0.04605703f, 0.02054802f, 0.06583548f, 0.02853487f, 0.03023126f, 0.01350597f, -0.07829662f, -0.06527648f, -0.01725156f, 0.08374315f, 0.03639499f, 0.01708613f, -0.01346382f, -0.02264529f, -0.05412906f, 0.04847362f, 0.00313856f, -0.00152002f, -0.07575992f, -0.05598426f, 0.01407779f, 0.00187618f, 0.02621603f, -0.07891362f, 0.02069395f, -0.08900680f, -0.02224933f, 0.00198648f, -0.03616080f, 0.07051097f, -0.06391349f, -0.01148464f, 0.03307021f, -0.07211130f, 0.01882837f, 0.07310271f, -0.00267546f, -0.08799542f, -0.06052565f, -0.01177939f, 0.01745855f, 0.01121301f, -0.02575001f, 0.04940151f, -0.04991762f, -0.00290884f, 0.01374835f, 0.01581132f },
      { -0.02144287f, -0.02499678f, -0.08342761f, 0.06085186f, -0.07099132f, -0.02111002f, -0.09665512f, 0.04254293f, -0.03372884f, 0.00821771f, -0.05911639f, 0.01288001f, -0.04960709f, -0.06402468f, -0.08362405f, -0.04530087f, 0.05495304f, -0.05681189f, 0.06395818f, 0.05401164f, 0.02468911f, 0.03224227f, 0.02182853f, 0.02194562f, 0.02045967f, 0.10022864f, 0.04773198f, 0.04069601f, -0.03624374f, 0.03824934f, -0.09777826f, -0.02283882f, -0.00588952f, -0.01892495f, -0.01965003f, 0.01735659f, 0.00005175f, 0.03152567f, -0.04465026f, 0.03471426f, 0.05346261f, -0.01087529f, -0.03379808f, -0.04916264f, -0.02004404f, -0.00209705f, -0.04521975f, -0.04795169f, 0.01366836f, 0.07779431f, -0.06981796f, -0.00003509f, 0.08806657f, 0.05137058f, -0.04058472f, 0.00458573f, -0.09985106f, -0.05102301f, 0.01478080f, -0.05303288f, 0.04350793f, -0.02730312f, -0.08544660f, 0.07798211f },
      { 0.08041208f, 0.06789432f, -0.07953614f, 0.04713023f, 0.06105453f, 0.04463134f, -0.08057423f, 0.11240043f, 0.00671294f, 0.04002646f, -0.04114860f, 0.04643796f, 0.03357786f, 0.08394495f, 0.05635835f, -0.05724581f, -0.03531493f, -0.00314279f, 0.10540377f, -0.02299258f, 0.10281843f, 0.00028113f, 0.05205112f, 0.00232993f, -0.02300808f, -0.02374002f, 0.00111490f, 0.05161280f, 0.08730259f, -0.03354412f, 0.00193377f, -0.01708282f, -0.00692541f, -0.00900739f, -0.07948226f, 0.06896607f, -0.00963148f, -0.05679853f, 0.02391297f, -0.05347413f, -0.03080676f, 0.01465009f, -0.03678009f, 0.05611802f, -0.05752800f, 0.08300962f, -0.04939958f, -0.00713175f, -0.02572341f, 0.04703042f, 0.01634219f, 0.05876651f, 0.10906998f, 0.09212501f, -0.00944343f, -0.00833752f, 0.01666731f, -0.04002551f, -0.04619271f, -0.02591529f, 0.07719766f, -0.10530622f, -0.01161729f, 0.01164002f },
      { -0.06330549f, -0.05547173f, 0.01339174f, 0.06707525f, 0.01258372f, 0.01940239f, -0.07050028f, 0.06240304f, 0.03694591f, -0.05528656f, -0.01627287f, 0.02326314f, 0.07804520f, 0.03560879f, 0.08147745f, -0.06062908f, 0.05575325f, -0.05230878f, 0.05992724f, 0.01390265f, 0.05653555f, -0.07578765f, -0.03680341f, 0.03333997f, 0.01900225f, 0.07911109f, -0.00820529f, 0.00311662f, -0.07361597f, -0.03759924f, -0.00647203f, 0.00215865f, -0.03716078f, 0.04380722f, 0.07733595f, -0.05496255f, 0.04895535f, -0.09046377f, -0.05401628f, 0.01328641f, -0.02400145f, 0.04025732f, -0.00669379f, -0.07255642f, 0.08617206f, -0.00654224f, 0.03889397f, -0.07637946f, -0.02853495f, -0.04738493f, 0.01555729f, -0.07164636f, 0.08028175f, 0.04180459f, 0.02799745f, -0.04350082f, 0.04664409f, -0.01965640f, 0.00436692f, 0.05643747f, 0.01595792f, -0.04624475f, -0.01937562f, -0.04860965f },
      { -0.04387531f, 0.07160494f, -0.07659485f, 0.00221696f, -0.08313110f, -0.04583983f, -0.05793233f, -0.06571778f, 0.01699074f, 0.05459637f, 0.07390940f, -0.07197744f, 0.03875306f, 0.04930028f, 0.00265185f, -0.03997037f, -0.08235481f, -0.07787823f, -0.05865185f, -0.05130487f, 0.02691881f, -0.04362575f, -0.02301591f, -0.00896796f, 0.02889089f, 0.00519822f, -0.08942229f, 0.01583857f, -0.03303813f, -0.05321382f, 0.08409809f, -0.00142974f, 0.02608160f, 0.00470551f, 0.04805628f, -0.03172570f, 0.05782999f, -0.01593575f, -0.03440697f, -0.01314367f, -0.05703077f, -0.06695044f, -0.05655957f, 0.07365511f, 0.06657811f, 0.06539977f, 0.05578284f, -0.04201155f, 0.00374664f, 0.04948439f, 0.06634355f, 0.03756327f, -0.01321234f, -0.01151633f, -0.07776620f, 0.07030835f, -0.06250688f, 0.04732974f, 0.04716058f, -0.01860095f, 0.08387856f, 0.07498712f, 0.03756705f, -0.06799497f },
      { -0.03382793f, -0.05690885f, -0.07376661f, -0.02442020f, 0.01004163f, 0.00747551f, 0.01242330f, -0.04481955f, -0.05732340f, 0.05497019f, 0.00446542f, -0.02149950f, -0.05832110f, 0.04429541f, 0.06294052f, -0.08285403f, -0.07333872f, -0.03972204f, -0.07433663f, 0.04391002f, -0.03356840f, 0.05349395f, 0.03902442f, 0.05894061f, 0.06931995f, 0.03193912f, 0.02128192f, 0.02552346f, 0.05283695f, -0.06414092f, -0.01426829f, 0.03714662f, -0.06563037f, -0.05204154f, 0.02548978f, -0.07440574f, -0.00150537f, -0.07452384f, 0.05687845f, 0.07394437f, 0.05876541f, -0.01726158f, -0.00050765f, 0.05348518f, 0.04888039f, -0.04836104f, -0.04424229f, 0.06008707f, 0.07494546f, -0.03480995f, -0.06545865f, 0.01598499f, 0.03975672f, 0.00856570f, -0.00961284f, 0.00880212f, 0.05174142f, 0.04125325f, 0.03502109f, 0.05310378f, 0.05795136f, 0.06346867f, -0.07541254f, -0.08511470f },
      { 0.07152501f, 0.09155148f, -0.01021367f, 0.07074393f, 0.04516505f, -0.05875665f, -0.07588855f, 0.11969857f, 0.01753610f, -0.04077091f, 0.05086095f, 0.01272858f, 0.10389145f, -0.03191391f, -0.02255612f, 0.00093560f, 0.10173162f, 0.07521803f, -0.04252921f, 0.06403746f, 0.00250113f, -0.01040945f, 0.07595608f, 0.01151743f, 0.02773541f, 0.00581470f, 0.05925693f, -0.00321954f, -0.05256458f, -0.05997790f, -0.07724010f, 0.05190431f, -0.04710237f, 0.09039346f, 0.03996298f, -0.04790216f, 0.09243746f, -0.07363708f, 0.09994689f, -0.10359386f, -0.03297434f, 0.12645118f, 0.05638559f, -0.06617977f, -0.04964203f, -0.00285288f, -0.02417527f, 0.03436074f, 0.00643996f, -0.03956648f, -0.03795533f, 0.00272083f, 0.06177502f, -0.01787323f, -0.05725780f, -0.02571873f, -0.05572619f, 0.04662183f, -0.04668878f, 0.00231427f, -0.00351750f, 0.02666795f, 0.00197790f, -0.00286444f },
      { -0.06145015f, 0.05909012f, -0.05329231f, 0.05858551f, 0.03022718f, -0.01995982f, -0.04577050f, -0.03125502f, 0.03326354f, -0.06859718f, 0.04960357f, -0.05780459f, 0.03323429f, 0.06096696f, -0.00820681f, 0.08824479f, -0.03098655f, -0.02398104f, -0.04980484f, 0.04998438f, 0.02322231f, 0.07895935f, -0.00885652f, 0.02602458f, 0.05747912f, -0.00664480f, 0.04331626f, 0.04465043f, 0.01950080f, -0.08809579f, -0.07204287f, 0.02312692f, 0.04088701f, 0.01955206f, 0.05494148f, -0.02046008f, 0.06312121f, -0.00955860f, -0.03314274f, 0.03136487f, 0.07668120f, 0.03035716f, -0.06676388f, 0.04568259f, -0.02578408f, -0.00106707f, 0.01970296f, -0.01211942f, 0.00477193f, -0.04760959f, -0.06748770f, -0.06028456f, 0.04036824f, 0.01154228f, -0.08327416f, 0.03422576f, 0.05660962f, 0.00007910f, -0.04186961f, -0.02820971f, -0.06951655f, -0.08248761f, 0.00090332f, -0.00420628f },
      { -0.05375943f, -0.00374836f, -0.01947672f, -0.04783420f, 0.04177757f, -0.00194256f, -0.02093564f, -0.00227203f, -0.05130694f, -0.00402545f, -0.00770273f, -0.05428310f, -0.06400588f, 0.00714763f, -0.06476926f, -0.06765556f, 0.07678690f, -0.06438262f, -0.00867559f, -0.06729587f, 0.05366112f, -0.06634822f, -0.04252927f, 0.01076977f, -0.02219947f, 0.07622581f, 0.04156311f, -0.02368448f, 0.05941117f, -0.05317848f, -0.03764937f, -0.02188267f, 0.01861121f, -0.01911639f, -0.08149792f, -0.00792341f, -0.05634917f, 0.01767459f, -0.06318834f, 0.00713683f, -0.04648452f, -0.01186907f, -0.02767934f, 0.03129804f, -0.01269483f, 0.02542285f, -0.05544095f, 0.07449692f, 0.02603583f, -0.03638746f, -0.05700791f, 0.04773970f, 0.04086364f, 0.03406515f, 0.05921131f, -0.01898387f, 0.05628377f, -0.03759058f, 0.04045632f, -0.02510263f, -0.07415857f, 0.08894151f, -0.05908558f, -0.05256241f },
      { 0.04940502f, -0.04872647f, 0.03452308f, 0.01578156f, 0.07102450f, 0.06985234f, -0.04368003f, -0.01487529f, 0.07084616f, -0.02936642f, -0.07894573f, 0.06789298f, -0.00293935f, 0.04201808f, -0.06012437f, -0.03931667f, -0.01318280f, -0.07786237f, -0.02886380f, 0.01072149f, -0.03995099f, -0.04584302f, -0.02511613f, 0.07204447f, 0.00902885f, -0.04526362f, -0.08083709f, -0.08071584f, -0.07427497f, -0.02111052f, -0.03764408f, -0.05910034f, 0.01271822f, -0.08976108f, -0.02308682f, -0.07302898f, -0.07647613f, 0.07168236f, 0.03513241f, -0.05383352f, 0.03885765f, 0.04752118f, -0.01035920f, 0.00124363f, 0.07629047f, -0.00833857f, 0.03259410f, 0.07009888f, -0.06330174f, -0.02860620f, 0.07039098f, -0.01737800f, 0.01522508f, -0.05652081f, -0.08517614f, 0.04501429f, 0.04185495f, 0.07034175f, 0.06451768f, -0.02291760f, 0.06036206f, -0.02203327f, 0.02195521f, -0.06404781f },
      { 0.07601513f, -0.06297212f, -0.09117819f, -0.04155791f, -0.07016453f, -0.08197095f, 0.04612397f, -0.03715144f, 0.06882618f, 0.05749193f, 0.01381813f, 0.03040883f, -0.05195376f, 0.00018791f, 0.04103728f, -0.04867467f, 0.00852603f, 0.00579174f, -0.08109058f, 0.06720001f, -0.05778427f, 0.06529156f, 0.03582486f, -0.06722944f, 0.07419658f, -0.06339554f, -0.05835116f, 0.08086688f, 0.06773237f, 0.06720608f, 0.08881690f, -0.02913193f, 0.02639985f, 0.01727380f, -0.01062532f, 0.01214749f, 0.01609139f, 0.04840972f, 0.03009807f, -0.01151237f, 0.00156790f, -0.05526552f, -0.06353825f, -0.02089716f, -0.03111723f, -0.05880229f, 0.07117558f, -0.00529563f, -0.04207017f, -0.08126869f, -0.02644450f, 0.06359918f, -0.05899400f, -0.02147458f, -0.01257467f, -0.01520430f, 0.05683493f, -0.02358159f, 0.00966585f, -0.05373744f, -0.03404220f, 0.05944073f, -0.08758029f, -0.04858227f },
      { 0.06473908f, 0.12994653f, -0.06162799f, 0.01712335f, -0.07913852f, -0.01686514f, -0.01893829f, -0.02537211f, 0.14186025f, -0.09091420f, 0.07663710f, -0.02713135f, -0.03913176f, -0.03433394f, 0.07927234f, 0.05121253f, 0.00642382f, 0.00084324f, 0.02795240f, -0.07086276f, -0.05423729f, -0.12132960f, -0.04960993f, -0.05007987f, 0.04142005f, 0.00797844f, -0.00459075f, 0.06431149f, -0.01866090f, -0.03674332f, -0.14654391f, 0.00688479f, -0.07847838f, 0.10394523f, 0.01768020f, 0.03431288f, 0.06176815f, -0.10374328f, 0.11954723f, -0.02118680f, 0.03381434f, -0.05374169f, -0.00903604f, -0.13965327f, 0.03288781f, -0.01093779f, 0.06506494f, -0.06794100f, -0.06484076f, 0.06053945f, 0.08306417f, -0.04959230f, 0.09320068f, 0.07647780f, 0.02114220f, -0.02559333f, -0.05069239f, -0.00659874f, -0.08751686f, -0.04839975f, 0.05784415f, -0.02982861f, 0.07265680f, 0.06096530f },
      { 0.02326531f, 0.09387816f, 0.01444109f, 0.05309569f, -0.05244986f, -0.06106431f, -0.07454024f, 0.10443904f, -0.00735254f, -0.06621530f, -0.04315193f, 0.05642366f, 0.02099199f, 0.07318231f, -0.02352811f, -0.04462009f, 0.09138379f, 0.02475282f, 0.08956600f, -0.00973986f, -0.03265096f, 0.00814046f, 0.04556962f, -0.00012749f, 0.09735150f, 0.02759589f, 0.07666980f, 0.03807324f, 0.09515262f, 0.01105472f, -0.01119255f, 0.08606303f, -0.04786400f, -0.03487756f, 0.00076959f, -0.07029533f, 0.00845491f, 0.02599081f, 0.01685199f, 0.04664879f, -0.04171910f, -0.09679472f, -0.04386654f, -0.02482784f, 0.08072253f, 0.06687941f, -0.08407105f, -0.04790099f, 0.04280166f, 0.01001880f, 0.05467225f, 0.05010024f, 0.03797158f, -0.00671539f, -0.00049987f, -0.01261364f, -0.09041584f, -0.02454261f, -0.02063938f, 0.01204873f, -0.06212039f, 0.04300041f, 0.07643175f, -0.02994938f },
      { -0.03654087f, -0.05943945f, -0.04437592f, -0.01249393f, -0.07824127f, 0.03725985f, 0.08926424f, 0.07999358f, -0.01327819f, -0.01121113f, -0.00349469f, 0.06656447f, 0.00831925f, 0.07486562f, -0.05417535f, 0.04569070f, -0.07996962f, 0.01809848f, -0.07354080f, -0.08559404f, -0.06607670f, 0.05978317f, -0.07689917f, -0.02817954f, -0.06540383f, 0.01555144f, -0.03731939f, -0.00326479f, -0.00668230f, -0.01313864f, 0.07722232f, -0.06366712f, 0.00786584f, -0.06353343f, -0.06156662f, -0.01937125f, 0.02766917f, 0.08834920f, -0.04826352f, 0.01394232f, -0.07387631f, 0.05288072f, -0.04303355f, 0.03066882f, 0.04451644f, 0.03481240f, 0.01720081f, 0.03661839f, -0.07886410f, 0.00329879f, -0.05340526f, -0.03045946f, -0.06026238f, -0.02890682f, 0.08179204f, -0.05212308f, -0.01064983f, 0.00484499f, -0.05167015f, 0.01753008f, -0.06390993f, -0.02740574f, -0.00072215f, -0.03148479f },
      { 0.06410849f, 0.07393551f, 0.06507986f, 0.06410594f, 0.05263144f, -0.03507552f, -0.04818848f, 0.02388829f, -0.07037577f, 0.06895030f, 0.01016759f, -0.06195631f, 0.01357024f, 0.04264460f, -0.03236723f, -0.01002721f, -0.03362699f, -0.07563934f, -0.00487433f, -0.05905086f, 0.06077512f, -0.04642244f, 0.03371605f, 0.06298127f, -0.04801995f, 0.09227483f, 0.03156524f, -0.06481992f, 0.01910122f, -0.03574661f, -0.05997036f, -0.02019211f, -0.04545553f, 0.03030484f, -0.04357550f, -0.04200397f, -0.07174476f, -0.02454015f, 0.07544188f, -0.01702559f, -0.00383744f, 0.02537275f, -0.07715166f, 0.01524212f, -0.03243318f, 0.02818847f, -0.04365231f, 0.04566155f, -0.02026009f, 0.03092374f, -0.04875090f, -0.04217578f, -0.05273414f, -0.08689350f, 0.02073003f, 0.08166290f, -0.03462599f, 0.08689057f, 0.03895361f, 0.04359168f, 0.06475113f, 0.00031328f, -0.05640973f, 0.06540041f },
      { -0.01994324f, 0.05308075f, 0.05979423f, 0.08453372f, -0.00662782f, -0.05408082f, -0.02884151f, 0.09169731f, -0.02372131f, 0.01997973f, 0.00635511f, 0.00352465f, 0.04005952f, -0.07408293f, -0.00329409f, 0.02960004f, 0.09856723f, -0.01977598f, 0.00406437f, 0.02605139f, 0.01325533f, -0.01547890f, -0.05916142f, -0.03796426f, 0.07745746f, -0.06421617f, -0.02448048f, 0.08072428f, 0.01933788f, -0.01762716f, 0.00981396f, 0.03632342f, -0.05125716f, 0.01137638f, -0.04706286f, 0.04019816f, -0.01891264f, 0.00843852f, -0.00488399f, 0.04800675f, 0.04684573f, 0.06623735f, -0.06196769f, 0.05404860f, 0.03585757f, 0.07191903f, -0.02075148f, -0.05664780f, -0.07902439f, 0.02914523f, -0.04475075f, -0.02052104f, 0.05062447f, -0.00878340f, -0.03165372f, 0.02360247f, 0.06612074f, -0.00067540f, 0.02707570f, 0.06052727f, -0.05904245f, 0.07024476f, -0.05128063f, -0.03332339f },
      { -0.07194417f, 0.00412252f, -0.03923734f, 0.00948258f, -0.05333476f, 0.05442123f, -0.01862011f, 0.08490384f, -0.06324855f, 0.05874404f, 0.05548446f, -0.05546045f, 0.08575842f, 0.06716507f, 0.05221140f, 0.00008963f, 0.09673460f, 0.03984364f, -0.03638273f, 0.04414906f, -0.03196449f, -0.09537467f, -0.05695307f, -0.04326507f, -0.02490897f, 0.08008243f, -0.02741521f, -0.07638074f, -0.07026052f, 0.11231706f, 0.01387401f, -0.05405138f, -0.03343943f, -0.04457303f, -0.06663577f, 0.02105479f, -0.04319280f, -0.00189212f, 0.03229763f, -0.00587301f, 0.05424936f, -0.04464670f, -0.04955660f, -0.00899274f, 0.00565902f, 0.01100137f, -0.00380391f, 0.00008649f, 0.05898406f, 0.08138029f, -0.01620487f, 0.04859098f, -0.00906422f, -0.07406745f, -0.05363932f, -0.03558675f, 0.03828556f, 0.04113276f, 0.04998678f, 0.01891181f, -0.06029120f, -0.09590041f, -0.02522670f, -0.05333090f },
      { 0.03506859f, 0.02103299f, 0.00982783f, 0.07210954f, 0.05933243f, 0.07929175f, -0.00000587f, -0.00892087f, 0.07448344f, 0.01134161f, -0.07821379f, -0.01467172f, -0.00756409f, -0.01064704f, -0.06157480f, -0.06108448f, 0.07694829f, 0.07680481f, -0.02098256f, 0.04589292f, -0.01607933f, -0.00898276f, -0.03087191f, -0.00748667f, -0.03379296f, 0.03514810f, -0.05205877f, -0.01771773f, 0.01285670f, 0.00185636f, 0.00851435f, -0.02963917f, 0.06234426f, 0.00194845f, 0.04323302f, 0.08110921f, -0.00856640f, -0.00805662f, 0.04660191f, -0.00092929f, 0.07816730f, 0.00305281f, -0.04997882f, -0.07051693f, 0.02561447f, -0.04936928f, -0.07902491f, -0.06079290f, -0.03794816f, 0.04284973f, 0.01597827f, 0.04191642f, 0.07264090f, 0.02670649f, 0.05205919f, -0.06393424f, -0.02412360f, 0.02064901f, -0.05135062f, -0.00491673f, 0.07018746f, -0.04126001f, 0.03287517f, -0.02391602f },
      { 0.02982773f, 0.03358984f, 0.05080118f, 0.04031654f, -0.05169133f, -0.05220150f, -0.07395624f, 0.06125390f, 0.07081886f, -0.00174992f, 0.03289051f, -0.03509593f, 0.06437967f, 0.07212666f, -0.03621237f, -0.01738500f, -0.04294691f, 0.09689908f, -0.00458546f, 0.02350657f, 0.08933657f, 0.05101806f, 0.02602095f, 0.04070737f, 0.09171041f, -0.04420857f, -0.00879812f, -0.03121454f, 0.01112757f, 0.08771113f, -0.04928337f, 0.03823024f, -0.06726233f, 0.02237862f, 0.00727807f, 0.05306121f, 0.09440288f, -0.05840758f, 0.01002936f, -0.09673768f, 0.05832270f, 0.02312977f, 0.03097983f, -0.04071984f, -0.06303211f, -0.05579216f, -0.09787919f, -0.07844593f, -0.01120670f, 0.06116790f, 0.07450893f, 0.03056581f, -0.00865713f, -0.00100990f, -0.00895454f, 0.01318921f, 0.05693639f, -0.06844757f, -0.03750456f, -0.01578553f, 0.04248698f, 0.00730245f, 0.02197569f, -0.07745167f },
      { 0.01423827f, 0.03816816f, 0.00233319f, -0.02550673f, -0.03644592f, 0.02877338f, 0.01057918f, 0.01669707f, 0.07971541f, 0.00769984f, 0.07025835f, 0.06185908f, 0.04822158f, -0.06554257f, 0.01224159f, -0.05551783f, -0.01664377f, -0.04792350f, -0.00042838f, 0.04757836f, -0.04343900f, -0.06823658f, 0.04874569f, -0.03208132f, -0.00411090f, 0.01691569f, -0.02575785f, 0.05730206f, 0.03021040f, 0.07448386f, 0.05355168f, -0.02343153f, -0.04914904f, 0.01464614f, 0.06762762f, -0.07955687f, 0.04535644f, 0.04675170f, -0.04954219f, -0.08481945f, 0.07397657f, 0.04813129f, -0.00031263f, 0.03580672f, -0.04939948f, 0.01358713f, -0.01135086f, 0.02303150f, 0.02414119f, -0.02415793f, 0.06689277f, -0.03149553f, 0.00055433f, -0.01448856f, -0.04145174f, -0.00099777f, -0.00312848f, -0.04992416f, -0.04083528f, -0.04684297f, 0.04412772f, -0.07881528f, -0.03766085f, -0.04546613f },
      { 0.02996057f, -0.06922136f, 0.07788862f, -0.01181498f, -0.07769762f, 0.03990834f, 0.04603596f, 0.06290276f, -0.05664901f, -0.06336258f, -0.04141977f, -0.03559477f, -0.01216837f, -0.04347928f, 0.02351416f, 0.02884828f, 0.06400734f, 0.03644942f, 0.00026977f, 0.02871369f, 0.01446069f, -0.06957025f, 0.04468459f, -0.04541511f, -0.02306399f, 0.00171536f, 0.01616194f, 0.01420140f, -0.07300510f, -0.01323457f, -0.05784219f, 0.03411669f, 0.04252830f, 0.08699956f, -0.03117951f, 0.01379060f, -0.01571797f, -0.04028296f, 0.00685345f, 0.05513355f, -0.03993486f, 0.03178848f, -0.08111551f, 0.04446951f, 0.02588952f, -0.02845370f, -0.00050608f, 0.07569318f, 0.08103278f, -0.06588761f, 0.02062991f, 0.01819452f, 0.00959253f, -0.07467630f, 0.06633601f, 0.06194907f, 0.05524582f, 0.01491151f, -0.00899567f, 0.07403677f, 0.00338280f, 0.03294023f, -0.07402989f, 0.05737551f },
      { 0.11517669f, 0.09009829f, 0.03191393f, 0.05379944f, -0.05358447f, 0.04284692f, -0.03920843f, -0.02596740f, 0.05509033f, -0.03007911f, -0.07311234f, -0.02768750f, 0.13126121f, -0.03886804f, -0.02712919f, -0.03391536f, -0.02018484f, -0.07264265f, 0.05762516f, -0.06345335f, 0.05787098f, -0.02096488f, 0.01963088f, -0.02129313f, 0.00805226f, 0.04107470f, -0.01493858f, -0.02020277f, 0.07153753f, 0.05013335f, -0.09440178f, 0.08705192f, 0.03110031f, 0.01198583f, -0.00104006f, -0.01260798f, 0.10063969f, -0.00358032f, 0.01447092f, -0.05540481f, -0.01842663f, 0.00268493f, -0.04366588f, -0.03335841f, 0.09309201f, 0.13305332f, -0.03351491f, 0.00794896f, 0.05895251f, 0.09348082f, 0.07028059f, 0.01936667f, 0.06932215f, 0.08026389f, -0.08082724f, 0.04673106f, -0.14578907f, 0.01574529f, -0.04451690f, 0.10102599f, 0.08512728f, -0.13668066f, 0.00501061f, 0.00231641f },
      { 0.05806970f, -0.03543627f, 0.06158839f, -0.00774807f, 0.01362084f, 0.03396816f, 0.04979755f, 0.07960169f, 0.09339853f, 0.03072807f, 0.01903649f, -0.01467113f, 0.02618783f, 0.03486553f, -0.03549490f, 0.05853167f, 0.02516627f, 0.06677659f, 0.05010112f, 0.00151647f, -0.01242833f, -0.02684212f, -0.05453667f, 0.01534461f, 0.06743952f, -0.04006808f, 0.08238368f, -0.00191240f, 0.03776601f, -0.02613243f, 0.03113872f, 0.06412008f, 0.00295350f, -0.02678474f, 0.00534497f, -0.00699995f, 0.09258229f, -0.12306034f, 0.02998101f, -0.06834941f, 0.04797770f, 0.03916043f, -0.00981429f, 0.00946197f, 0.05859460f, -0.04097565f, 0.05666505f, -0.09260137f, 0.02004242f, -0.04410618f, -0.00485783f, 0.02636996f, 0.04674308f, 0.04861932f, -0.02786572f, 0.03325231f, 0.02387428f, 0.05957358f, -0.10293547f, 0.05587771f, 0.05974266f, -0.07225893f, 0.01880758f, -0.05328329f },
      { -0.05654871f, 0.05133416f, -0.04767771f, -0.02869281f, 0.01574900f, 0.06846400f, -0.07110344f, -0.04778894f, 0.00774099f, 0.01185492f, -0.03062195f, -0.04362747f, -0.02719704f, 0.09597843f, 0.05203018f, -0.03806187f, 0.07340144f, -0.03791441f, -0.06230273f, 0.06990225f, -0.03047177f, 0.03266903f, -0.01304506f, 0.08375137f, -0.05515506f, -0.03687013f, 0.03393871f, 0.00594412f, 0.07626221f, -0.04845070f, 0.02331339f, -0.05722301f, 0.03057648f, 0.00910073f, -0.00390499f, 0.06601851f, 0.03771621f, -0.05065635f, -0.03763895f, 0.06852838f, -0.07140936f, 0.01844191f, 0.03536750f, -0.08930541f, 0.01665594f, -0.04427828f, 0.06303731f, 0.05391852f, -0.05428578f, 0.07962175f, 0.07956961f, -0.05757093f, -0.01537312f, -0.04405597f, -0.08898607f, 0.02021363f, 0.07144206f, 0.07701895f, 0.06420030f, 0.02069408f, 0.02725837f, -0.03195281f, 0.08329301f, 0.05536177f },
      { -0.04745020f, 0.02962655f, -0.05290701f, -0.01495500f, -0.07144411f, -0.06759472f, -0.05723868f, -0.06396861f, -0.01313947f, 0.08864436f, 0.05272412f, 0.04174291f, 0.01423590f, -0.01912566f, 0.00323747f, 0.04162448f, -0.06423780f, -0.01606600f, 0.05080988f, -0.04885553f, 0.00604133f, -0.05494684f, 0.02561622f, 0.00538580f, 0.05666507f, 0.00652737f, 0.00882736f, -0.04137435f, -0.01450785f, 0.05660108f, -0.00566831f, -0.07093912f, -0.00290269f, -0.04630345f, 0.01658468f, -0.06659822f, -0.02482443f, 0.03048900f, -0.01403226f, 0.09437151f, -0.03747261f, 0.00433429f, 0.07414893f, 0.01088439f, -0.02964114f, 0.06518237f, -0.04496631f, 0.01300943f, -0.03169237f, 0.06236393f, -0.02603750f, 0.01208539f, -0.04453327f, -0.06963941f, -0.05674377f, 0.08425630f, -0.03807010f, 0.05636017f, -0.00532392f, -0.02915475f, -0.07750771f, 0.06808751f, -0.08714508f, 0.01986684f }
    },
    // kx=2
    {
      { -0.05295144f, 0.02111536f, 0.00921959f, -0.01010820f, 0.05799070f, 0.01319177f, -0.02325645f, 0.12058907f, 0.05015697f, -0.07324251f, 0.05506866f, -0.04534333f, -0.00750054f, -0.02444254f, 0.03483294f, 0.08998286f, 0.10692206f, -0.06016697f, 0.09199934f, -0.00918470f, -0.07671447f, -0.02785235f, 0.06972104f, 0.08096756f, 0.06110935f, 0.03036064f, 0.01896029f, 0.05846641f, 0.02232444f, 0.02636033f, -0.09585349f, 0.09890138f, -0.03213494f, -0.04741411f, -0.03717550f, 0.02489431f, 0.05291282f, -0.10033875f, -0.01239475f, 0.03715561f, 0.01652616f, 0.04937550f, 0.03591900f, 0.00389047f, 0.04583305f, 0.07533415f, -0.06108972f, -0.02363901f, -0.08743551f, 0.03525671f, 0.05258672f, -0.07620233f, 0.01963497f, -0.05529541f, 0.05917668f, -0.04168270f, -0.08914588f, 0.01161677f, -0.05468933f, -0.04297517f, 0.04832279f, -0.11910653f, 0.02313251f, -0.04990854f },
      { 0.07773968f, -0.06275264f, 0.00186565f, -0.01361903f, -0.06720198f, -0.07154261f, -0.02041759f, 0.06709047f, 0.05815759f, -0.00149661f, -0.08156767f, 0.02517833f, 0.06177783f, -0.02650460f, -0.04314029f, 0.06881741f, -0.00533894f, 0.02988115f, 0.03983071f, -0.03813692f, 0.03821126f, -0.02834556f, -0.08234325f, 0.00445483f, 0.03231537f, -0.07290071f, 0.07261803f, -0.05300750f, 0.03802760f, -0.01689686f, 0.05129302f, 0.00864223f, 0.00963251f, -0.04156838f, -0.01003942f, -0.08033618f, -0.04774476f, 0.05208795f, -0.00002540f, -0.06566742f, 0.04657196f, -0.08269830f, -0.07149544f, -0.02154697f, -0.00849642f, 0.05016352f, -0.04773136f, -0.06795023f, 0.03728487f, -0.08279864f, 0.04861348f, 0.06688762f, 0.04782146f, 0.05074147f, -0.07540507f, 0.02679173f, -0.04946326f, -0.02918670f, 0.05568049f, 0.08341216f, 0.05095496f, 0.07231818f, 0.02414811f, -0.02433814f },
      { -0.02665096f, 0.03401513f, -0.01127871f, 0.02509941f, -0.05034463f, -0.08096039f, -0.01996795f, -0.03864583f, 0.04840948f, -0.04791982f, -0.05350070f, -0.03498947f, -0.00078789f, -0.02099922f, 0.04883919f, -0.06199636f, 0.06238759f, -0.02278231f, -0.05442780f, -0.01633476f, 0.05139596f, -0.08009651f, 0.04509916f, -0.03221632f, 0.03898426f, -0.06926031f, 0.06953326f, -0.01961436f, -0.07096393f, 0.05983830f, 0.04150281f, 0.03394415f, -0.03594339f, -0.01524170f, 0.06270628f, 0.02325291f, -0.03957234f, 0.01713329f, -0.06435769f, 0.01624457f, 0.04285822f, 0.03198853f, -0.05987357f, -0.03746352f, 0.05355480f, 0.06269362f, 0.05668962f, -0.05550447f, 0.02507255f, -0.05772272f, -0.01878097f, 0.06753961f, 0.01782898f, -0.07181509f, 0.04397000f, 0.06238273f, 0.05975071f, -0.04775150f, 0.02831162f, -0.03849344f, -0.05744672f, -0.02473734f, 0.03137037f, 0.01317394f },
      { -0.08157521f, -0.03602493f, -0.03891870f, 0.00853232f, 0.02569982f, -0.05060612f, -0.04538628f, 0.04955061f, -0.02340736f, -0.04030758f, 0.00166041f, -0.05212611f, 0.02534303f, 0.04659805f, 0.03421760f, -0.03357992f, -0.02937771f, -0.01291225f, -0.02540430f, -0.04401476f, 0.05976127f, 0.05350520f, -0.03845447f, 0.01676377f, 0.01101997f, -0.03622085f, -0.03573988f, -0.06990325f, 0.00224977f, 0.02594192f, 0.00031825f, 0.02879375f, -0.01056758f, -0.07243846f, -0.05115531f, 0.04007663f, 0.03497936f, -0.01405214f, -0.02892026f, 0.03553768f, -0.03070926f, -0.02529638f, 0.06292850f, 0.04427447f, -0.07040558f, 0.05989991f, -0.06742223f, 0.07538826f, -0.03971377f, 0.02591124f, 0.00155855f, -0.07982335f, -0.06209357f, 0.01336738f, 0.07518883f, 0.05195516f, -0.04702178f, -0.04711234f, 0.05136120f, 0.08136571f, 0.04023556f, -0.06479548f, -0.00374339f, 0.05362141f },
      { 0.00421150f, 0.00833648f, 0.03261829f, -0.05560174f, 0.07442085f, -0.08164043f, 0.00486695f, -0.04303470f, 0.09690113f, -0.02975640f, -0.06085284f, 0.00371260f, 0.10400681f, -0.04767292f, -0.00136275f, -0.04162806f, 0.06997484f, -0.04148677f, 0.04224226f, -0.00209458f, 0.02845782f, -0.05137652f, -0.07507603f, 0.07252615f, -0.01219769f, 0.02892967f, 0.03140159f, 0.08220537f, -0.01034998f, 0.07848801f, -0.08813380f, 0.09329852f, -0.02087428f, 0.03302469f, 0.03252203f, 0.01284498f, 0.03462904f, -0.07691407f, 0.00276874f, 0.01261385f, -0.03800148f, -0.06458998f, 0.06576459f, -0.08767512f, 0.00573561f, -0.04403950f, -0.03313814f, -0.10605563f, 0.01936477f, -0.02681099f, 0.04367825f, 0.04455691f, 0.09284659f, 0.06224424f, 0.02712131f, -0.03625712f, -0.10585020f, 0.03063232f, 0.00889983f, 0.06182161f, -0.02389242f, -0.05270984f, -0.07147068f, 0.01141118f },
      { -0.00345454f, -0.01456361f, 0.03689293f, 0.10101953f, 0.06125874f, -0.07287500f, 0.01567859f, 0.08381000f, 0.06112707f, 0.01261991f, -0.04487264f, 0.01543140f, -0.03877087f, 0.06684612f, 0.04535580f, 0.04504869f, -0.00451202f, 0.07647033f, -0.03418078f, -0.06196821f, 0.01948546f, -0.06570291f, -0.05588514f, 0.07753056f, -0.05048232f, -0.03123489f, -0.02303302f, 0.13537827f, -0.03960439f, 0.08427103f, -0.09283404f, 0.05166128f, -0.08673485f, 0.06728091f, -0.03436888f, -0.06750376f, 0.00541829f, -0.01369131f, -0.02371923f, -0.04154317f, -0.03929764f, 0.04587919f, -0.02603260f, -0.06299087f, 0.03770677f, 0.04563872f, 0.01198199f, -0.04912917f, -0.01602075f, 0.04000957f, 0.07143256f, -0.00264924f, -0.02729798f, 0.01213296f, 0.00210089f, 0.06681293f, -0.01243144f, -0.05575306f, -0.01377113f, 0.04846332f, 0.06176026f, -0.10113730f, 0.09631126f, -0.03139903f },
      { 0.03808730f, 0.02222746f, 0.05611682f, -0.01338772f, -0.08163347f, -0.08622212f, 0.04578061f, 0.02506822f, -0.04592002f, -0.07875838f, 0.05939900f, 0.01509658f, 0.06367356f, 0.07163018f, 0.08059910f, 0.02257187f, -0.01240949f, -0.04872781f, 0.03635669f, -0.03219643f, -0.02779116f, 0.00430195f, -0.07743640f, -0.02468914f, 0.01826878f, -0.05301599f, -0.02527095f, -0.04807507f, 0.05265559f, 0.08788536f, 0.06646172f, -0.07056575f, -0.01543953f, 0.03899756f, 0.02321829f, -0.06825911f, -0.06100332f, 0.06270977f, 0.08841790f, 0.02866881f, 0.02161210f, -0.05957845f, 0.01464245f, -0.05692912f, -0.06757927f, -0.01364187f, -0.03117979f, -0.00447070f, 0.00666844f, -0.06940091f, -0.05171766f, 0.03911333f, 0.05578180f, -0.03015851f, -0.03459450f, 0.07361956f, -0.03206985f, -0.06975411f, 0.04096043f, 0.04247449f, -0.05782988f, 0.05265816f, -0.02353765f, -0.06025176f },
      { -0.01986097f, -0.00764582f, -0.03766453f, 0.04996911f, -0.02195462f, 0.01874299f, 0.06135106f, 0.00911512f, 0.07351859f, -0.02310512f, 0.04394338f, -0.08935846f, -0.04932866f, -0.07559557f, 0.12055957f, -0.03167218f, -0.02099726f, 0.00272843f, -0.01692806f, 0.03004614f, -0.01590122f, 0.01832929f, 0.02720585f, -0.01082220f, 0.02513961f, 0.03026362f, -0.01520838f, -0.02626992f, 0.03666858f, 0.15928932f, -0.02633137f, 0.04099689f, -0.09373405f, 0.07277943f, -0.05797739f, 0.07752959f, 0.01900615f, 0.03513692f, 0.06954266f, -0.03259481f, -0.02717307f, -0.08772479f, 0.04943559f, -0.07496511f, 0.09133508f, 0.06752681f, 0.04839934f, -0.02361530f, -0.05938417f, -0.01275810f, 0.01658050f, -0.00418969f, 0.03108747f, 0.01858640f, -0.08042906f, 0.07095590f, -0.06070945f, -0.01867248f, -0.05875875f, 0.01856654f, 0.02364663f, -0.00142114f, 0.05741302f, 0.06939782f },
      { -0.01995691f, 0.01198824f, -0.04709201f, -0.06225096f, 0.03695348f, 0.01733110f, -0.12606196f, 0.06150990f, 0.09015142f, -0.01879829f, 0.02749269f, 0.04865913f, 0.08197635f, -0.02295717f, 0.01390625f, -0.05552353f, -0.06929813f, 0.10339487f, 0.01250095f, 0.05056971f, -0.06949562f, -0.00967623f, -0.00816573f, 0.08885057f, 0.04725863f, 0.02890474f, -0.05514185f, 0.05914839f, 0.03629726f, 0.03259309f, -0.06921095f, 0.03551055f, 0.00173305f, -0.02905263f, 0.06196295f, -0.03848753f, 0.07424139f, 0.01393679f, 0.08256407f, 0.02159869f, 0.07174160f, -0.08813532f, 0.04453775f, -0.04245197f, -0.03855129f, 0.00064268f, 0.04782646f, 0.00071513f, -0.02503830f, -0.05550932f, 0.04808442f, -0.06778811f, 0.04082603f, -0.01106235f, -0.03276974f, 0.04044353f, 0.00757013f, 0.04454360f, 0.04038872f, -0.06415980f, -0.06464891f, 0.05026929f, -0.01104452f, 0.02150401f },
      { 0.02602837f, 0.04764988f, 0.01787159f, 0.07025707f, -0.03952400f, -0.05908477f, -0.07849461f, 0.11685801f, 0.00913857f, -0.03180230f, -0.08047251f, -0.08462558f, 0.07654794f, -0.05854680f, 0.03208293f, 0.01339963f, -0.03092913f, 0.02722445f, 0.01482083f, 0.03627220f, 0.05207127f, -0.09062584f, -0.04789384f, -0.09637905f, 0.10436434f, 0.06624018f, 0.05043212f, 0.02503852f, -0.00627287f, 0.09749088f, -0.05724904f, 0.09636562f, -0.06667202f, 0.07601409f, -0.06506008f, 0.03725818f, -0.00081856f, 0.00588751f, -0.02816263f, -0.07902188f, 0.06810903f, 0.08075985f, 0.03307814f, -0.10547440f, -0.01776548f, 0.00008389f, -0.00886484f, 0.02323673f, -0.05076300f, 0.06391269f, 0.00229695f, -0.00167399f, -0.03933377f, -0.06592800f, 0.01181174f, 0.07067705f, 0.04383845f, 0.01970138f, -0.01176821f, 0.03987632f, 0.08207233f, -0.07677341f, -0.04456564f, -0.04938902f },
      { 0.07013712f, 0.03449024f, -0.07172200f, 0.04891979f, -0.06760280f, 0.06922602f, -0.09120502f, 0.06578834f, 0.05658644f, -0.01954421f, -0.03654914f, 0.01009974f, -0.00220416f, -0.02326726f, 0.03220788f, 0.01454822f, -0.04256701f, -0.01871635f, 0.08868397f, 0.06081078f, 0.09162335f, 0.05559972f, 0.01149641f, 0.02488495f, 0.02984461f, -0.07455146f, 0.07460603f, 0.04774604f, -0.02194807f, 0.03117932f, 0.05681242f, -0.00891237f, -0.03955921f, -0.02735522f, -0.06933550f, -0.03478933f, 0.08823911f, 0.05268338f, 0.06705128f, -0.04828952f, -0.05290511f, -0.03702400f, -0.07855276f, 0.01026560f, -0.00385494f, 0.10104657f, 0.00504760f, -0.03451104f, -0.03764058f, 0.02127606f, -0.00336668f, 0.04779145f, 0.03427282f, -0.04354157f, -0.03470423f, -0.05057971f, -0.05121377f, 0.07995564f, -0.08380507f, 0.04584398f, -0.06308472f, 0.03145082f, -0.06756838f, -0.07348084f },
      { 0.02338368f, -0.00255623f, -0.06395614f, 0.02460423f, 0.04164412f, -0.00615677f, -0.06149957f, -0.00157611f, 0.01981447f, 0.02183840f, 0.07755502f, -0.05305496f, 0.08059569f, -0.06176810f, -0.00904422f, 0.02481097f, -0.01293088f, -0.00296958f, -0.02475258f, -0.07274707f, 0.01672742f, 0.06141967f, 0.03682793f, -0.07307465f, 0.05122460f, -0.08199172f, -0.05331912f, -0.06138851f, 0.01532327f, -0.06403617f, -0.02492467f, -0.05076871f, 0.03941424f, -0.00949622f, 0.05418456f, 0.05033515f, 0.06769398f, 0.04198790f, -0.01228725f, 0.07880174f, 0.08613755f, 0.02978700f, -0.01046498f, -0.02619782f, -0.05796026f, -0.01457336f, -0.01307702f, -0.00874426f, -0.07493845f, -0.00763963f, -0.07729779f, -0.08978243f, 0.08266644f, -0.02475392f, 0.06332087f, 0.07774901f, 0.06183546f, 0.02944049f, 0.02916804f, -0.00373336f, -0.04381134f, 0.03344913f, 0.07457072f, 0.00303419f },
      { -0.06048690f, 0.03925486f, -0.04908407f, -0.06971391f, 0.02412039f, -0.07858175f, -0.05011877f, 0.02506317f, 0.07256452f, -0.03377469f, 0.01471406f, 0.00775669f, 0.07426691f, -0.00464285f, -0.06056427f, -0.00178504f, 0.06788405f, 0.05987659f, 0.07260241f, -0.04552088f, -0.02951340f, -0.05043852f, 0.01044299f, 0.01475158f, 0.04223559f, -0.02644159f, -0.08380624f, 0.00089048f, 0.04465297f, -0.05530268f, 0.07706609f, -0.08177777f, 0.05369692f, 0.06047919f, -0.04062728f, -0.02426766f, 0.03085235f, -0.02636728f, -0.08284906f, -0.02787320f, -0.07145765f, -0.02118350f, -0.05640275f, -0.06177019f, 0.03047269f, -0.03739212f, -0.03785117f, 0.06798386f, 0.00132390f, -0.00673288f, -0.05509554f, -0.03643162f, -0.02696230f, 0.01615678f, 0.02879648f, 0.05042023f, 0.07407393f, 0.07311714f, -0.01654587f, 0.08733254f, 0.06969721f, -0.05630879f, 0.04033158f, 0.06689743f },
      { -0.03030088f, 0.10990641f, 0.10280690f, -0.04543000f, 0.06340451f, -0.02157073f, 0.02554317f, 0.10482116f, -0.00533942f, -0.07364960f, -0.06090459f, -0.06242445f, -0.04164669f, -0.02363329f, 0.12920648f, 0.01063173f, -0.04373764f, -0.05487300f, 0.07375567f, -0.08853952f, -0.01599874f, -0.08098472f, -0.05591402f, 0.00643502f, -0.02856304f, 0.00443598f, 0.08091205f, 0.08236609f, 0.05096660f, -0.00861785f, 0.00134685f, 0.00010547f, -0.06857707f, 0.08409729f, 0.01236214f, 0.05577211f, -0.03276386f, -0.02606734f, -0.01261592f, -0.03648843f, -0.01618011f, -0.03487790f, 0.04089101f, 0.06452844f, -0.03568804f, 0.06534986f, -0.08183932f, -0.03052362f, -0.03947559f, 0.02922357f, 0.03727322f, 0.02358394f, 0.02637724f, 0.01306659f, 0.03773091f, 0.09080463f, 0.01836212f, -0.04024391f, 0.00310021f, 0.09062285f, -0.06209889f, -0.02934415f, -0.03001492f, 0.00134692f },
      { -0.01069948f, 0.02560884f, -0.08797939f, -0.05098972f, -0.05573276f, 0.05333015f, -0.08036003f, -0.05590292f, -0.01118687f, -0.00280172f, -0.05054695f, -0.00763113f, -0.01472700f, 0.06412055f, -0.06091475f, 0.03069982f, 0.09307371f, 0.04571878f, -0.00153001f, -0.04306808f, 0.08451299f, 0.01498594f, -0.02937747f, 0.05558925f, 0.09028868f, 0.01938313f, -0.02844664f, -0.03845210f, 0.04685316f, -0.05349894f, 0.07609966f, 0.05140148f, 0.07024693f, -0.05281753f, -0.04766256f, -0.05207705f, -0.01256050f, 0.08347344f, -0.05240950f, 0.05052074f, -0.02656621f, 0.05834615f, -0.05416066f, -0.08224660f, -0.01073467f, 0.04290716f, 0.06884392f, -0.02185466f, -0.00445801f, 0.00552934f, -0.04993974f, 0.00509344f, 0.06798105f, -0.03049711f, -0.05247692f, -0.06103372f, 0.05191996f, 0.02465883f, -0.04545755f, -0.03617107f, 0.01471848f, -0.07493484f, 0.02728108f, 0.02905005f },
      { 0.02928028f, -0.05006321f, -0.02977084f, -0.01575110f, -0.07268974f, -0.02328359f, 0.00847342f, 0.06648890f, -0.07147384f, 0.05517630f, -0.00698774f, -0.03248784f, 0.02692990f, 0.02463898f, -0.05734698f, 0.00665216f, 0.00559288f, -0.05432839f, -0.03993731f, 0.00720347f, -0.05104469f, 0.08860787f, 0.03197859f, 0.02926989f, -0.04429080f, 0.04293592f, 0.00251341f, -0.07451604f, 0.06783114f, -0.07533525f, 0.09225960f, -0.07595012f, 0.01954888f, -0.08159011f, 0.01944913f, -0.07913508f, 0.07756159f, 0.03021937f, 0.03087339f, 0.04315126f, -0.02570394f, -0.07416284f, -0.02624941f, -0.04460407f, 0.02310630f, -0.05618010f, 0.08712411f, 0.01126998f, 0.00252863f, -0.01792216f, -0.02031958f, 0.00845366f, 0.02917955f, -0.06585751f, 0.06567163f, -0.03786177f, 0.05550788f, 0.03167045f, 0.03355474f, 0.04746890f, -0.00669040f, 0.07146718f, 0.02825961f, -0.06654750f },
      { 0.01889545f, 0.04261455f, 0.02782288f, -0.05893265f, 0.04989821f, -0.01309195f, -0.00925849f, 0.02004295f, -0.04250398f, 0.02352683f, -0.04297324f, -0.06193627f, -0.00759218f, -0.02423425f, -0.03530927f, -0.02738820f, 0.01469049f, 0.07223783f, -0.04817244f, -0.07756004f, -0.00750386f, -0.01216393f, -0.03281315f, 0.01212658f, 0.05165944f, 0.04975059f, -0.03903719f, -0.03430371f, 0.03842995f, 0.00139521f, 0.03325018f, -0.06914108f, 0.04932685f, -0.04267774f, -0.08603106f, -0.04351486f, 0.04287329f, -0.03670674f, 0.00187730f, 0.03175665f, 0.06753023f, 0.04162691f, 0.07353707f, -0.08244024f, -0.02852340f, -0.02410701f, -0.09988730f, 0.06411307f, 0.03324671f, -0.06679685f, -0.01171903f, 0.01440142f, -0.04042371f, 0.05213829f, -0.03468618f, 0.03255961f, 0.05584476f, 0.04501348f, -0.05432170f, -0.01815306f, -0.08813649f, -0.04799767f, 0.04454776f, 0.08264594f },
      { 0.04316400f, 0.07037672f, 0.04358413f, 0.06088527f, 0.07658112f, -0.07696910f, -0.05436050f, 0.03037619f, 0.00248055f, -0.01605415f, -0.03517483f, 0.06417381f, -0.05863815f, -0.07347304f, -0.03190415f, 0.05592847f, 0.04860058f, 0.02239153f, -0.02342836f, 0.03521774f, -0.04391061f, -0.06505302f, 0.07644869f, 0.05770300f, 0.07473271f, -0.03282385f, -0.07613526f, 0.01019124f, -0.06087748f, 0.03785489f, 0.09074785f, 0.06987870f, 0.03019211f, 0.06435077f, 0.06293573f, -0.02435983f, -0.07238951f, 0.02183346f, 0.01467500f, -0.01974908f, 0.07721253f, 0.03656938f, 0.00742369f, -0.03792446f, -0.01612759f, 0.05507357f, -0.03923808f, 0.02051518f, -0.07240409f, 0.00679618f, 0.00245829f, 0.01726719f, -0.06120746f, -0.08596892f, 0.06994209f, 0.01721741f, 0.00341982f, 0.06384824f, -0.06792982f, -0.03454632f, 0.07940308f, 0.07646286f, -0.04868401f, -0.02739464f },
      { 0.01710764f, 0.03516817f, -0.01509491f, 0.08459244f, 0.01596757f, 0.03656454f, -0.13367595f, 0.06788883f, -0.01793105f, -0.07569362f, -0.02658966f, 0.03885175f, -0.04458652f, 0.03501807f, 0.04177321f, -0.00156372f, 0.04903675f, 0.06018537f, -0.00189951f, 0.06617974f, -0.08049233f, -0.03106001f, 0.01939004f, -0.01585601f, 0.11967861f, 0.10895759f, 0.01445089f, 0.04453919f, 0.02103288f, 0.01475168f, -0.04817722f, 0.01883671f, 0.00103317f, 0.11028652f, 0.00265168f, 0.06215515f, 0.05187811f, -0.12783478f, -0.01769267f, -0.05331299f, -0.02327771f, 0.02144173f, -0.07441144f, -0.16668467f, 0.07805642f, -0.05344668f, -0.01856316f, -0.00446358f, -0.02549250f, 0.11400264f, 0.12948041f, -0.06706189f, 0.10813622f, -0.03105559f, -0.11698097f, -0.03855593f, -0.00658428f, 0.09732692f, -0.14027345f, 0.02602276f, -0.03543684f, -0.02753958f, 0.05861177f, -0.00419042f },
      { -0.02431165f, 0.04488232f, 0.04577751f, 0.03163734f, 0.00275674f, -0.00027829f, 0.02235614f, -0.00804758f, 0.09923293f, -0.02013472f, 0.02220130f, 0.05287030f, 0.06165850f, 0.03747976f, 0.07424427f, 0.01598550f, 0.00977057f, 0.06787319f, 0.07062089f, -0.04268724f, 0.10933097f, -0.06233555f, -0.03959716f, -0.07822811f, -0.02371417f, 0.07950559f, 0.00167741f, 0.04860485f, -0.02219380f, 0.09422372f, -0.04064028f, 0.06343870f, -0.02076443f, 0.07700582f, 0.00467496f, 0.02556166f, 0.01421617f, -0.01503711f, 0.10123374f, -0.06275201f, -0.02809775f, 0.05021362f, -0.06573102f, -0.08779080f, -0.00052467f, 0.14469446f, -0.07632425f, 0.04201500f, -0.04560558f, -0.00112593f, 0.06703085f, 0.03527932f, 0.08979807f, -0.02683350f, -0.13395701f, 0.04688811f, 0.02537895f, 0.08673334f, -0.00668925f, -0.01359652f, -0.00140804f, -0.08875378f, 0.06581281f, -0.01131095f },
      { 0.01361825f, 0.05771546f, -0.03738860f, 0.03739302f, 0.04155804f, -0.08194134f, -0.02444166f, -0.02565494f, -0.02977812f, 0.08142889f, -0.00012962f, -0.00295784f, -0.03077708f, -0.05356244f, -0.04719866f, -0.01262499f, 0.00821040f, -0.08311585f, -0.00191258f, -0.02829950f, 0.04649424f, 0.05635621f, 0.04847558f, -0.00054237f, 0.02158914f, -0.00819913f, -0.06651644f, 0.06547447f, -0.05849985f, -0.00187971f, 0.08220483f, 0.05435868f, -0.04198279f, 0.04028320f, -0.03986523f, 0.05723351f, 0.08717086f, 0.00535936f, -0.03577432f, -0.01154274f, -0.05654455f, -0.06962813f, 0.03983709f, 0.04744653f, -0.02242299f, 0.00345779f, -0.00721677f, -0.01856939f, 0.03180967f, 0.05544012f, 0.05525594f, 0.05616353f, -0.00273806f, -0.06095174f, -0.04125184f, 0.01378354f, 0.02711749f, -0.02628238f, 0.02032881f, 0.09018410f, -0.02449345f, 0.06836058f, -0.01657860f, -0.08239343f },
      { 0.07417958f, -0.05584364f, -0.04897597f, 0.01829734f, -0.04084365f, -0.09035539f, -0.04831732f, 0.04438647f, 0.02108144f, 0.04230068f, -0.05089079f, -0.08218171f, 0.04749515f, -0.02590075f, -0.01242904f, 0.04373413f, -0.02970901f, 0.00606160f, 0.09450393f, 0.05595012f, -0.04599738f, 0.05998199f, 0.01902485f, 0.04841149f, 0.08521851f, -0.06611190f, -0.02866176f, 0.05606593f, 0.05676153f, 0.02817862f, 0.05606228f, 0.06552549f, 0.06844670f, -0.04228648f, 0.02441959f, 0.07032175f, 0.04749887f, 0.05789261f, 0.08217506f, -0.00997857f, -0.00413320f, 0.01007657f, -0.04042039f, -0.06351458f, -0.04835017f, 0.09593575f, -0.01544011f, -0.05598675f, -0.04305585f, 0.03709131f, 0.06383543f, -0.07967895f, 0.03224593f, -0.00275675f, -0.05863231f, -0.06141365f, 0.05519104f, -0.02145000f, 0.00109491f, 0.00868613f, -0.00682586f, 0.03329073f, 0.06517003f, 0.02764970f },
      { 0.08225958f, -0.05339713f, -0.04881508f, 0.02884126f, -0.01190503f, -0.00681818f, -0.05412665f, 0.07126574f, 0.02207579f, -0.00872846f, -0.00420381f, 0.05644703f, -0.03801327f, 0.06366057f, 0.07021254f, 0.05791959f, -0.04888894f, -0.02972691f, 0.00357459f, -0.07858577f, 0.05302686f, 0.08058693f, 0.08212352f, -0.04907929f, 0.04434754f, 0.05171535f, -0.01957324f, -0.03067000f, -0.01006554f, 0.05977353f, -0.04028945f, 0.02143231f, -0.03726628f, -0.06456044f, -0.03373463f, -0.05358815f, -0.02861953f, -0.01573793f, -0.06945760f, -0.05803508f, -0.07835760f, 0.08875924f, 0.01514273f, 0.00898196f, 0.07585037f, -0.05851813f, 0.02426847f, -0.01182758f, 0.01328873f, -0.03963526f, -0.04875043f, 0.04270112f, 0.03562476f, -0.07887462f, -0.07681642f, 0.02634600f, -0.04661110f, 0.05872459f, 0.01816962f, -0.00491852f, 0.07195830f, 0.01286966f, -0.01044191f, -0.01420212f },
      { 0.00503079f, 0.09717830f, -0.02771055f, -0.04164296f, 0.04595349f, 0.02508022f, -0.06486165f, 0.07696611f, 0.07934909f, 0.04296868f, 0.08094863f, -0.04283777f, 0.09329524f, 0.06880387f, 0.05507814f, 0.03932900f, 0.07373134f, 0.04838809f, 0.02194334f, 0.01589967f, 0.04111081f, -0.03537966f, -0.04213822f, 0.09001918f, -0.00500875f, 0.07463860f, -0.02444977f, -0.02573642f, 0.02338300f, 0.13501976f, -0.00748538f, 0.01441086f, -0.02565595f, -0.07231496f, -0.06242292f, -0.07754435f, 0.01272499f, -0.11200593f, 0.04736138f, -0.04632504f, -0.03910122f, -0.04406071f, -0.08016843f, 0.01722470f, -0.00116054f, -0.01229729f, -0.02934793f, 0.01997464f, -0.06077430f, -0.03647434f, 0.07212192f, -0.01148420f, -0.06419278f, -0.03494783f, -0.02443815f, 0.00776615f, -0.10965388f, 0.03483241f, -0.01840408f, 0.05651449f, -0.01728239f, -0.03470305f, 0.03155212f, -0.02785929f },
      { 0.06450526f, -0.07182027f, -0.08800534f, 0.08238540f, 0.04247744f, 0.02432636f, -0.01217589f, -0.05647232f, 0.04640921f, 0.06338956f, -0.01163662f, 0.03220700f, 0.07929105f, 0.06383967f, 0.03088055f, -0.05702969f, 0.04895957f, -0.08940209f, -0.02427003f, 0.03215902f, 0.02008723f, 0.02494637f, 0.04494027f, -0.01590258f, -0.04264604f, -0.04610999f, -0.02249593f, -0.03407317f, 0.01253858f, -0.06476782f, -0.02995938f, -0.04464574f, -0.05057075f, -0.07870103f, 0.02358285f, 0.07441799f, 0.05429632f, 0.06227269f, -0.04446002f, -0.03352078f, -0.03900775f, 0.07460684f, -0.02580448f, -0.07554071f, -0.06964755f, 0.00301719f, -0.08632081f, -0.00574783f, -0.00644194f, 0.06814869f, 0.08287818f, 0.00146428f, 0.02046834f, 0.02094267f, -0.05818302f, 0.05778039f, 0.06211520f, -0.00439332f, -0.04242468f, 0.04515232f, 0.00642112f, 0.03418565f, -0.03236593f, 0.04818383f },
      { -0.00159484f, 0.05872780f, -0.06504069f, 0.07121202f, -0.06509920f, 0.05062736f, -0.02189948f, 0.02854978f, 0.05617616f, -0.05530670f, 0.07722959f, -0.03442945f, -0.04420614f, 0.04006824f, -0.08361633f, 0.02640740f, 0.00031500f, 0.12648101f, -0.03396532f, -0.06998562f, 0.04663783f, -0.01710998f, 0.04144352f, 0.05723646f, 0.07939301f, -0.03066036f, -0.02834822f, -0.01314789f, 0.05136748f, 0.13042626f, -0.03104358f, 0.03590063f, -0.01176033f, -0.00874156f, -0.00482140f, -0.05891331f, 0.03499797f, 0.03317676f, 0.06689989f, -0.11122976f, -0.04012609f, 0.07161645f, 0.00341583f, -0.04935838f, 0.01513538f, 0.05270109f, -0.09664294f, 0.03869849f, -0.09899873f, -0.00826799f, 0.06236634f, 0.01451004f, 0.10076137f, 0.00229925f, 0.04616288f, 0.05618986f, -0.01832574f, -0.05526653f, -0.08685482f, -0.02686757f, 0.08498965f, -0.09215991f, 0.01203332f, 0.00439586f },
      { 0.04059456f, 0.05485915f, -0.00917497f, 0.04595440f, -0.00073717f, -0.01509312f, 0.00453957f, 0.01765670f, -0.06410901f, 0.04784222f, -0.06632445f, 0.03068347f, -0.03731354f, -0.02066346f, 0.10809832f, 0.03765821f, 0.04450837f, 0.07278492f, 0.08172716f, -0.01174358f, 0.03566241f, -0.03693839f, -0.02208167f, 0.06336858f, 0.03514716f, -0.02202454f, 0.06050567f, 0.03656207f, 0.04169739f, 0.08940247f, -0.04895518f, 0.04428855f, 0.04200938f, -0.07313960f, 0.04233672f, -0.07711084f, 0.03199244f, -0.12915492f, 0.01812414f, 0.02142059f, 0.00343106f, -0.05894487f, -0.00131982f, -0.05527746f, 0.08823133f, 0.06391454f, -0.06446116f, -0.09338543f, -0.02117768f, 0.05940424f, -0.03140293f, -0.02742701f, 0.09430914f, 0.03005770f, -0.00281861f, 0.06552193f, -0.09074311f, 0.05796009f, -0.10654308f, 0.01057812f, 0.00013314f, -0.06524990f, 0.01218151f, 0.05310360f },
      { 0.07016397f, -0.07391917f, 0.06581546f, 0.01631081f, 0.06643432f, -0.05525365f, 0.03091153f, -0.07795554f, -0.07004611f, 0.00913284f, 0.07293453f, 0.02167015f, -0.06665710f, 0.07397132f, -0.00006866f, 0.00950301f, -0.04344730f, 0.07273372f, -0.03723569f, 0.00475136f, -0.05639643f, 0.02261197f, -0.07043669f, -0.07271545f, 0.05492162f, 0.00956497f, 0.03306029f, -0.04451805f, 0.02459841f, 0.01119503f, 0.03476747f, -0.02302987f, -0.04542860f, 0.08350987f, -0.06040965f, 0.01201251f, -0.07525836f, 0.04368876f, -0.02409636f, -0.03231767f, 0.03622605f, 0.02217097f, 0.08398258f, -0.03582586f, -0.00460624f, -0.02731622f, 0.07134018f, 0.00565948f, 0.08114085f, -0.05208495f, -0.07120375f, -0.02978760f, -0.06906901f, -0.06086610f, -0.02031021f, -0.03389181f, 0.02281103f, 0.02160522f, -0.07574315f, -0.02289942f, 0.01278032f, 0.00437889f, -0.07952109f, 0.03478134f },
      { 0.04286979f, 0.00222147f, 0.01165702f, 0.01995416f, 0.04661086f, -0.01236970f, -0.11772048f, 0.11093616f, -0.01366214f, -0.13622276f, -0.05974501f, -0.06222035f, 0.09463909f, 0.03262534f, 0.00734297f, 0.10441355f, 0.07927650f, -0.03652586f, 0.03066878f, -0.08735534f, 0.10508268f, 0.00778316f, 0.02829337f, -0.01424852f, 0.09230567f, 0.03198454f, 0.09306874f, -0.07013077f, 0.02253792f, 0.00776977f, -0.12535049f, 0.11624785f, -0.01075775f, 0.02178430f, -0.01218766f, 0.10194650f, -0.02093329f, -0.13310835f, 0.09256880f, -0.01881254f, 0.03568593f, -0.08311752f, -0.04432712f, 0.01522321f, 0.06483833f, 0.14269114f, 0.11000925f, -0.00839432f, -0.08405741f, 0.01332529f, -0.00002534f, -0.00537916f, 0.05697012f, -0.01774075f, -0.10917477f, 0.02173694f, -0.05987075f, 0.00671789f, -0.10975993f, 0.07504557f, 0.03492560f, -0.11270764f, 0.07711045f, -0.01468104f },
      { 0.01522056f, 0.08103626f, -0.08184838f, 0.09412467f, 0.01948781f, -0.02957928f, -0.02919714f, -0.04326534f, -0.04165864f, -0.05680703f, 0.05084202f, 0.04360971f, 0.10754944f, -0.03818122f, 0.01621345f, 0.06861527f, -0.04111866f, 0.09647646f, -0.02781717f, -0.00810290f, 0.06105784f, -0.00590806f, -0.08068903f, -0.05008319f, -0.01553431f, 0.07166777f, 0.10103508f, 0.03687334f, 0.03317087f, 0.01452461f, -0.04951639f, 0.08101571f, 0.06345470f, 0.08385701f, 0.05152539f, 0.00883663f, 0.11484569f, -0.10280683f, -0.02836991f, 0.02042191f, 0.09382189f, -0.05828471f, 0.02912742f, -0.09128466f, 0.08166019f, 0.11514602f, 0.06099913f, -0.04809078f, 0.03633672f, 0.07415854f, 0.04609482f, 0.05211455f, 0.01092129f, 0.00091398f, -0.06518794f, 0.08898214f, -0.01456199f, 0.09805955f, -0.04385777f, -0.03037848f, 0.07354559f, -0.07907503f, 0.00594013f, -0.07443988f },
      { -0.03957438f, -0.00244771f, -0.04963833f, 0.08189009f, -0.07806583f, 0.03787186f, 0.06283328f, -0.02650356f, 0.00514019f, -0.06319302f, -0.07347727f, -0.05219959f, 0.03354206f, -0.02358820f, 0.08932507f, -0.04578105f, 0.09723170f, -0.00951729f, -0.01633149f, -0.06393909f, 0.03029494f, 0.02360369f, -0.07421507f, -0.05018400f, 0.00550056f, 0.08207941f, -0.01392616f, -0.00139074f, -0.04645943f, 0.05888497f, 0.02944278f, -0.06138014f, -0.04287698f, -0.03685461f, 0.02616307f, -0.07620829f, 0.04975338f, 0.05581963f, 0.00604086f, -0.05356560f, 0.00682817f, -0.01206833f, 0.03996743f, -0.02857912f, 0.06257876f, -0.05794668f, -0.02900174f, 0.03323221f, -0.09642094f, 0.01866792f, 0.03704416f, 0.01302843f, -0.02237186f, -0.04801875f, -0.05370262f, 0.05990910f, -0.09020121f, -0.06559375f, -0.08099956f, 0.03844499f, -0.07994983f, 0.05356196f, 0.02945300f, 0.03360404f },
      { 0.06307613f, -0.02846551f, -0.07548689f, 0.07314349f, 0.01611603f, -0.06472176f, 0.07106079f, 0.08539320f, 0.01539138f, -0.01775621f, -0.03873657f, -0.08574631f, 0.06599713f, -0.01860769f, -0.08896764f, -0.04465145f, -0.05443982f, 0.00440378f, 0.05455986f, 0.00595678f, -0.01651867f, 0.01469364f, 0.04977807f, -0.07160932f, 0.07178719f, 0.08254061f, -0.01798532f, 0.00614357f, -0.04441600f, -0.08037984f, 0.02983342f, -0.06195537f, 0.05149725f, -0.02218241f, -0.03260104f, 0.07445058f, 0.07114200f, 0.08952098f, -0.02105713f, 0.03304488f, -0.05072464f, -0.04415148f, -0.06269267f, 0.08658055f, -0.07979279f, 0.01679171f, -0.10242101f, 0.07816879f, 0.03511507f, -0.06962474f, 0.05315927f, -0.04054934f, -0.01814571f, 0.00813953f, 0.03172005f, 0.06605738f, 0.07732913f, 0.05615490f, -0.03143344f, 0.03720163f, -0.02465264f, 0.05124585f, -0.05065736f, -0.02737192f }
    }
  },
  // ky=1
  {
    // kx=0
    {
      { 0.00025535f, -0.03207093f, 0.00780990f, 0.07951317f, 0.04119216f, 0.02502365f, -0.01398096f, 0.06160703f, 0.01529734f, 0.04469876f, 0.07460088f, 0.01809052f, 0.08793519f, 0.04115800f, -0.07516322f, 0.08578478f, 0.07696543f, -0.07058156f, 0.09064647f, 0.05789448f, -0.00504367f, 0.05725351f, 0.03206796f, 0.00137441f, 0.00529371f, -0.02136651f, 0.06529906f, -0.07204862f, 0.05423796f, -0.01868088f, 0.04587487f, -0.01685293f, 0.04765735f, 0.03625276f, 0.04786526f, 0.01100188f, 0.03437108f, 0.00122206f, 0.09576207f, -0.05182795f, -0.04730389f, -0.07370505f, 0.04538109f, -0.07142600f, 0.07069489f, 0.03273179f, 0.10332929f, -0.00220136f, -0.03509028f, 0.05938419f, 0.03093392f, 0.02059416f, 0.07896603f, 0.01738664f, -0.05273034f, -0.05507635f, -0.05464813f, 0.07189000f, -0.00483360f, 0.01959420f, 0.02928273f, -0.07950927f, 0.07468021f, 0.00815783f },
      { 0.02416502f, 0.05047455f, 0.00837422f, 0.06880944f, -0.02494085f, -0.03986819f, 0.06082502f, 0.05326645f, 0.01447977f, -0.03457662f, -0.01106643f, 0.01555888f, 0.08201849f, -0.04078381f, -0.09932446f, 0.06666403f, 0.08518349f, -0.03848244f, -0.03050354f, 0.00380388f, 0.07386142f, -0.07895773f, -0.00278749f, -0.01692120f, -0.03295112f, -0.00399988f, 0.02999806f, -0.03089430f, 0.04537925f, -0.03964828f, -0.00846687f, -0.02423591f, -0.05534158f, 0.03572961f, 0.00247280f, 0.07956292f, -0.05045282f, 0.00702807f, -0.06316037f, 0.07477317f, -0.03274805f, 0.06469135f, -0.05313255f, -0.02603373f, -0.05214722f, 0.07292872f, 0.01522646f, 0.05706156f, 0.03947499f, 0.06779145f, -0.00132267f, -0.02726534f, -0.01295628f, -0.07145531f, 0.06536219f, 0.02971778f, -0.06618236f, 0.01109102f, 0.01529801f, -0.04356888f, 0.01147253f, 0.03136938f, 0.06841288f, 0.00966984f },
      { 0.00495084f, -0.00608659f, -0.01510247f, -0.06492553f, -0.01287352f, 0.06282948f, -0.04672791f, 0.01148220f, 0.00942862f, -0.07770614f, 0.05883402f, -0.01120548f, -0.02872315f, 0.02220106f, -0.05696283f, 0.04888645f, -0.03179691f, -0.06915770f, 0.04920390f, -0.07711889f, 0.07413455f, -0.03790872f, 0.01233926f, -0.00138637f, 0.07586305f, 0.04198939f, -0.01874614f, -0.05267341f, 0.08907796f, -0.00733625f, -0.03762428f, 0.05164411f, -0.07807443f, -0.04288088f, -0.07099129f, 0.04769264f, -0.00097069f, -0.05251117f, -0.04750017f, -0.02250002f, -0.01130682f, -0.02091745f, 0.00059836f, -0.07790967f, -0.01945397f, 0.07313225f, -0.04726098f, 0.03756289f, -0.07170390f, -0.07609259f, -0.01521546f, -0.02171803f, -0.00746404f, 0.03257191f, -0.04694851f, 0.02896951f, -0.08733197f, 0.03035563f, -0.07867531f, 0.06785766f, 0.07716712f, 0.00732866f, -0.07220840f, -0.05606647f },
      { 0.06155992f, 0.00449065f, 0.05714616f, -0.04558003f, 0.03166662f, -0.07656460f, -0.04279803f, 0.01300984f, 0.07189153f, 0.08064705f, 0.01529190f, 0.06041069f, -0.03891491f, -0.00998854f, 0.01858870f, -0.07365998f, -0.06357457f, -0.05286214f, 0.07020400f, -0.08069950f, 0.01845388f, 0.06840009f, 0.02613041f, 0.02659411f, -0.04985553f, -0.06351513f, 0.01231155f, -0.02927990f, -0.03577676f, 0.02595304f, 0.00084719f, -0.07863574f, 0.04924167f, -0.02922057f, 0.00623314f, 0.07784750f, 0.01316799f, -0.03467392f, -0.07549409f, -0.01480050f, -0.03926722f, -0.08791932f, 0.02701661f, 0.04638775f, -0.01552434f, -0.02289615f, 0.00199482f, -0.00446763f, 0.07542884f, -0.01118047f, -0.03876586f, 0.03591082f, -0.06597488f, -0.01428559f, 0.00700715f, -0.01361782f, -0.06804963f, 0.05403460f, -0.05776216f, -0.02195348f, 0.02944371f, 0.01317948f, 0.03972049f, -0.04345065f },
      { 0.03051015f, -0.01092750f, 0.00113294f, 0.07155773f, -0.07927445f, -0.04467779f, -0.06238802f, 0.11275111f, 0.07341216f, -0.02632488f, -0.01543966f, 0.07602233f, -0.06356753f, -0.00397394f, 0.00227009f, -0.05445217f, 0.08030369f, -0.05148786f, 0.06454385f, 0.01157970f, -0.02857086f, -0.09634963f, -0.02511007f, 0.00998655f, -0.01334986f, 0.03349549f, 0.00011312f, -0.06670385f, 0.02950864f, -0.07784647f, -0.08507676f, 0.03598700f, -0.06894813f, -0.05326845f, 0.07537517f, -0.04045332f, 0.02945775f, -0.02888450f, 0.01568023f, -0.08821754f, 0.05036819f, 0.01155666f, 0.04584562f, 0.02841603f, -0.04468066f, -0.02633625f, 0.00034790f, -0.07730635f, -0.07653501f, -0.02321008f, 0.02917496f, -0.08527585f, -0.02995775f, -0.04289958f, 0.05951187f, 0.01370226f, -0.08016791f, 0.06438654f, -0.07555051f, 0.00003378f, 0.05708770f, 0.03503860f, 0.05631137f, 0.03990984f },
      { 0.01086914f, 0.06293600f, -0.01455500f, 0.01563760f, -0.00137905f, 0.01251518f, -0.13119143f, -0.03454366f, 0.11471874f, -0.07620465f, -0.01731292f, 0.03733818f, 0.00761226f, 0.04613480f, -0.04468949f, 0.04475005f, 0.11185406f, 0.06549274f, 0.09184344f, 0.07140243f, -0.01432120f, -0.07549570f, 0.00758634f, -0.02429737f, 0.01729633f, -0.01319765f, 0.07819968f, -0.05065177f, 0.11283500f, -0.01438121f, -0.05225792f, 0.08824594f, -0.03813567f, 0.08797750f, -0.07119811f, 0.11891620f, 0.04850791f, -0.06080690f, -0.00762730f, -0.10559348f, 0.03442508f, -0.03844922f, 0.00402311f, -0.03380474f, 0.05453845f, 0.03951049f, 0.05355387f, -0.01066598f, -0.00457635f, 0.02056116f, 0.05547021f, -0.08659346f, 0.11735892f, 0.03197862f, -0.04814019f, -0.00080295f, -0.10857873f, 0.06144543f, -0.10452356f, 0.04478069f, -0.03691741f, 0.03768759f, 0.03546971f, 0.05794570f },
      { 0.00698231f, 0.07151293f, -0.01400928f, -0.09043214f, -0.03016734f, 0.04542909f, 0.02234669f, -0.00174598f, -0.02286158f, -0.04395049f, -0.04032831f, -0.02886202f, -0.03195956f, 0.04472822f, -0.07704091f, 0.03355172f, 0.03873785f, 0.04812775f, 0.03854239f, -0.08096975f, 0.06872755f, -0.00363791f, -0.09058611f, -0.04986290f, 0.03321270f, -0.07555745f, 0.03209090f, -0.07912759f, 0.08611181f, -0.01813518f, -0.08221336f, -0.01094659f, 0.05134852f, 0.01816117f, 0.00209723f, 0.08595743f, 0.06105207f, 0.01596868f, -0.05851245f, -0.02626055f, 0.01663439f, 0.01921803f, 0.02994282f, -0.01519710f, -0.02996857f, 0.00832287f, 0.01224867f, -0.03955952f, 0.01253299f, 0.00763584f, 0.01489127f, -0.01549257f, 0.00846236f, -0.05241896f, 0.04789236f, 0.08059330f, -0.06619215f, -0.08493877f, 0.03867171f, 0.03883592f, -0.04445218f, 0.05987867f, 0.02886508f, 0.07848443f },
      { -0.01870100f, 0.05779811f, 0.06464724f, 0.03575323f, -0.04714349f, 0.04734430f, 0.07477590f, -0.07512873f, 0.04188915f, 0.01140714f, -0.04510254f, 0.04955824f, 0.03364800f, 0.07397991f, 0.01996475f, 0.02767133f, -0.03545122f, 0.06586934f, -0.06461981f, 0.06011142f, 0.00300185f, -0.01297103f, 0.06382744f, 0.08358715f, -0.05945634f, 0.07834767f, 0.01423887f, 0.02830354f, -0.03206087f, -0.09305160f, -0.00134988f, 0.05044784f, -0.01994665f, -0.04484554f, 0.02462881f, 0.05209897f, -0.05346169f, -0.03020072f, 0.09270266f, 0.00805362f, -0.03115301f, 0.00533601f, -0.06505847f, 0.03875986f, -0.01605657f, 0.07121629f, 0.08710182f, -0.01423730f, -0.00033932f, -0.04264461f, -0.00578937f, -0.03963948f, -0.04305746f, -0.06837380f, -0.06926062f, 0.00890536f, -0.06230727f, -0.00892993f, -0.03853131f, 0.04216994f, 0.02658313f, 0.02025692f, -0.04134324f, -0.06949441f },
      { 0.02121175f, 0.06143520f, -0.03428133f, 0.08771437f, 0.04811645f, -0.06728397f, 0.02406996f, 0.11521583f, 0.07426493f, -0.05764899f, 0.03212493f, -0.01659518f, 0.11717290f, 0.04518922f, -0.00652342f, 0.09115788f, 0.09118526f, 0.04359208f, -0.03018863f, 0.05985117f, -0.04200904f, -0.01056948f, -0.00952421f, -0.08296435f, 0.10026997f, -0.01558701f, 0.06684441f, 0.06005121f, 0.10690889f, -0.08972690f, -0.02223164f, 0.04531373f, 0.08792460f, 0.06006861f, 0.05219511f, 0.01493193f, 0.00242927f, -0.07655685f, 0.06405657f, -0.09021654f, 0.02051918f, -0.01738865f, 0.03710251f, -0.01592665f, 0.07354861f, -0.03531493f, 0.01287466f, 0.01562002f, 0.00335258f, 0.14639965f, 0.07746787f, 0.07120010f, 0.01299827f, -0.04353261f, -0.04742109f, -0.00343182f, -0.09563615f, 0.04543103f, -0.12093935f, 0.09695101f, 0.00777800f, -0.05366066f, 0.02191939f, -0.00159860f },
      { 0.09746950f, -0.04074738f, 0.02188335f, 0.08900764f, 0.03101997f, 0.07665900f, -0.03338478f, 0.00131102f, 0.05052549f, -0.01593575f, -0.01768170f, 0.05279935f, 0.05754390f, -0.01404122f, -0.01941461f, 0.02293636f, 0.02529901f, -0.01515751f, -0.01568803f, 0.01537387f, 0.09087090f, -0.04090927f, 0.06736127f, -0.00510250f, 0.04093435f, -0.05587610f, 0.00735228f, -0.08373289f, 0.05707904f, -0.08644285f, 0.05073074f, 0.08773167f, 0.02277142f, 0.05031518f, -0.07515789f, -0.02103856f, 0.07585309f, -0.02711764f, 0.13085827f, -0.07673083f, 0.07191201f, 0.00058643f, -0.06463195f, -0.00002276f, 0.00286169f, 0.03474989f, -0.04256619f, -0.02361594f, 0.02517213f, 0.10218212f, 0.06327868f, -0.07589263f, -0.04730803f, 0.03807880f, 0.02736693f, 0.10937767f, -0.03003341f, 0.11053054f, 0.00657126f, 0.07047234f, -0.06964859f, -0.05529105f, 0.12384553f, 0.04434494f },
      { -0.01966751f, 0.07241296f, -0.05701096f, 0.00079379f, 0.07800968f, -0.01472369f, 0.00775258f, 0.08774203f, 0.01386453f, -0.01652157f, 0.05365097f, 0.02183234f, -0.05609874f, -0.02694240f, -0.02609310f, -0.02797909f, -0.03512824f, 0.00696423f, -0.05139493f, 0.03260321f, -0.01321261f, -0.04568212f, -0.02844954f, -0.01610412f, 0.06093080f, 0.01107831f, -0.01333979f, 0.05717879f, 0.08782585f, -0.04442477f, -0.07698572f, 0.07568960f, -0.03356195f, 0.04107885f, -0.03916967f, -0.05214215f, 0.03596913f, -0.08053046f, 0.03790272f, 0.04325256f, -0.04667348f, 0.05688727f, 0.03887613f, 0.03742529f, 0.07730115f, 0.02160740f, 0.03185658f, 0.05346926f, 0.01331967f, -0.01837505f, 0.01071006f, -0.04189171f, -0.06203320f, -0.03786371f, 0.02881564f, 0.02201671f, 0.00021552f, 0.01632423f, -0.07577470f, 0.11632673f, 0.05191280f, -0.05028329f, 0.00448881f, 0.06048024f },
      { 0.00393803f, -0.01418864f, -0.07064397f, 0.04228009f, 0.02166612f, -0.07054909f, -0.06435298f, -0.03553647f, 0.07461371f, 0.03473081f, 0.06931336f, 0.03334804f, 0.03230993f, -0.03729582f, -0.03288686f, 0.07607467f, -0.02468968f, -0.05219558f, 0.06753767f, -0.04831730f, 0.05671357f, -0.00470853f, -0.05742448f, 0.03811915f, 0.02925377f, -0.05694905f, -0.08823246f, 0.01237622f, -0.04442743f, 0.06967407f, 0.07702845f, -0.03522282f, 0.03304738f, -0.01048869f, -0.07074751f, 0.00995378f, 0.01045753f, 0.05946051f, 0.01335401f, -0.03268161f, -0.06379803f, 0.00723528f, 0.04442826f, 0.02404965f, -0.01995621f, -0.04603480f, 0.06640084f, -0.03176418f, -0.02340452f, 0.00816591f, -0.00011940f, -0.09176989f, -0.00755626f, -0.05089159f, 0.03124337f, 0.01444167f, 0.00892228f, 0.03483580f, 0.08189698f, -0.04017898f, -0.02586778f, -0.02189129f, -0.04594981f, 0.07916629f },
      { -0.02186879f, -0.03510907f, 0.06450278f, -0.05724280f, 0.00783999f, 0.06327748f, 0.06807685f, 0.05026939f, 0.05135526f, -0.04092784f, -0.03268475f, -0.08877930f, 0.00074565f, 0.00021058f, 0.06939645f, 0.00847444f, -0.04515298f, -0.04772545f, 0.01761986f, 0.01472207f, 0.06211128f, -0.01815790f, -0.02761330f, 0.00967189f, -0.02583339f, -0.06087418f, 0.05591101f, -0.06985106f, -0.02757420f, -0.07368247f, 0.00238773f, -0.03375385f, 0.00255521f, 0.05227417f, -0.01606866f, 0.00528418f, 0.04480693f, 0.07424589f, -0.05608255f, -0.01607461f, -0.01606458f, 0.03696148f, 0.00066636f, -0.03028190f, 0.04707911f, -0.01190409f, 0.01132529f, 0.00851483f, 0.01718062f, 0.07583843f, 0.02445144f, -0.04208162f, 0.03104816f, 0.04394257f, -0.03609154f, 0.08842560f, 0.06129858f, 0.01422504f, 0.03510823f, 0.07656523f, -0.08043177f, -0.01480753f, -0.00703839f, 0.01461925f },
      { -0.03448942f, 0.10827597f, 0.03529082f, 0.08404732f, 0.02832375f, -0.01919526f, -0.04460042f, 0.02608794f, 0.11352504f, 0.01746831f, -0.07662778f, 0.07290263f, 0.10387547f, 0.06922434f, -0.03924926f, 0.06337047f, -0.00572245f, 0.03461928f, 0.02079476f, -0.02038282f, 0.04286472f, 0.02848021f, 0.05877904f, -0.02579799f, 0.05809414f, -0.05289508f, 0.00926656f, -0.08226462f, 0.04943714f, 0.01979744f, -0.09765548f, -0.02174085f, -0.00241598f, 0.10865296f, 0.06264042f, -0.04602420f, 0.09157009f, 0.01991879f, 0.03181013f, -0.10936396f, 0.07032312f, -0.02281055f, -0.02166530f, 0.02047259f, 0.08376123f, 0.00094886f, -0.06818824f, -0.04141717f, -0.05760405f, 0.00615466f, 0.10036241f, 0.02557669f, -0.01017535f, -0.07754525f, -0.08403055f, 0.03428541f, 0.04470710f, 0.05629846f, -0.03019336f, 0.03751817f, 0.07574353f, -0.03780546f, 0.09792028f, -0.02356324f },
      { 0.02672291f, -0.06453441f, -0.07614467f, -0.00321500f, -0.03821660f, 0.01549405f, 0.06705843f, -0.07342894f, -0.05247397f, -0.00038949f, -0.02939686f, -0.03757159f, -0.00979329f, 0.01664307f, -0.08425701f, 0.07378127f, 0.06268203f, 0.07619765f, -0.05730653f, 0.02693215f, 0.04952681f, -0.07778407f, 0.07443406f, -0.03450859f, 0.01951678f, 0.01381048f, -0.03839647f, -0.07832596f, -0.00995531f, -0.05285728f, -0.01207957f, -0.04448785f, 0.03400058f, 0.05111827f, -0.03071790f, -0.01223150f, -0.08478331f, -0.05671880f, 0.08168281f, 0.03788943f, 0.05517172f, 0.05991618f, -0.02828199f, 0.01106246f, -0.00398046f, -0.07814538f, -0.05586645f, -0.03219664f, 0.00138372f, -0.00673752f, 0.00569648f, -0.07652371f, -0.07457314f, -0.03759221f, -0.05091237f, -0.00906030f, 0.06533796f, 0.03393862f, 0.01392628f, -0.01764421f, 0.03819678f, -0.05944223f, -0.01002947f, -0.05940473f },
      { -0.00753059f, -0.00590068f, -0.09201332f, -0.06894713f, -0.02372187f, -0.05346894f, -0.03521682f, -0.07142155f, -0.05109263f, -0.03816182f, -0.02492283f, 0.04475269f, 0.04856171f, -0.03811411f, 0.08780037f, 0.08203772f, -0.01437893f, 0.04033456f, 0.00944707f, -0.00032257f, 0.01236010f, 0.03843082f, 0.05284273f, -0.03440661f, 0.03445435f, 0.04570185f, 0.00688310f, -0.06838432f, -0.03377442f, 0.07835096f, 0.03380097f, 0.07124034f, 0.04139643f, -0.03629760f, -0.04683441f, -0.00016879f, -0.06233960f, 0.05106199f, 0.02752960f, -0.03574774f, 0.00199947f, -0.05346264f, -0.00067752f, 0.01256637f, 0.07420234f, -0.04077343f, -0.02034997f, 0.05403383f, -0.01348906f, 0.06251808f, -0.02617707f, 0.03962976f, -0.02989394f, 0.06990773f, -0.03938399f, -0.01371587f, -0.04747471f, -0.06319226f, 0.04776107f, 0.05837545f, 0.05625534f, -0.05902791f, -0.07218961f, -0.01231886f },
      { -0.04167405f, 0.06990039f, -0.04618986f, -0.02132732f, -0.08395859f, -0.02527272f, -0.02496651f, -0.04418072f, 0.06087509f, -0.04121252f, -0.07001864f, -0.08337985f, -0.01407823f, -0.09083037f, -0.03071885f, 0.01269320f, 0.07713459f, -0.02144404f, -0.01658006f, 0.07066102f, 0.00987751f, 0.03524875f, -0.04363760f, -0.06985014f, -0.03127533f, -0.01573467f, 0.01304025f, 0.05560385f, -0.00011821f, -0.06411658f, 0.07949254f, -0.04820611f, -0.01178207f, -0.00696834f, -0.07694513f, 0.03480443f, 0.03071141f, 0.02127253f, 0.02332721f, -0.00070828f, 0.02090559f, -0.01599560f, -0.00538404f, 0.00186963f, -0.01353822f, -0.03403305f, -0.07805806f, 0.05150763f, 0.04191495f, 0.00580509f, -0.05401083f, -0.06908920f, 0.04556993f, -0.02097820f, -0.01357213f, -0.03681108f, -0.04888795f, -0.03528414f, 0.08112350f, 0.03420366f, -0.01840517f, 0.02145651f, -0.07852740f, -0.06484398f },
      { 0.02551466f, -0.04810693f, 0.03432585f, 0.03274693f, -0.00080026f, 0.01060789f, 0.06317847f, -0.07901594f, -0.07316703f, 0.00631294f, -0.05000117f, 0.00794585f, -0.03031498f, -0.00913723f, -0.01904244f, 0.07748632f, -0.07903472f, 0.05673118f, -0.04400496f, -0.00626909f, 0.06653517f, 0.04109450f, 0.06095746f, 0.04540503f, 0.03307141f, -0.01854025f, 0.02224017f, 0.05266372f, 0.08202551f, 0.01470500f, 0.00697587f, 0.01520486f, -0.01531781f, -0.01885109f, 0.06502932f, 0.02056865f, -0.08283254f, 0.07689612f, 0.05854299f, 0.00092754f, 0.00348860f, -0.02442172f, -0.04579129f, 0.03973807f, -0.04151544f, 0.02236264f, 0.04516448f, -0.05209581f, 0.06910200f, -0.05595860f, 0.05974789f, -0.08291316f, -0.06629567f, -0.08527642f, -0.02048058f, -0.06261792f, 0.01952235f, -0.01175913f, 0.00912202f, 0.01254906f, -0.06030458f, -0.02401108f, -0.05708382f, -0.07772808f },
