#ifndef WEIGHTS2_H
#define WEIGHTS2_H

// Conv2 : W[KH][KW][IN_C][OUT_C] = [3][3][16][32]
#define C2_KH    3
#define C2_KW    3
#define C2_IN_C  16
#define C2_OUT_C 32

static const float WEIGHTS2[C2_KH][C2_KW][C2_IN_C][C2_OUT_C] = {
  // ky=0
  {
    // kx=0
    {
      { 0.06919222f, 0.15531421f, -0.01758036f, -0.15191792f, 0.00933672f, 0.09144834f, 0.05320147f, 0.07131080f, 0.07644579f, 0.00819471f, -0.01028091f, 0.00016071f, 0.06909887f, -0.00236861f, 0.03438821f, -0.13216636f, -0.01279594f, -0.08824695f, 0.11736611f, 0.07997057f, -0.19167098f, 0.07797602f, -0.02420002f, 0.03621482f, 0.10742993f, -0.03893864f, 0.02833102f, -0.12900530f, 0.16386187f, 0.07897010f, -0.01021503f, -0.07810781f },
      { 0.08785410f, -0.11657355f, 0.05441690f, 0.11894786f, -0.06317780f, 0.03733631f, -0.08372205f, -0.09342398f, 0.11548352f, 0.03732197f, -0.05875311f, 0.01213272f, 0.00118449f, 0.12083690f, 0.02744548f, 0.04678981f, -0.03727993f, -0.05751864f, 0.03898649f, 0.02768355f, -0.06087343f, -0.02079857f, -0.06390701f, 0.00599396f, 0.03430605f, 0.07744055f, 0.07645665f, -0.01428994f, -0.02786318f, -0.02677377f, 0.09094157f, -0.02378526f },
      { -0.01060570f, 0.06130243f, -0.12348250f, -0.02603042f, -0.02816696f, -0.10883665f, 0.03517096f, 0.08871134f, -0.05144002f, 0.05772960f, -0.11255216f, 0.05843894f, 0.02229546f, -0.00143330f, -0.11230618f, 0.05878652f, 0.05108944f, 0.06010918f, -0.04632049f, -0.11276897f, 0.01466746f, 0.05763013f, -0.02001047f, -0.03719486f, 0.01061713f, 0.08385853f, -0.11286650f, -0.04694524f, 0.10240284f, 0.08624167f, -0.06390903f, 0.04058586f },
      { -0.10001104f, 0.01570718f, 0.03247699f, 0.10915347f, -0.10184257f, 0.09367912f, 0.02404329f, -0.05959658f, -0.07019231f, -0.10394532f, -0.00638376f, -0.03560619f, -0.02806627f, -0.11064658f, -0.04788769f, 0.04977913f, 0.10174422f, -0.00829734f, -0.02037765f, -0.05906596f, -0.10440762f, -0.04068430f, -0.01983884f, -0.10578252f, -0.05717153f, 0.00354054f, 0.05404185f, 0.05597388f, -0.05459028f, 0.04874872f, 0.00236618f, 0.06169443f },
      { -0.04124085f, -0.12410665f, -0.05816649f, 0.05094719f, 0.04467215f, 0.09985742f, -0.03157353f, -0.10307587f, 0.01179300f, 0.10950504f, 0.05850792f, 0.07336344f, 0.04998799f, -0.04791691f, -0.03467969f, -0.05139874f, 0.06199701f, -0.08270303f, 0.02255939f, 0.09193719f, -0.06686723f, 0.09976880f, 0.00327638f, -0.00213364f, -0.06352963f, 0.13679881f, 0.02975510f, 0.10248798f, 0.02983761f, -0.08236493f, -0.06119039f, 0.00930467f },
      { -0.07243096f, 0.00173372f, 0.01657899f, -0.07983015f, -0.01015617f, 0.05693287f, 0.06500375f, -0.01139490f, 0.14355804f, -0.02702993f, 0.14011391f, -0.10957085f, -0.06116357f, -0.06100136f, -0.00073538f, -0.10051993f, 0.11740004f, -0.08225224f, -0.00309556f, 0.04602265f, 0.04962315f, 0.01652967f, 0.07533322f, -0.03806209f, -0.12368648f, 0.15951335f, -0.00349004f, 0.08936857f, -0.05193825f, 0.03137842f, 0.03080800f, 0.06956744f },
      { 0.05124990f, -0.01856707f, -0.02650250f, -0.14777526f, 0.14306347f, 0.12145261f, 0.08265108f, 0.16478074f, -0.03645456f, 0.14720760f, 0.18652697f, 0.04676522f, -0.04185139f, 0.06121540f, 0.02936656f, -0.12767221f, 0.07451788f, -0.00380008f, 0.02978734f, 0.13144906f, 0.01289177f, 0.03068154f, 0.00172516f, 0.02818144f, -0.09595908f, -0.00228457f, 0.18913889f, 0.06075209f, 0.11069702f, 0.13474394f, 0.05223017f, -0.09404296f },
      { 0.02519312f, -0.04804692f, 0.09542426f, 0.01456077f, 0.08198424f, 0.06112514f, -0.02309093f, 0.03514751f, 0.03917677f, 0.01475001f, 0.02377839f, 0.00229801f, 0.03680724f, -0.03267422f, -0.08810492f, -0.16454126f, 0.11339910f, 0.05959274f, 0.10072355f, -0.06260738f, -0.13848665f, 0.06435830f, -0.11370818f, 0.14839874f, -0.11182788f, -0.04965000f, -0.02128885f, -0.11541460f, 0.11453685f, -0.00489336f, -0.07674797f, -0.13205092f },
      { -0.10042567f, 0.04709038f, -0.06007492f, 0.04678006f, 0.05796902f, -0.05014801f, -0.06760176f, -0.10273101f, 0.10815950f, -0.10421142f, -0.04666531f, 0.08704708f, 0.04204491f, 0.01869648f, -0.03516943f, 0.06532851f, 0.02401735f, -0.01283809f, 0.02567493f, -0.06925014f, -0.00576633f, 0.10856526f, -0.05380142f, 0.02733622f, -0.09151211f, -0.05183526f, -0.05497280f, -0.08436563f, 0.01244471f, -0.04361291f, -0.07290831f, 0.07400394f },
      { -0.08318479f, 0.03213891f, 0.11262649f, 0.07276487f, 0.01942655f, 0.01500609f, -0.02226553f, 0.09281718f, 0.10937185f, 0.11121247f, 0.10282753f, -0.04993566f, -0.12309048f, 0.13282847f, -0.00274388f, -0.08460030f, -0.07899718f, -0.09177802f, 0.00093311f, 0.01211091f, 0.01815318f, 0.05139703f, 0.00545610f, -0.03302563f, 0.02402661f, 0.07661630f, 0.21001944f, -0.10800432f, 0.01599899f, 0.15935074f, 0.09266359f, -0.01559577f },
      { 0.09287158f, 0.08466189f, -0.01228704f, -0.14468753f, -0.08914588f, 0.12615344f, 0.08999537f, 0.13115558f, -0.09936367f, 0.15328529f, 0.10069365f, 0.00343104f, 0.01553136f, 0.07096681f, 0.05500060f, -0.14206812f, 0.02847905f, 0.01336946f, 0.07437401f, -0.04727608f, 0.05921162f, 0.15742409f, 0.05684933f, 0.05251288f, 0.04154069f, -0.01249457f, 0.02415518f, 0.06434041f, 0.03408208f, 0.12079369f, 0.15715426f, -0.12352645f },
      { -0.09506916f, 0.02687445f, 0.04363543f, 0.06867491f, 0.00305558f, -0.03152297f, -0.07713573f, 0.09744181f, -0.07385620f, 0.02413342f, 0.09474646f, -0.03818021f, 0.01718986f, 0.04101330f, -0.07889162f, 0.06265552f, -0.04482187f, -0.09645342f, 0.06532507f, -0.10083254f, 0.09751853f, 0.00756409f, 0.09561633f, -0.11761799f, 0.06834827f, -0.06700582f, -0.10097366f, -0.05411105f, -0.07527957f, 0.03086441f, 0.01470998f, 0.01641841f },
      { 0.04477485f, 0.09591901f, 0.10853212f, -0.03849842f, 0.04083015f, 0.07508322f, -0.11514359f, 0.04621313f, 0.09717675f, 0.03873765f, 0.04567039f, -0.00532822f, -0.07981397f, -0.08189420f, -0.12116647f, -0.02375817f, -0.08085719f, -0.09919479f, 0.05157945f, -0.04446847f, 0.06897055f, 0.07173299f, -0.01038078f, -0.07794394f, 0.09024147f, 0.03576938f, -0.06140321f, -0.05410048f, -0.09775444f, 0.11444965f, 0.04101826f, -0.03171144f },
      { 0.06958314f, -0.02792349f, -0.00335004f, 0.06933494f, -0.04303529f, -0.06865975f, -0.13124886f, 0.03610833f, 0.08734307f, -0.09289556f, 0.10588180f, 0.04380279f, 0.05566585f, -0.10307326f, -0.11243840f, 0.02311661f, -0.02128356f, -0.11090110f, 0.05948913f, -0.08161923f, 0.09760992f, -0.08522829f, -0.00300837f, -0.08333061f, -0.11451665f, 0.08896827f, -0.03228697f, -0.09382256f, -0.02661684f, 0.08645990f, -0.05089745f, -0.10084035f },
      { 0.06220690f, 0.05150511f, -0.03079610f, -0.04888117f, 0.13695861f, 0.09612938f, 0.02470811f, -0.09349221f, -0.09759963f, 0.11035355f, 0.08915930f, -0.04956124f, -0.13600273f, 0.03853505f, -0.09772657f, 0.06195607f, 0.02780426f, 0.02804102f, 0.07401972f, -0.08850119f, 0.01944149f, -0.00438420f, 0.01447247f, 0.08573350f, -0.03530918f, -0.04845279f, -0.01139522f, 0.04388172f, 0.03609591f, -0.09154139f, -0.07327347f, -0.09495699f },
      { 0.03728904f, 0.02135632f, 0.07427125f, 0.01417372f, -0.00737066f, 0.02447364f, -0.02712489f, 0.04471764f, 0.11924361f, 0.03348908f, -0.07296883f, 0.06479705f, -0.02441542f, 0.02983502f, 0.07686770f, 0.10747515f, -0.03491613f, -0.04157546f, -0.09646662f, 0.09703571f, -0.06810935f, -0.04902716f, -0.05213273f, 0.09379818f, 0.10096992f, -0.10069010f, 0.06418119f, 0.10476244f, 0.08534239f, 0.06270272f, 0.09145450f, 0.05143326f }
    },
    // kx=1
    {
      { -0.02065399f, 0.06851681f, 0.15714000f, -0.13890448f, 0.10240280f, -0.00905805f, 0.09176277f, 0.18074492f, 0.02836631f, 0.04311399f, -0.02036240f, -0.13275856f, -0.06651928f, 0.13590784f, 0.10449499f, -0.18583179f, 0.11640574f, 0.02666099f, 0.01231598f, -0.01394038f, 0.00038879f, 0.01238408f, 0.03182153f, 0.08357062f, -0.11347121f, 0.01751166f, 0.02488411f, 0.02008272f, 0.20812587f, 0.14980249f, -0.01637420f, -0.00171692f },
      { -0.05768989f, -0.04915705f, -0.11526769f, 0.03725163f, -0.06459341f, -0.08913515f, 0.01226266f, -0.01932941f, -0.01756964f, 0.03469352f, 0.04253745f, 0.07255690f, 0.06847056f, 0.10158996f, 0.06679058f, 0.11091147f, 0.00270879f, -0.03438088f, -0.07227837f, -0.06396169f, -0.03605793f, 0.06203673f, -0.10840542f, 0.06050280f, 0.09289515f, -0.01090752f, 0.03378227f, -0.08242350f, -0.09194595f, -0.05536849f, -0.00936848f, 0.01846675f },
      { -0.00654667f, 0.07382173f, 0.10741335f, 0.10065112f, -0.07440182f, -0.01061226f, 0.01283360f, -0.09079661f, 0.09782562f, -0.00927475f, 0.09174105f, 0.00191895f, 0.00931877f, -0.00125507f, -0.01421178f, -0.02798918f, 0.07442003f, -0.09507912f, 0.02754604f, -0.01327307f, 0.06771705f, -0.05515196f, 0.09276884f, 0.03896620f, -0.08792829f, 0.03087437f, 0.02595792f, -0.03893648f, 0.09970158f, -0.01271394f, -0.02226099f, -0.04767435f },
      { -0.03739436f, 0.04415424f, -0.00756005f, 0.09359029f, -0.12867261f, -0.04260451f, -0.11248802f, 0.07264404f, 0.03615842f, 0.09816612f, -0.11299154f, -0.06389131f, 0.03994231f, 0.08885282f, 0.06477619f, -0.00697391f, 0.02898750f, 0.10856467f, 0.03765652f, 0.09897356f, 0.01833885f, 0.00524155f, -0.01241500f, -0.04556199f, 0.08343520f, -0.02635039f, 0.04065182f, -0.11054555f, 0.00795260f, -0.04430841f, -0.09549033f, -0.01580279f },
      { -0.05220561f, 0.07124979f, 0.00482669f, -0.03875004f, 0.03085523f, 0.05407211f, 0.10410486f, 0.10128237f, -0.01090503f, -0.04767445f, 0.04833858f, -0.06490294f, 0.04818868f, -0.05379570f, 0.02652647f, 0.04116600f, -0.10377671f, 0.05817791f, 0.06621248f, 0.11874474f, 0.05939311f, 0.02205274f, -0.11431339f, -0.01446536f, -0.01789171f, 0.02920269f, -0.11610737f, -0.06577030f, 0.02074643f, 0.00010292f, 0.00610941f, -0.07091796f },
      { 0.07495792f, 0.10050979f, 0.02689697f, -0.06077982f, 0.03657074f, 0.09150120f, -0.05840458f, -0.05406917f, 0.08030874f, 0.07850501f, 0.03410776f, -0.08201158f, -0.14056416f, 0.07578319f, 0.02166010f, 0.02664952f, -0.10244214f, -0.11194111f, 0.13097723f, 0.09925126f, -0.01162581f, -0.01395984f, -0.01309896f, 0.07127432f, 0.01199378f, 0.04081166f, -0.09580715f, 0.03799768f, 0.10072277f, -0.05688037f, 0.07227890f, -0.14268583f },
      { 0.10409426f, 0.10728370f, -0.01387252f, -0.02039448f, 0.14869094f, 0.06224755f, -0.03112811f, -0.03392180f, -0.03083394f, -0.06308245f, -0.03593606f, 0.01187058f, -0.09326763f, -0.05104897f, -0.02629500f, -0.04692532f, 0.02093390f, 0.03122477f, 0.03973766f, 0.01259735f, 0.07071134f, 0.02996109f, 0.03435819f, 0.06712422f, 0.10511179f, 0.03723409f, -0.00378044f, 0.00526549f, 0.08217201f, 0.05674001f, -0.04781885f, -0.09318423f },
      { 0.01127297f, 0.02189832f, 0.10176533f, 0.02140289f, 0.18374215f, 0.09699509f, 0.14008226f, 0.13556242f, 0.07136849f, 0.05875612f, 0.06517351f, -0.14789069f, -0.00009332f, 0.01000560f, -0.08032914f, -0.16343907f, 0.03016511f, -0.02460164f, 0.08758453f, 0.07687503f, -0.10922536f, 0.00898573f, -0.04659826f, 0.08359939f, -0.01823601f, 0.05112982f, 0.19852960f, -0.09380555f, 0.04672177f, 0.08167648f, 0.05631848f, -0.09383027f },
      { 0.09087086f, -0.05245663f, -0.06451378f, -0.04538544f, -0.01731596f, 0.02714561f, 0.01781197f, -0.03524918f, 0.09315586f, 0.01971930f, -0.11022713f, -0.04110124f, -0.05049484f, 0.11183622f, 0.06207331f, 0.03479249f, 0.07702222f, 0.07002656f, -0.06072010f, -0.03810409f, -0.11318449f, 0.02981359f, -0.01526362f, 0.05348307f, 0.07226333f, 0.12284895f, 0.03791381f, -0.13112153f, -0.06393883f, -0.03695759f, -0.05138428f, -0.03185907f },
      { 0.07236707f, -0.00629781f, 0.09609942f, -0.03611332f, 0.12480977f, 0.11419401f, -0.05078095f, -0.06162228f, -0.01769992f, 0.11428144f, 0.06318279f, 0.00370939f, -0.08562337f, -0.02389104f, 0.05174676f, 0.01089813f, -0.04695178f, 0.00598791f, -0.02445932f, -0.05154278f, -0.00035815f, -0.02655481f, 0.03050478f, 0.05861941f, -0.09620854f, -0.00662181f, 0.00411279f, 0.02287111f, 0.08584280f, 0.08849458f, 0.00033067f, -0.13466586f },
      { 0.09115674f, 0.00254923f, -0.06400360f, -0.04705532f, 0.01218503f, 0.15039083f, 0.13203067f, -0.05127445f, 0.03311770f, 0.09679662f, -0.04826032f, -0.10054639f, -0.09742941f, 0.05080406f, -0.06418175f, 0.05466638f, 0.02149914f, -0.14316589f, -0.04278279f, 0.09695700f, -0.02674257f, 0.16611822f, 0.07039091f, 0.08302633f, 0.09448656f, 0.07926719f, 0.17189492f, -0.11435304f, 0.01013269f, 0.16744885f, 0.12345500f, -0.13510011f },
      { 0.05093418f, 0.04560116f, 0.05843686f, 0.08237968f, -0.02345678f, -0.03560094f, -0.01264839f, 0.09960676f, 0.12406334f, 0.01856127f, 0.09932235f, -0.09920924f, -0.01296026f, 0.00565688f, 0.00395073f, 0.05025287f, 0.03698729f, 0.05805187f, 0.10178450f, -0.10392210f, -0.03543405f, 0.05953788f, -0.11101759f, 0.11118759f, -0.11792353f, 0.03103315f, 0.01212615f, 0.09746700f, 0.06654821f, 0.03052411f, 0.01161448f, 0.00936789f },
      { -0.03259936f, -0.06625115f, -0.06058977f, 0.03006949f, -0.01612438f, -0.08381803f, -0.07831942f, 0.08969991f, 0.09956472f, -0.02610324f, 0.03973995f, -0.05060228f, -0.02822844f, 0.00945849f, 0.04828996f, 0.05891895f, 0.06043573f, 0.12100818f, -0.07855946f, 0.04433419f, 0.10618725f, -0.00570912f, -0.04043350f, -0.01051518f, -0.08521102f, 0.00158483f, -0.06912623f, -0.00848694f, -0.06327699f, -0.04499748f, -0.04223739f, 0.10791143f },
      { 0.03751794f, -0.07833306f, 0.11067971f, -0.01079160f, 0.04015173f, 0.08766904f, 0.00168603f, -0.01771792f, 0.05465811f, -0.03558113f, -0.11721837f, 0.07765789f, -0.10025463f, 0.10336605f, -0.02182114f, -0.09597532f, 0.07493886f, -0.03824463f, -0.11962464f, -0.05022319f, -0.04011175f, -0.00262627f, 0.05850217f, 0.07098695f, 0.05555854f, 0.06667542f, 0.00327674f, -0.05027146f, 0.08446222f, -0.10875458f, -0.03093093f, 0.10813939f },
      { -0.06172018f, -0.08853301f, 0.09488365f, -0.08367450f, 0.04094481f, -0.00693104f, -0.00644315f, 0.07306210f, -0.11577234f, -0.07547355f, 0.05766650f, 0.02812394f, 0.00482039f, 0.08982489f, -0.06002394f, -0.15264653f, 0.10449091f, -0.08940289f, 0.02526901f, 0.06811191f, -0.00517262f, -0.06177248f, -0.01811622f, -0.09552487f, 0.08104328f, 0.04577622f, -0.05733815f, 0.06240237f, 0.09966933f, -0.09617180f, -0.05343613f, 0.06071111f },
      { 0.01298591f, 0.07252824f, 0.04485841f, 0.05933404f, -0.04766028f, 0.03350395f, -0.08905885f, 0.04887226f, 0.12403173f, -0.03617444f, -0.02901583f, 0.02567046f, -0.09307488f, 0.08674242f, -0.08230254f, 0.06628744f, -0.03097709f, 0.09684266f, 0.07437444f, -0.03028230f, 0.07308275f, -0.06353233f, -0.08351818f, 0.05978259f, -0.07191042f, 0.12061583f, 0.08917925f, -0.01706883f, 0.04508080f, -0.02684472f, 0.02744182f, -0.07516001f }
    },
    // kx=2
    {
      { 0.15488042f, 0.09766433f, -0.00644090f, 0.00471927f, 0.25089425f, 0.09116515f, 0.06887810f, 0.11043685f, -0.00631802f, 0.14634778f, 0.11469536f, -0.00326824f, -0.01748520f, 0.04076775f, 0.05123561f, -0.06617326f, -0.03044062f, -0.15983421f, -0.01423541f, 0.05104449f, -0.01891323f, 0.10605265f, 0.00787113f, 0.00562243f, -0.03262261f, 0.19516447f, 0.14035200f, 0.00661403f, 0.23146817f, 0.11463632f, 0.15111536f, -0.02361120f },
      { 0.03637116f, 0.05977621f, 0.06826201f, -0.01799784f, 0.01469906f, -0.07649387f, 0.05115556f, 0.01485666f, -0.02259136f, -0.01188196f, 0.06844508f, -0.00551228f, 0.02609416f, 0.07375979f, -0.11092252f, -0.02363106f, -0.10505260f, 0.00969202f, -0.00353840f, 0.11139871f, -0.04061194f, -0.08694610f, 0.02161781f, 0.02073549f, -0.02514129f, -0.03480759f, -0.04819998f, -0.06082861f, 0.05451429f, 0.04994129f, -0.06771897f, -0.07060875f },
      { -0.05804540f, 0.10230047f, 0.01900590f, -0.03411216f, 0.07419628f, 0.09179024f, 0.01765953f, -0.00121265f, -0.11064472f, 0.06004580f, -0.03351486f, 0.06857648f, 0.09140275f, -0.07235765f, 0.03452296f, 0.10382929f, -0.00614961f, 0.11388876f, -0.05878640f, -0.00364705f, 0.01703345f, -0.08916824f, -0.06918097f, 0.07395396f, -0.06133110f, 0.07889912f, -0.05792764f, -0.05714891f, 0.11746024f, 0.05946067f, 0.01093212f, -0.02822599f },
      { -0.03053216f, 0.10320337f, -0.11269724f, 0.02150278f, 0.03902037f, 0.11979448f, -0.09604369f, 0.04424520f, -0.04954610f, -0.01460535f, 0.05360173f, 0.05648737f, -0.06472804f, 0.04945663f, 0.04968085f, 0.03266129f, -0.00558501f, -0.01502223f, -0.07476339f, 0.06500439f, -0.10482180f, 0.10456730f, -0.10328905f, -0.01688066f, -0.11148036f, -0.05324798f, 0.06523770f, 0.03993357f, 0.02933068f, 0.04429075f, -0.00572255f, 0.08885010f },
      { 0.11075527f, 0.07083136f, -0.05076433f, 0.00354222f, 0.01437417f, 0.10905870f, -0.07059132f, 0.05755038f, 0.13668559f, 0.07457872f, -0.08644569f, 0.08186544f, 0.07538792f, 0.10737506f, -0.07404601f, 0.00738036f, 0.02702403f, -0.01874723f, -0.07227036f, 0.05767584f, -0.07220937f, 0.06894624f, -0.03354985f, 0.07627320f, -0.00559859f, -0.01316366f, -0.05415588f, -0.12437712f, -0.09983698f, 0.07612444f, -0.07531171f, -0.09049187f },
      { 0.04828544f, 0.09969781f, 0.03172000f, 0.11184382f, 0.03895152f, 0.08110975f, 0.02792214f, -0.06826204f, -0.05435426f, -0.04009420f, 0.08757991f, -0.02950946f, 0.03818071f, 0.11544745f, -0.02333995f, -0.04793975f, 0.11024217f, -0.04898370f, 0.02818984f, 0.11218136f, 0.05373741f, -0.04936289f, 0.07883848f, 0.12668137f, -0.05307104f, -0.07602027f, -0.03603182f, 0.05627199f, -0.10794582f, -0.06300203f, 0.12422642f, -0.05155618f },
      { -0.01709876f, -0.04772238f, 0.09507072f, 0.05364858f, 0.01687773f, -0.02916704f, 0.14549769f, -0.05683735f, -0.04475057f, 0.03983699f, 0.09918654f, -0.03376696f, 0.06095979f, 0.07264775f, -0.04396982f, 0.02000378f, -0.06745526f, -0.02515304f, -0.07160731f, 0.04975896f, -0.08186611f, 0.09419387f, 0.06103216f, 0.14811867f, 0.05273011f, 0.01227161f, 0.21653961f, 0.08939791f, 0.10680947f, -0.00641283f, 0.10170426f, -0.14472623f },
      { 0.10494102f, -0.07749368f, 0.07730922f, -0.10691537f, 0.01993248f, -0.10470689f, 0.10199396f, -0.04954641f, 0.11007085f, 0.07322464f, 0.06073690f, -0.03684850f, -0.11399252f, -0.02655534f, -0.06949317f, -0.06907828f, 0.08248248f, -0.04607579f, -0.06222839f, 0.03092284f, -0.01367107f, -0.06871849f, 0.02935182f, -0.03207016f, -0.07977127f, 0.04898189f, -0.01114500f, 0.02362606f, 0.07563437f, -0.00275786f, 0.11670107f, -0.09954917f },
      { -0.02053148f, -0.04328514f, -0.04235123f, 0.11638384f, -0.02945343f, 0.02634582f, -0.01677636f, -0.07949395f, -0.02689002f, -0.02654147f, 0.06913289f, -0.04139022f, -0.02808373f, -0.09549358f, -0.09104849f, 0.04054873f, 0.04994473f, -0.04018054f, 0.03884584f, -0.03306742f, 0.07622248f, 0.03893972f, -0.11567821f, 0.06363121f, 0.02076497f, 0.01229850f, 0.08824989f, 0.04082322f, -0.04664986f, 0.09692252f, 0.11468329f, -0.08973232f },
      { 0.08188598f, -0.02559975f, 0.01133167f, -0.00340785f, 0.01360919f, -0.01482179f, -0.01196204f, 0.09233916f, 0.06582434f, 0.00830368f, 0.09781447f, -0.10473660f, 0.00737151f, -0.05169042f, 0.08037268f, -0.05801710f, -0.08773464f, -0.13401657f, 0.02948776f, -0.01262975f, 0.03049096f, 0.12992032f, -0.06940764f, 0.14614567f, 0.09852935f, 0.04707200f, 0.02935392f, 0.07637379f, 0.13203400f, 0.02722945f, 0.11412323f, 0.02607500f },
      { -0.05911771f, -0.00628176f, -0.06618384f, -0.00777387f, 0.02882534f, 0.05714007f, -0.03960505f, 0.07775259f, -0.02894291f, 0.01849359f, -0.00394030f, -0.11523971f, -0.05415526f, -0.00397561f, 0.00172274f, -0.03308882f, 0.06596391f, -0.03110205f, 0.00909810f, 0.08761391f, -0.05136054f, 0.11992417f, -0.01037897f, 0.11708985f, -0.06038133f, 0.16112511f, 0.17728293f, 0.02446775f, -0.01674371f, 0.07341558f, 0.14333217f, -0.12385432f },
      { -0.09144104f, -0.01296600f, 0.10570873f, 0.07797094f, 0.10921337f, 0.01320091f, -0.09127045f, 0.02988553f, 0.06804252f, -0.04359140f, -0.03080990f, 0.07365593f, -0.00300858f, 0.00431487f, 0.07151854f, 0.08061424f, -0.11871012f, 0.09956937f, -0.06597392f, 0.06555161f, -0.00781275f, -0.09942520f, 0.02959392f, -0.01977924f, 0.04714193f, -0.08119123f, 0.05555844f, -0.04823377f, -0.09058252f, -0.05922970f, 0.02364257f, 0.08719125f },
      { -0.05870133f, -0.04482217f, 0.06169265f, 0.02028219f, -0.06945797f, 0.00291798f, 0.09275580f, -0.13222739f, -0.05282326f, -0.11121026f, -0.00347909f, -0.04239146f, 0.07208937f, 0.01474487f, -0.07673465f, 0.05638785f, 0.04315910f, -0.08227088f, 0.07385459f, -0.07325076f, 0.05064510f, 0.00520310f, 0.07689027f, 0.09901571f, 0.00060510f, -0.07703600f, 0.08168657f, -0.03307596f, -0.03152538f, -0.02626908f, -0.02635988f, 0.09698447f },
      { -0.01825658f, -0.02543541f, 0.00131864f, 0.05976492f, 0.08678124f, 0.08220272f, 0.04156871f, -0.09768602f, -0.06010656f, 0.00071242f, -0.07068071f, -0.03668714f, -0.12231774f, 0.10678173f, -0.03325734f, -0.11322455f, 0.08527809f, 0.03487368f, 0.08677322f, 0.04171330f, 0.03868525f, -0.04468569f, -0.10926965f, -0.07920110f, 0.00266413f, 0.02165319f, -0.09613058f, 0.01814918f, -0.09463254f, -0.09688190f, -0.00722225f, 0.04202168f },
      { -0.00669041f, 0.09097148f, -0.13429616f, 0.06674086f, 0.09876116f, 0.09969527f, -0.09306012f, -0.05522748f, 0.10179622f, -0.03568817f, -0.00523501f, 0.11597373f, 0.00113318f, 0.13475278f, 0.01521412f, -0.05105413f, 0.10768969f, -0.02478706f, -0.02592641f, -0.04861545f, 0.02753894f, 0.04442622f, -0.04285456f, 0.02212446f, -0.01309111f, 0.05957871f, 0.05585660f, -0.03350454f, -0.00668842f, 0.10421027f, 0.11762450f, -0.03720286f },
      { 0.02466100f, 0.02232374f, -0.04861647f, 0.09420277f, -0.04211074f, 0.00664746f, -0.04996321f, -0.00543022f, 0.11824298f, 0.05297620f, 0.07784967f, 0.06272353f, -0.01978225f, 0.02549803f, -0.02595983f, 0.08007063f, -0.07711525f, 0.05419386f, 0.07004607f, -0.09317537f, -0.10451667f, -0.07059304f, -0.09718881f, -0.11488196f, -0.04914954f, -0.11359958f, -0.00914095f, -0.11930071f, -0.09498356f, 0.12104281f, -0.01735908f, -0.06350110f }
    }
  },
  // ky=1
  {
    // kx=0
    {
      { 0.05821260f, -0.00825784f, -0.03358936f, -0.08774227f, 0.03164623f, 0.09828560f, 0.05520552f, 0.18790710f, -0.02475780f, 0.10737156f, 0.15922324f, -0.12648606f, 0.04693289f, 0.12389355f, -0.04042244f, 0.01304066f, 0.11967536f, -0.09571926f, 0.05503155f, 0.17717437f, -0.02420935f, -0.09733120f, 0.12659340f, 0.09951886f, 0.02590870f, 0.07674991f, 0.05160859f, -0.11774871f, 0.13541862f, -0.01347025f, -0.02892781f, -0.00802361f },
      { 0.08085102f, 0.02322396f, -0.02328477f, 0.07885715f, -0.08689918f, 0.01141847f, -0.01985651f, -0.10683662f, 0.00017411f, -0.10692591f, 0.00953430f, 0.05393555f, 0.09080356f, -0.08110040f, 0.08100280f, -0.11022802f, -0.08846551f, -0.06297589f, -0.01858905f, 0.08534863f, -0.03329731f, 0.03163139f, 0.05702592f, -0.01197037f, -0.02567703f, 0.08637717f, 0.10563556f, -0.03802218f, -0.05278298f, -0.07535358f, 0.10479227f, -0.10040880f },
      { -0.04705651f, 0.05997522f, -0.00701541f, 0.04429600f, -0.05125988f, -0.00222102f, -0.02013378f, -0.11349916f, -0.05554539f, -0.06615934f, -0.04848599f, 0.01285387f, 0.01522292f, 0.04386461f, -0.05100045f, 0.09599287f, 0.08548404f, 0.06577158f, 0.05464021f, -0.01962367f, 0.05340147f, 0.07561279f, 0.10034041f, -0.03305470f, 0.08269183f, 0.07121005f, 0.04914405f, -0.01713276f, -0.10641319f, -0.10052913f, 0.07626373f, 0.02014906f },
      { 0.02232732f, -0.09711444f, 0.08364733f, 0.01791948f, -0.07178900f, -0.05551846f, -0.01380218f, 0.04445445f, -0.06362835f, 0.09898817f, -0.10203006f, 0.10863283f, -0.11737647f, -0.02033740f, 0.10423131f, -0.00436416f, -0.05471544f, 0.00778192f, -0.01780245f, -0.01912308f, 0.00487186f, 0.07884137f, 0.06383312f, 0.03901461f, 0.09063380f, -0.12761405f, 0.05883637f, -0.02764357f, -0.06768489f, -0.01269478f, 0.05292128f, 0.07043938f },
      { 0.02678599f, 0.09844228f, -0.04255858f, -0.11242111f, -0.03185030f, 0.00998253f, 0.01547548f, -0.11954013f, 0.07672881f, 0.09129053f, 0.10844740f, -0.02727377f, 0.06914779f, 0.07144313f, -0.05139350f, -0.08203894f, 0.08956948f, 0.06109724f, -0.01454724f, 0.03073204f, 0.02634043f, 0.10492304f, -0.02572555f, -0.11712743f, 0.08583073f, -0.07328542f, 0.07640201f, -0.02804543f, 0.01732427f, 0.06811485f, 0.00621158f, 0.05895105f },
      { 0.01308756f, -0.02109677f, 0.03400758f, -0.03427861f, -0.06512512f, 0.06457959f, -0.04818467f, 0.09827694f, 0.08047432f, 0.10974611f, -0.02759595f, 0.07085915f, -0.11788904f, 0.13100801f, 0.05559412f, -0.15054466f, 0.11404397f, -0.14965706f, 0.02558871f, -0.08705141f, 0.01707234f, 0.13083488f, -0.10256566f, 0.08013048f, 0.02352984f, 0.09574063f, 0.00782825f, -0.10028153f, 0.06888856f, 0.15462370f, 0.09175528f, -0.06199871f },
      { 0.07592376f, -0.06052333f, 0.08931024f, -0.13616996f, 0.03028160f, 0.10146494f, 0.03313451f, -0.06650250f, -0.00189098f, -0.03152312f, -0.02601910f, -0.08398206f, -0.09282386f, 0.11308399f, -0.06198889f, 0.03095607f, 0.08343175f, 0.04084084f, -0.00891410f, -0.04155671f, -0.02293738f, 0.06734076f, -0.02560133f, 0.14975207f, 0.10489278f, 0.02144491f, 0.12754683f, 0.10843681f, 0.11406504f, 0.03240167f, 0.15184985f, -0.03780587f },
      { -0.03131309f, -0.03442975f, -0.02268120f, 0.00103812f, 0.05154965f, 0.06286319f, 0.03975885f, -0.06186146f, -0.06180712f, 0.11815327f, 0.04910989f, -0.13415337f, -0.02926207f, -0.00642878f, -0.05015359f, -0.12227853f, 0.03424088f, 0.02235382f, -0.03748830f, 0.09104230f, -0.10560217f, -0.08596632f, -0.08886380f, -0.04717704f, 0.09203117f, -0.03651431f, 0.01692400f, -0.09696805f, -0.00915010f, -0.00804613f, 0.03486300f, 0.04657364f },
      { -0.02562135f, 0.06928587f, -0.05608882f, 0.10558338f, -0.01931571f, 0.08621989f, 0.02952607f, 0.07170648f, -0.06377975f, 0.06089858f, 0.01816105f, 0.03758642f, -0.01283080f, -0.07147976f, 0.05732657f, 0.09067664f, -0.11344640f, -0.09617799f, 0.05280459f, -0.07755681f, 0.01074949f, -0.00477135f, -0.05458694f, -0.01920027f, 0.00212119f, -0.02224202f, 0.05003834f, 0.06484783f, 0.04580812f, -0.02144242f, 0.06558342f, 0.04354621f },
      { 0.14935878f, 0.00122278f, 0.03102054f, -0.10101189f, 0.06881496f, 0.06809068f, 0.11855607f, 0.10651674f, -0.03639663f, 0.12094366f, 0.18543872f, 0.02731890f, -0.08200389f, 0.06206603f, -0.00029761f, -0.08085837f, 0.08110521f, 0.02133863f, -0.01915395f, -0.02204128f, -0.12966383f, 0.12849203f, 0.13099320f, 0.16145529f, -0.00957522f, -0.07102773f, -0.02418840f, 0.04569282f, 0.07178888f, -0.03153433f, -0.01615403f, 0.04105144f },
      { 0.15190023f, -0.00089272f, -0.02382961f, -0.01860396f, 0.14393760f, -0.09337649f, -0.03685822f, -0.05675299f, 0.08999822f, 0.12944499f, 0.16201080f, -0.07465211f, 0.04826384f, -0.02526689f, -0.08273885f, 0.07401999f, 0.11427055f, -0.09015453f, 0.09417417f, 0.08367448f, -0.06187489f, -0.02073528f, -0.00345624f, 0.14820136f, -0.00811045f, -0.05332571f, 0.09923049f, -0.02104521f, -0.04224494f, -0.01690963f, 0.09491985f, 0.08545310f },
      { 0.02664352f, -0.07867473f, 0.05304953f, -0.11215229f, -0.09019108f, 0.00010691f, -0.06406359f, -0.09173252f, -0.07968822f, 0.03056982f, -0.04164986f, 0.04279076f, -0.02493384f, 0.04886139f, 0.07998865f, 0.07714944f, 0.02671760f, 0.11239991f, -0.09080975f, -0.09730121f, 0.00855523f, -0.02622996f, -0.02609601f, -0.08331375f, -0.02503567f, 0.01809982f, -0.00643504f, 0.01960582f, 0.02289061f, 0.06949165f, 0.06766625f, -0.10973901f },
      { 0.07819895f, -0.00176769f, 0.06698501f, -0.03168368f, -0.09804986f, 0.04871925f, 0.03465590f, 0.01881046f, -0.00415818f, -0.11832663f, -0.00594443f, 0.00611353f, -0.01363020f, 0.00529137f, 0.08833939f, 0.07643113f, -0.02819373f, -0.01182004f, 0.01910022f, 0.00289522f, 0.07721897f, 0.00433085f, 0.06168680f, -0.08069001f, -0.12269948f, 0.10020413f, -0.10533847f, -0.07145924f, -0.09633633f, -0.04420711f, 0.01899610f, 0.09545937f },
      { -0.12072216f, -0.00080149f, -0.06118919f, 0.03320258f, 0.08477239f, 0.10296609f, 0.07791380f, 0.08599012f, -0.08432560f, -0.04176054f, -0.03946233f, 0.00116584f, -0.11206385f, 0.01024758f, -0.00022705f, 0.01887017f, 0.06524080f, 0.08680805f, -0.01764514f, 0.11394448f, 0.01447733f, 0.04179474f, 0.03739206f, -0.10689376f, 0.03084591f, -0.05071440f, -0.02983817f, -0.05974709f, 0.00514169f, 0.07279778f, -0.03351487f, -0.00650647f },
      { 0.02861835f, 0.08389322f, 0.04892012f, 0.05943015f, 0.06873623f, -0.01973403f, 0.02632883f, -0.06686443f, 0.09669081f, 0.05335094f, -0.06909869f, -0.08948679f, -0.11950234f, -0.09690309f, 0.03792042f, -0.03122854f, 0.06193936f, 0.00838705f, -0.10979977f, 0.07900429f, 0.06587525f, -0.03914823f, 0.10220325f, -0.06942204f, -0.08394153f, -0.03202294f, 0.11562604f, -0.05242915f, -0.04158754f, -0.06430198f, 0.03394866f, -0.01056770f },
      { 0.09696536f, 0.03545960f, -0.10060830f, -0.11618569f, -0.06716011f, -0.01102227f, 0.07115468f, -0.04017008f, 0.02101584f, 0.02821214f, 0.02975272f, -0.12510185f, 0.00583218f, -0.08969975f, 0.02795686f, 0.10177381f, 0.11604229f, 0.09641890f, -0.04436932f, 0.04543353f, 0.02693961f, 0.10770392f, 0.00657833f, 0.09578445f, 0.05881687f, -0.05278085f, 0.01270407f, 0.07988550f, 0.05454581f, -0.06223406f, -0.04472967f, 0.01386265f }
    },
    // kx=1
    {
      { 0.17501283f, 0.16304958f, -0.04414422f, -0.15749255f, 0.21147475f, 0.10795543f, -0.00259663f, 0.07160950f, 0.16449012f, 0.17963718f, 0.13787667f, -0.07852603f, 0.05536507f, 0.16230245f, 0.06276233f, 0.05130484f, -0.02355554f, -0.07552761f, 0.03133040f, 0.03404204f, -0.03544280f, 0.01660213f, 0.11227582f, -0.02737316f, 0.06848031f, -0.04779892f, 0.17050281f, -0.08716650f, 0.07915079f, 0.17095807f, 0.12618862f, -0.11643258f },
      { -0.12150851f, -0.08830903f, 0.06246066f, -0.06170562f, 0.06143215f, -0.03329992f, 0.02832990f, 0.04665561f, 0.06534483f, -0.09555632f, 0.09836316f, -0.06830159f, -0.07831913f, -0.09748264f, 0.08637507f, 0.01471634f, 0.07385394f, 0.08453549f, 0.02253433f, 0.02103084f, 0.09185312f, 0.01372121f, 0.09296153f, 0.07057860f, -0.07670446f, 0.14355384f, -0.03808149f, -0.13071653f, -0.06636927f, 0.09446442f, 0.08340478f, -0.11248798f },
      { -0.03718579f, 0.09677693f, -0.12655292f, -0.06782175f, -0.00880901f, -0.04487637f, 0.05129712f, 0.02464990f, 0.08171582f, -0.00500162f, -0.06429397f, -0.02874526f, -0.09269484f, -0.01198980f, 0.10155614f, -0.03302157f, 0.02001664f, 0.00429846f, 0.00628521f, -0.01977277f, 0.05548947f, -0.09361054f, -0.09334743f, -0.10735140f, 0.07355814f, 0.05462354f, 0.03076607f, 0.00179330f, 0.10107935f, -0.08915246f, -0.08756730f, 0.01227424f },
      { 0.01353168f, -0.13480414f, -0.09230396f, 0.03247706f, -0.07487953f, -0.03669332f, 0.05772484f, -0.11782824f, 0.02393808f, 0.07770216f, -0.04638358f, 0.00247377f, 0.03020537f, 0.10827694f, -0.11854155f, -0.08951508f, -0.00779612f, 0.10862689f, 0.08145494f, -0.03882967f, 0.06021272f, -0.10551209f, -0.03840685f, -0.01882307f, -0.02792630f, 0.11148810f, -0.06376734f, 0.06013835f, -0.06743260f, -0.01180200f, 0.11536398f, -0.08172574f },
      { -0.00286337f, -0.08678120f, -0.03877581f, 0.07907255f, -0.07316615f, 0.04722710f, 0.09770230f, 0.00837147f, 0.08269472f, 0.07615227f, 0.09616278f, -0.07286672f, -0.03714081f, -0.10140152f, -0.04118691f, 0.04609036f, 0.07609674f, 0.01217431f, 0.09763796f, 0.00620912f, 0.10379829f, 0.10789980f, 0.02895689f, 0.08193471f, -0.02350407f, 0.06357820f, 0.03358851f, 0.00957037f, -0.02620545f, 0.06488971f, -0.04463715f, -0.01395751f },
      { -0.09480166f, 0.00919415f, -0.03820843f, 0.01236705f, 0.06916539f, 0.01939141f, -0.03942617f, -0.07568917f, 0.13793974f, -0.05707740f, -0.02132179f, 0.00360188f, -0.10213850f, 0.03882234f, -0.13300017f, -0.11250646f, 0.09032295f, -0.07327095f, 0.04502988f, -0.07347991f, -0.07002152f, -0.06537191f, -0.07667990f, -0.05611861f, -0.00805015f, 0.06357703f, 0.05627659f, 0.09407517f, 0.06220941f, 0.02170794f, -0.02753997f, 0.06754794f },
      { 0.09135727f, -0.02121666f, -0.09216020f, -0.08190074f, -0.01150799f, -0.03906246f, 0.13838011f, 0.13906020f, 0.03678758f, 0.12060481f, 0.11196375f, -0.02147095f, 0.03130978f, -0.04385101f, 0.04152049f, -0.10919075f, 0.02657279f, -0.01496228f, -0.07770190f, -0.01659988f, -0.13739239f, 0.03207685f, -0.12013800f, -0.04233144f, -0.02571345f, -0.00832715f, 0.15738988f, -0.05104660f, 0.07547339f, -0.01961546f, 0.05731352f, -0.05264333f },
      { -0.04556810f, -0.03429647f, 0.09032761f, -0.10230101f, 0.15409790f, 0.06902090f, -0.06932782f, 0.05108079f, -0.06608386f, -0.09966985f, 0.03684022f, 0.04528430f, 0.02488944f, -0.07039844f, -0.01523715f, -0.07309928f, -0.00003492f, -0.07132682f, -0.05186732f, -0.02546942f, 0.00294811f, 0.01249963f, -0.00580844f, 0.08772687f, 0.02421471f, 0.07273985f, 0.04824478f, 0.09007444f, 0.10911986f, -0.02087916f, -0.05175093f, -0.06718554f },
      { 0.03655558f, -0.11523521f, 0.08439584f, 0.09129307f, -0.02591556f, -0.00110684f, 0.01050303f, -0.09077224f, -0.08718646f, -0.07402816f, 0.02556112f, 0.00767517f, -0.06555468f, 0.01915578f, 0.00915116f, 0.09937592f, -0.07017506f, 0.00189419f, -0.09364269f, -0.09816006f, 0.01630119f, -0.04521094f, -0.07893360f, 0.04293542f, -0.04746480f, 0.09552249f, -0.05472399f, -0.07237338f, 0.11820342f, -0.03806677f, 0.12086076f, -0.02582013f },
      { 0.05151151f, -0.04080974f, 0.08885682f, -0.11778583f, 0.02975272f, -0.07444628f, 0.00306679f, 0.03399320f, 0.07827596f, 0.04738800f, 0.14471684f, -0.12831470f, -0.05947374f, 0.10028267f, -0.02387028f, -0.09446929f, -0.12812121f, -0.07031745f, 0.06597171f, 0.12854141f, -0.04160774f, 0.04009637f, -0.04401546f, 0.02167858f, -0.02653897f, 0.00055758f, -0.00726794f, -0.04851290f, -0.02491262f, 0.06182275f, 0.10521466f, -0.14658105f },
      { 0.15342802f, -0.02180515f, -0.02648448f, -0.00669634f, -0.03046937f, -0.02351221f, -0.03965093f, 0.10454711f, 0.03236861f, 0.00999052f, 0.15922780f, -0.09562327f, 0.03081030f, 0.01711781f, -0.12267423f, -0.00720089f, -0.04124203f, 0.08543909f, 0.05240901f, 0.16298810f, 0.08677048f, 0.10485770f, 0.15984303f, 0.09182890f, -0.01414304f, -0.03818611f, 0.11198894f, 0.01684201f, 0.05450692f, 0.07208461f, 0.01315056f, -0.04134883f },
      { -0.03995180f, -0.01808075f, -0.04705400f, -0.10430346f, 0.04913482f, 0.04440638f, 0.08736622f, 0.07728706f, -0.01964192f, -0.01686444f, -0.11919162f, 0.06876151f, 0.07897857f, -0.03576796f, -0.01470247f, -0.03054561f, -0.12463632f, 0.05397015f, 0.07538134f, 0.03688603f, -0.02395391f, -0.08942655f, 0.04015731f, -0.09635813f, 0.00812567f, 0.02352328f, -0.10867974f, 0.08234237f, -0.01363058f, 0.12118950f, -0.05945850f, 0.06942701f },
      { -0.09505526f, -0.01434598f, -0.01513053f, 0.01635936f, -0.03544664f, 0.01809253f, -0.01993950f, -0.01134464f, 0.09128120f, 0.01097255f, -0.05956541f, 0.11052651f, -0.01171020f, -0.06440985f, -0.04370419f, 0.09439269f, 0.10478247f, 0.01258390f, 0.02395923f, -0.04545635f, -0.12040992f, -0.03725521f, -0.05458370f, -0.03464742f, 0.09827323f, -0.04109626f, 0.10485823f, 0.07696324f, 0.09375627f, 0.01459323f, 0.10674200f, 0.04854048f },
      { -0.10628187f, 0.10429255f, -0.03806974f, -0.02148882f, 0.03922366f, -0.04079728f, 0.08168852f, 0.07278795f, -0.02250922f, -0.09609205f, -0.05394846f, -0.03244764f, -0.13441648f, 0.02635822f, -0.01391967f, 0.04007620f, 0.10559559f, -0.06320670f, -0.12353979f, 0.00198247f, 0.02148368f, 0.09712306f, 0.00506923f, 0.07130677f, -0.06421874f, -0.04105500f, 0.07104795f, 0.02469013f, -0.07776901f, -0.03308304f, 0.06394426f, -0.09669686f },
      { -0.05742268f, 0.06036950f, 0.00938598f, -0.04830573f, 0.09694105f, 0.01960677f, 0.02499460f, 0.00202506f, 0.02763369f, 0.07843528f, -0.05782358f, -0.09980441f, -0.04962972f, -0.05693401f, -0.11553836f, -0.03325833f, 0.08229304f, 0.11361501f, 0.05735699f, -0.01890031f, -0.02259032f, 0.01816412f, 0.11947164f, -0.01486144f, 0.03072348f, -0.02707474f, 0.09352306f, 0.01461248f, -0.02981923f, -0.09953567f, -0.00242364f, 0.03211871f },
      { 0.01835577f, 0.09370326f, 0.08647203f, 0.02027555f, 0.06987938f, 0.02130294f, 0.09850547f, -0.04826116f, 0.04834324f, -0.00407089f, -0.04753041f, -0.00503993f, -0.06332548f, -0.02592523f, -0.11918963f, 0.03882378f, -0.11747715f, -0.04098590f, -0.11241151f, 0.10053003f, 0.03418442f, -0.07534385f, 0.04187793f, 0.00623503f, 0.00923472f, 0.12524855f, 0.07854150f, -0.06004786f, 0.03314905f, 0.12107076f, 0.00859524f, -0.00528386f }
    },
    // kx=2
    {
      { 0.01037528f, -0.01804780f, -0.02630259f, 0.04256910f, 0.06063142f, -0.03648699f, 0.16944340f, 0.16919455f, 0.02124327f, 0.18003066f, 0.05345799f, -0.09200440f, 0.01431527f, 0.07893535f, -0.11053617f, -0.15113284f, 0.11441557f, -0.11650164f, 0.05899956f, 0.10769926f, -0.11762940f, 0.06670748f, 0.19952308f, 0.10779261f, -0.02752656f, -0.06927416f, 0.21418597f, -0.06043689f, 0.03546028f, 0.16138753f, 0.07606705f, -0.07235749f },
      { 0.03518564f, -0.03401627f, 0.06064786f, -0.10946563f, 0.05582322f, 0.05274774f, -0.10823643f, 0.06360325f, 0.01999355f, -0.01159746f, 0.07382783f, -0.12556811f, -0.06615981f, -0.07317903f, -0.06950193f, -0.08540845f, -0.08662271f, 0.10775311f, -0.06744534f, 0.05139105f, 0.06939819f, -0.11006643f, -0.05140599f, 0.04476812f, -0.06742325f, -0.00515355f, -0.04916872f, -0.01040603f, -0.02006977f, 0.02504822f, 0.11677042f, -0.05778079f },
      { 0.06041783f, -0.11721929f, 0.00747715f, 0.07135089f, 0.11441711f, -0.06820140f, 0.02410026f, 0.05227392f, 0.06132777f, -0.06439570f, 0.11169314f, 0.10340460f, 0.03300794f, 0.11727949f, 0.01643445f, 0.07507475f, -0.08245083f, -0.03933075f, -0.10648504f, -0.07889431f, 0.09921885f, -0.12185483f, -0.01125193f, -0.11797688f, 0.03326292f, -0.04409160f, 0.12134012f, 0.01095199f, -0.10675777f, -0.06708340f, 0.00200451f, 0.05792737f },
      { -0.01094518f, 0.04150882f, 0.07095429f, 0.06933489f, 0.10758328f, -0.05392487f, 0.07050121f, -0.09397335f, -0.02579711f, -0.08621676f, -0.01295951f, 0.06677560f, 0.03596019f, 0.02367641f, -0.01703219f, 0.04280796f, 0.06951378f, 0.02134421f, -0.02367653f, 0.05097705f, 0.00538246f, 0.04782586f, 0.02936814f, 0.00491227f, 0.05081665f, -0.08084417f, 0.11658984f, -0.03394522f, 0.04504635f, 0.11576348f, 0.00446693f, -0.07265732f },
      { -0.04481737f, 0.05244109f, -0.02878340f, 0.03711919f, -0.06210018f, -0.02161447f, -0.08859769f, 0.02797119f, -0.08688008f, -0.07458391f, 0.01125725f, -0.06230245f, 0.03929529f, -0.11529711f, 0.03380337f, -0.09162762f, -0.11685108f, 0.00251370f, -0.09966151f, 0.09711028f, 0.01789991f, 0.07589225f, 0.04861334f, 0.09541381f, -0.04668577f, -0.10177569f, 0.05126794f, 0.07417049f, 0.05656314f, -0.03939226f, 0.11937496f, 0.02752957f },
      { 0.12491093f, -0.04248272f, 0.11099575f, -0.08187572f, 0.00766043f, 0.08891241f, -0.10862615f, 0.07615304f, 0.13941652f, -0.00598007f, 0.07464769f, -0.07734910f, -0.03408011f, -0.05762598f, 0.02359473f, 0.06156700f, 0.02597687f, -0.08830591f, -0.02377635f, 0.00322478f, -0.01883796f, 0.02460332f, -0.05671609f, 0.12873524f, 0.08161234f, 0.05465660f, 0.09893366f, 0.03244019f, 0.09477081f, 0.16468433f, -0.04761890f, -0.10755132f },
      { -0.07161576f, 0.09987053f, -0.07995856f, -0.05362825f, 0.15312147f, 0.02654262f, -0.02397405f, 0.17453355f, 0.03529406f, 0.10355399f, 0.09829256f, -0.09723426f, -0.11761974f, -0.02810225f, -0.09228341f, -0.13212882f, -0.12414190f, 0.03521736f, -0.02456338f, 0.07803066f, -0.08908494f, 0.05328928f, 0.09397200f, 0.19401771f, -0.04546443f, 0.00429095f, 0.12229103f, -0.03718392f, 0.14220940f, 0.12899637f, 0.07129065f, -0.11392741f },
      { 0.03172790f, -0.01427276f, -0.00096295f, -0.14656445f, 0.06993324f, 0.06227096f, 0.13448747f, 0.03452231f, -0.02614771f, -0.03137923f, 0.01130120f, 0.07790763f, -0.09057010f, -0.01743477f, -0.08900766f, -0.06763176f, -0.06761245f, 0.04364082f, 0.00498256f, 0.04411987f, 0.05095328f, 0.09702007f, -0.08403121f, 0.06968912f, -0.07266381f, 0.07244245f, 0.01481623f, -0.06964132f, 0.10279219f, -0.09073780f, 0.01795588f, -0.16041437f },
      { 0.08880462f, -0.02802568f, -0.00201960f, 0.08054354f, -0.09162686f, -0.09874710f, -0.07932026f, -0.01383426f, 0.08774453f, -0.09521277f, -0.05983357f, 0.06045721f, -0.01909720f, -0.09075863f, 0.00153889f, 0.05180012f, 0.08310331f, -0.07651176f, 0.04628692f, -0.07997250f, -0.05719838f, 0.04759275f, 0.02873190f, 0.09264172f, 0.03031510f, -0.01941518f, -0.01852860f, -0.06429011f, 0.10814114f, 0.09627847f, -0.04656172f, -0.12432022f },
      { -0.02652838f, 0.15256804f, -0.09090799f, -0.11125987f, 0.13239010f, -0.03341787f, 0.03395039f, 0.12084210f, 0.07110521f, 0.05479351f, -0.01369952f, -0.00079190f, -0.07409384f, 0.12168664f, 0.04229005f, -0.02960773f, -0.03389272f, -0.10413501f, 0.06416440f, 0.10246190f, 0.07163377f, 0.06400065f, 0.14168313f, -0.01915126f, 0.01019141f, -0.03875932f, 0.11584396f, 0.06270677f, 0.00004554f, 0.10551059f, 0.08295594f, -0.12695195f },
      { 0.00854914f, 0.05044062f, 0.06171390f, 0.06298399f, 0.04412362f, 0.11676588f, 0.10851704f, 0.02735832f, 0.00081079f, 0.17602201f, 0.12406111f, -0.00432816f, -0.05060057f, 0.18856736f, 0.04843618f, -0.01431592f, 0.06450731f, 0.07866997f, 0.14568710f, -0.01583773f, -0.11791641f, 0.00621822f, 0.05554838f, -0.02730525f, -0.04797613f, 0.03142697f, 0.01450785f, 0.08421803f, 0.00640684f, 0.14579135f, 0.11708427f, -0.10392497f },
      { -0.01004810f, 0.08437876f, 0.10431945f, -0.03756877f, 0.03747858f, -0.03598291f, 0.00623955f, -0.05235953f, 0.05694006f, -0.07540510f, -0.09156655f, 0.03681271f, -0.02061580f, -0.09102827f, -0.03897100f, 0.06169665f, -0.01314713f, 0.01237069f, 0.10747109f, -0.05328042f, -0.11536830f, -0.03809358f, -0.09272508f, 0.07125068f, 0.01076987f, 0.11566542f, 0.10075502f, -0.11368291f, 0.03356507f, -0.06620291f, -0.08930302f, 0.07923144f },
      { -0.01316278f, -0.10676780f, -0.00189863f, -0.00221594f, 0.02563866f, 0.04683143f, 0.02661107f, -0.06123126f, 0.00668930f, 0.07534821f, -0.07170442f, 0.00389386f, 0.09178161f, -0.05555029f, -0.12274657f, -0.05291072f, -0.09104560f, 0.02794508f, -0.06848010f, -0.04608393f, 0.08849958f, 0.07907297f, -0.05727831f, -0.07911180f, -0.12559208f, 0.05862919f, 0.02809837f, 0.00830375f, -0.07834186f, 0.10041914f, -0.06258632f, -0.02209301f },
      { 0.05146113f, -0.08227134f, 0.05951310f, 0.04206212f, 0.09749808f, 0.00015966f, -0.03017819f, -0.00338656f, 0.10069586f, -0.06722936f, 0.07878698f, -0.04904302f, -0.02278793f, 0.04259764f, -0.01981747f, 0.01493127f, 0.03614366f, 0.02352356f, -0.08279664f, -0.03104873f, 0.11036041f, -0.06415869f, 0.08282255f, -0.05730480f, -0.09686457f, -0.03331596f, -0.05238407f, -0.02068983f, 0.01843651f, 0.11441515f, -0.06450199f, -0.08762512f },
      { 0.07312811f, 0.00648005f, 0.09225816f, -0.10186810f, -0.08115758f, 0.06437927f, -0.05440469f, 0.11180612f, 0.11089699f, -0.01981694f, 0.10325081f, -0.07925612f, -0.11398580f, -0.01197780f, 0.04500964f, 0.08912814f, 0.00419472f, -0.05309618f, 0.08850434f, -0.00827844f, 0.10192175f, 0.10078909f, 0.02081776f, -0.04585084f, 0.07656880f, 0.10237010f, -0.00042126f, -0.09888238f, -0.09152801f, 0.04560751f, 0.08213561f, -0.12551269f },
      { 0.10611651f, 0.02728040f, 0.05212423f, -0.05703969f, -0.04863911f, -0.04946115f, 0.04566537f, 0.00786556f, 0.06372462f, 0.09419915f, -0.01626789f, -0.07483328f, -0.03016492f, -0.03510476f, -0.03856577f, -0.02752659f, -0.04965193f, 0.02285867f, 0.02195318f, 0.00320664f, -0.04495268f, -0.00875797f, 0.01581334f, -0.02446092f, -0.08992413f, 0.09529266f, 0.02636955f, -0.12020109f, -0.00150486f, 0.08491751f, 0.07057895f, 0.02345114f }
    }
  },
  // ky=2
  {
    // kx=0
    {
      { 0.06845323f, 0.12788303f, 0.17324783f, 0.02926986f, 0.14018270f, 0.15880758f, 0.14397551f, 0.07515939f, 0.08672480f, 0.07932770f, 0.00979432f, -0.08729276f, 0.01405184f, 0.12504900f, 0.05086394f, -0.07362653f, -0.04898700f, 0.00628643f, 0.10400821f, 0.09705882f, -0.16558105f, 0.11705241f, 0.13684639f, 0.10533580f, -0.04445178f, 0.11626340f, -0.00037137f, -0.01912939f, 0.16445656f, 0.00500792f, 0.10858437f, -0.04349332f },
      { 0.08112542f, -0.09821389f, -0.08987524f, -0.01110293f, -0.08509120f, 0.04228523f, 0.04792090f, 0.10547453f, -0.06963398f, -0.06274652f, 0.01690640f, -0.01242233f, -0.00472309f, -0.10000191f, 0.00996097f, -0.04875537f, 0.08036473f, 0.04114363f, 0.11855435f, -0.02865675f, 0.06188575f, -0.11284432f, -0.10792428f, 0.08752164f, 0.07244867f, -0.06536458f, -0.10666923f, -0.10107233f, 0.03873051f, -0.00204295f, 0.00704839f, -0.10817280f },
      { 0.08824597f, 0.04866601f, 0.11588985f, 0.08811931f, -0.02037560f, -0.04007362f, 0.06097333f, 0.05774126f, -0.12183540f, -0.06643647f, -0.12628928f, -0.10934584f, 0.09454036f, 0.01970390f, -0.03516276f, -0.05607494f, 0.08682442f, -0.09155741f, 0.05708965f, 0.02692014f, 0.06932624f, -0.09609852f, -0.00693757f, 0.01146896f, -0.10359301f, -0.00234290f, -0.03741323f, -0.13562959f, 0.08842229f, -0.10990350f, 0.02490785f, 0.08057551f },
      { 0.10641906f, -0.02452752f, 0.01249473f, -0.01275950f, 0.07766065f, 0.01869744f, 0.08528399f, 0.04763294f, 0.05137995f, -0.10136271f, 0.05048382f, -0.02427071f, -0.11340334f, -0.02315614f, -0.11006162f, -0.08737709f, -0.03535156f, -0.02095553f, -0.08338241f, -0.04645084f, -0.00936152f, -0.10097411f, 0.09970710f, 0.03252149f, -0.01040949f, -0.01161199f, -0.12991393f, -0.04890489f, -0.07527964f, -0.09938394f, -0.08470207f, -0.07075807f },
      { -0.07158419f, -0.14152761f, -0.04425279f, 0.07384625f, -0.10333776f, -0.11335795f, 0.00394391f, 0.09280813f, -0.08772480f, 0.00843826f, 0.04299176f, 0.09728102f, 0.07416791f, 0.01762308f, 0.05162781f, -0.09741354f, -0.10437060f, 0.11095928f, 0.10913361f, 0.07399932f, 0.09795017f, 0.10027580f, -0.02413424f, -0.08328126f, 0.10791279f, -0.12338557f, -0.05418479f, -0.09298777f, -0.10152467f, -0.06679540f, -0.07556123f, 0.07521383f },
      { -0.06086313f, 0.06703402f, -0.06818888f, -0.02287683f, 0.06279737f, -0.00613868f, 0.03894457f, -0.01355131f, -0.06968629f, 0.13915487f, 0.07470073f, 0.02645734f, -0.07463714f, 0.01730239f, -0.12243491f, -0.13601215f, 0.03071386f, -0.14937150f, -0.03465227f, 0.09775732f, -0.04950618f, 0.02413317f, 0.00455479f, 0.06875520f, -0.14404123f, -0.09758931f, 0.02874641f, 0.05885153f, -0.00189268f, 0.06539338f, -0.04902316f, 0.00065870f },
      { 0.01254022f, 0.07924615f, -0.03253180f, -0.00506261f, 0.14005169f, -0.09053852f, -0.00820428f, 0.14465603f, 0.11899041f, 0.02092879f, 0.11647431f, -0.13443880f, -0.14018108f, -0.02016757f, -0.00394532f, 0.02637364f, -0.07403184f, -0.04433656f, 0.08277322f, -0.02493719f, -0.12893303f, 0.04252539f, -0.01840224f, 0.02305599f, 0.04178441f, 0.06674334f, 0.10384645f, 0.04683452f, 0.03880937f, 0.14345953f, 0.13513930f, -0.09267636f },
      { 0.04775607f, 0.08253700f, 0.01546190f, 0.04449070f, 0.01961407f, -0.00843272f, 0.05331841f, 0.08130296f, 0.02901937f, 0.00780269f, 0.12213974f, -0.07850903f, -0.00826567f, 0.09221729f, -0.07070559f, -0.07389922f, -0.11665001f, 0.06170078f, 0.06579902f, -0.08537687f, -0.14358114f, 0.11610023f, 0.11436451f, 0.09374791f, 0.04369440f, -0.02073555f, -0.02085008f, -0.11435141f, 0.12369472f, 0.13112094f, -0.01668604f, 0.05739417f },
      { 0.07957563f, -0.09122429f, -0.12701079f, -0.12404048f, 0.08022718f, -0.12014820f, 0.11651174f, -0.02122477f, 0.05192698f, 0.08387623f, -0.02219092f, 0.08971998f, -0.04188124f, 0.05276749f, -0.11737030f, -0.00778897f, -0.01348206f, -0.08794203f, 0.03489485f, -0.01740504f, -0.12305401f, 0.08189681f, 0.07686456f, 0.07573065f, -0.02219906f, 0.02828722f, 0.13223092f, 0.04049218f, 0.11078025f, 0.12457461f, 0.09032033f, -0.11459486f },
      { 0.04783003f, -0.01479695f, -0.04186160f, -0.04026006f, 0.20472053f, 0.10372531f, 0.01736401f, 0.00052637f, 0.10863207f, -0.02423776f, -0.05231518f, 0.08190832f, -0.04867010f, 0.07475260f, 0.00591428f, -0.04445301f, -0.13007449f, -0.11732999f, -0.02329790f, 0.04395329f, 0.02806713f, 0.08692184f, 0.07656591f, -0.03055588f, 0.05049060f, 0.03584522f, 0.13311584f, -0.11255019f, 0.10090462f, -0.07796504f, 0.11309532f, 0.04508081f },
      { 0.06672211f, -0.00984172f, 0.14393114f, 0.03098594f, 0.12928131f, 0.09213784f, 0.02506380f, 0.01656547f, 0.02661817f, 0.08593518f, 0.09054878f, 0.08896481f, -0.03260320f, 0.12404867f, -0.10251058f, -0.11818805f, -0.05078259f, 0.08452962f, -0.01394391f, 0.06955723f, -0.12133196f, 0.05239340f, 0.03992708f, -0.00452331f, -0.02934524f, 0.07996769f, 0.09220459f, -0.02874342f, 0.00593411f, 0.08571343f, -0.07550444f, -0.09581523f },
      { 0.07550031f, 0.05326275f, 0.05302165f, 0.04124914f, -0.05162573f, 0.04851386f, 0.05281532f, -0.07475913f, 0.03326372f, 0.00630825f, 0.10737114f, 0.04058880f, 0.02038436f, -0.01713667f, -0.07911455f, -0.05143975f, 0.03431619f, -0.08764538f, 0.03287302f, -0.00665553f, -0.03165124f, -0.08231508f, -0.03588475f, -0.02145624f, 0.02016575f, 0.06131918f, 0.05420273f, -0.06700631f, 0.11146230f, 0.02208964f, -0.02444286f, 0.06506176f },
      { -0.01745283f, -0.13391790f, -0.09536625f, 0.03474368f, -0.01772666f, -0.11021397f, -0.10967162f, -0.04162221f, 0.03672845f, 0.05398875f, -0.03645981f, -0.07838877f, 0.10326053f, -0.02739061f, 0.02736168f, 0.10660049f, 0.00252505f, 0.03484020f, -0.06794649f, -0.01695522f, -0.01147710f, -0.09404245f, 0.03393953f, 0.05670432f, 0.08833405f, -0.08027545f, 0.03889482f, 0.03265158f, -0.08598736f, -0.00686920f, -0.01025881f, 0.09168073f },
      { 0.09549508f, -0.08857492f, -0.11970755f, -0.06084339f, -0.11067813f, -0.05009770f, 0.09388516f, 0.11120155f, -0.05149897f, -0.09350130f, 0.11172412f, -0.08777202f, 0.05530431f, -0.03036732f, 0.03135827f, -0.01932181f, -0.11089433f, 0.09592661f, -0.01982101f, 0.02975212f, -0.03455033f, -0.07443337f, 0.09303910f, 0.03705675f, 0.08093943f, 0.08387378f, -0.00263592f, -0.03661352f, 0.01409151f, 0.07605541f, -0.04227970f, 0.08833414f },
      { 0.09626159f, 0.04465970f, 0.02154802f, 0.04117258f, 0.10987157f, -0.01179202f, 0.13527456f, 0.07935009f, 0.05981207f, -0.08781196f, -0.10327168f, 0.06411792f, -0.14110148f, 0.09700564f, -0.11070230f, -0.11411273f, 0.07800450f, 0.10342605f, 0.10837951f, -0.11655548f, -0.02688371f, 0.02197119f, -0.05618070f, 0.00168431f, -0.02393442f, 0.03924060f, 0.08743910f, 0.06952780f, -0.02461999f, -0.08866781f, 0.00193120f, -0.10698408f },
      { 0.00199910f, 0.01963560f, -0.04489775f, 0.09412198f, -0.01387951f, 0.02338092f, 0.07556809f, -0.04279929f, 0.02713383f, 0.03774587f, 0.00806358f, -0.06461379f, 0.08310000f, -0.02478254f, 0.00245519f, 0.03203351f, 0.04218864f, -0.06849857f, 0.00394524f, -0.00868566f, 0.05398016f, 0.11702115f, -0.03020611f, -0.04533939f, -0.04122851f, -0.06899796f, 0.10832466f, -0.03889370f, 0.00933118f, 0.11832622f, 0.12368001f, -0.08019261f }
    },
    // kx=1
    {
      { 0.06383502f, -0.02551264f, 0.15151952f, 0.00421791f, 0.23741594f, -0.02107947f, 0.18502302f, 0.16794896f, 0.05946075f, 0.03468555f, -0.03606678f, -0.12427314f, -0.11462107f, 0.18998569f, -0.05333294f, 0.05197353f, 0.00694217f, -0.09159066f, 0.14499891f, 0.07693804f, -0.06014313f, -0.04315380f, 0.17839211f, 0.17471577f, 0.12454651f, 0.02878457f, 0.09099245f, 0.04575968f, 0.18849239f, 0.16518977f, 0.09268001f, -0.14207217f },
      { -0.10270422f, -0.12674220f, -0.09708627f, -0.01161863f, -0.12220135f, 0.11227950f, -0.01190369f, -0.03031749f, -0.04994909f, -0.07473210f, 0.07395349f, -0.05913862f, 0.01372752f, -0.09265582f, -0.07146243f, 0.08111689f, 0.00304613f, 0.08831102f, -0.01585874f, 0.11245125f, -0.04313717f, 0.05462981f, 0.06361858f, 0.04598893f, -0.02783108f, -0.10240950f, 0.12308156f, -0.04588659f, -0.09074259f, -0.01964456f, 0.10530894f, 0.05587539f },
      { -0.02260882f, 0.03399864f, -0.04849457f, -0.08277611f, -0.01448766f, -0.10532098f, 0.07701416f, 0.05824235f, -0.08433637f, -0.06698243f, -0.04866880f, 0.07300379f, 0.10090619f, -0.03811093f, 0.05129464f, 0.07723585f, -0.01668881f, 0.11789370f, -0.02915335f, -0.09828107f, 0.11032128f, -0.07004737f, -0.06539019f, -0.03680928f, -0.05385302f, -0.02325068f, -0.07523204f, -0.11386167f, 0.11152027f, -0.02696040f, -0.06627171f, -0.02576950f },
      { 0.00284101f, -0.09671504f, 0.00400565f, -0.00616376f, 0.11071470f, -0.07695598f, 0.05148838f, -0.04791633f, 0.00472740f, 0.04721636f, 0.07703670f, -0.01040573f, 0.05018636f, -0.08738366f, 0.08784773f, 0.11527398f, -0.09802646f, 0.04941174f, 0.06399573f, -0.05519745f, -0.01906109f, 0.02487436f, -0.07769847f, -0.02451485f, 0.07539631f, -0.01909200f, -0.05308857f, -0.09942415f, 0.02974662f, -0.08653308f, -0.05901131f, -0.08442260f },
      { 0.02950528f, -0.06112497f, -0.00927627f, 0.04772477f, 0.05000103f, 0.00394536f, 0.05026284f, -0.07748607f, 0.11451911f, 0.10958173f, 0.03569463f, 0.11195976f, -0.00533766f, -0.00611750f, -0.00792038f, -0.00311987f, -0.01072337f, 0.01442895f, -0.01792920f, 0.05486046f, -0.09014621f, 0.07935558f, -0.10641153f, 0.07056455f, -0.11097012f, 0.01377576f, -0.00659211f, 0.02277396f, -0.02496477f, -0.02126885f, 0.08451034f, -0.01451702f },
      { 0.00663949f, 0.01263195f, -0.00294795f, 0.05006160f, -0.07398096f, -0.04096917f, 0.07070458f, 0.06492946f, 0.04952925f, 0.13819557f, 0.12936708f, 0.00745366f, 0.03641322f, 0.08406783f, -0.16604331f, -0.07986937f, 0.12286536f, -0.10872250f, 0.01777575f, 0.07192738f, -0.01573610f, 0.13586269f, 0.10924323f, -0.03402739f, 0.03209456f, -0.05764496f, 0.07461298f, 0.06763012f, -0.04688792f, 0.11134534f, -0.06246646f, -0.12458155f },
      { -0.10565130f, 0.08993740f, -0.07333318f, -0.06053149f, 0.10325836f, 0.08137991f, -0.06347664f, 0.10092529f, -0.01664712f, -0.05077975f, 0.02710446f, -0.12704355f, -0.01867080f, 0.05129945f, -0.03421132f, 0.02737616f, -0.00264147f, -0.11301669f, -0.09391402f, 0.07696987f, -0.06090426f, 0.05041146f, 0.10717167f, 0.00421079f, 0.07432610f, -0.00673914f, 0.19592448f, 0.03542145f, 0.04386232f, 0.10508454f, 0.01527836f, -0.17298166f },
      { -0.03823744f, 0.12188685f, -0.06499091f, 0.03659013f, 0.06044351f, 0.07613090f, -0.09234925f, 0.04864903f, -0.01369938f, -0.03798227f, 0.01472086f, -0.14416192f, -0.11128875f, 0.08523008f, 0.02680432f, -0.15886360f, 0.10942230f, -0.06763834f, -0.02739739f, 0.11093374f, -0.10349223f, 0.06827116f, 0.06100822f, 0.12097632f, 0.08813564f, -0.02105347f, 0.04399478f, 0.04777987f, 0.07887222f, 0.08207470f, -0.08716739f, -0.07134777f },
      { 0.06525915f, -0.12679379f, -0.00239148f, -0.06869501f, 0.10502725f, 0.06730326f, 0.12108190f, -0.01105704f, 0.04865645f, -0.05873515f, 0.09403341f, -0.08967447f, 0.02327244f, 0.00162843f, -0.12529533f, 0.08835481f, -0.11215144f, -0.02460946f, -0.02128725f, 0.11730190f, -0.12173427f, -0.06492323f, -0.03515423f, -0.08347213f, -0.07820409f, 0.02667141f, -0.01421646f, -0.10822465f, 0.05946210f, 0.04752986f, -0.09827891f, -0.03472132f },
      { 0.11835743f, -0.00016388f, -0.01403183f, 0.02518965f, 0.05638721f, 0.13908410f, 0.09945065f, -0.07907445f, -0.01820348f, 0.10642443f, 0.12007417f, -0.08864326f, 0.08066596f, -0.02677547f, -0.05093538f, -0.11518790f, -0.04563465f, -0.01569816f, 0.12517232f, -0.05564571f, -0.01822426f, 0.02345371f, 0.02091361f, 0.16509889f, -0.03021930f, 0.07765085f, -0.00368415f, -0.04873575f, -0.00493483f, 0.02764950f, 0.03477917f, -0.02657115f },
      { 0.01038674f, -0.04442605f, 0.13314722f, 0.03865870f, 0.11926576f, -0.02707139f, 0.10265432f, -0.05515144f, 0.13020976f, 0.10966431f, 0.12372763f, 0.02623176f, 0.00096846f, -0.00783915f, -0.05217481f, 0.08987595f, 0.11460003f, -0.10343160f, 0.10929413f, -0.04541272f, 0.01012312f, 0.07823603f, 0.05561594f, -0.02285643f, -0.08517195f, 0.06631248f, -0.05434654f, -0.02331520f, 0.02535204f, -0.07290802f, 0.01582043f, -0.08883474f },
      { 0.10379729f, 0.03121993f, -0.06056819f, -0.06757423f, 0.00909536f, -0.03587197f, -0.07220206f, 0.02023572f, -0.04824054f, -0.03545559f, -0.02838762f, 0.04577927f, 0.04999491f, 0.06659541f, -0.02216699f, 0.09080201f, -0.09659104f, 0.01849197f, 0.08111430f, -0.09240233f, 0.09290516f, 0.07176159f, 0.10961740f, 0.09993096f, 0.03659280f, 0.05542599f, 0.08835785f, -0.04245976f, 0.07921183f, -0.05318160f, 0.03589597f, 0.03857102f },
      { 0.09447648f, -0.03665139f, -0.06750119f, 0.02168764f, 0.04595186f, 0.06776261f, 0.10836621f, -0.00803163f, -0.08967800f, 0.11068550f, 0.11461614f, 0.03366777f, -0.07016931f, 0.05654696f, 0.08775938f, -0.06900903f, -0.11653258f, -0.07333233f, 0.01523680f, 0.04497802f, 0.00165460f, -0.07366901f, 0.08143208f, -0.00891333f, -0.09305099f, -0.11162283f, 0.11421060f, -0.00113876f, 0.01478935f, 0.05835730f, -0.08397429f, 0.00725080f },
      { 0.08093204f, 0.09053671f, 0.03029797f, -0.03271349f, 0.06478725f, 0.00152326f, -0.06670285f, -0.05042790f, 0.03061574f, 0.07640870f, 0.03921994f, -0.00592033f, 0.00798881f, 0.11346206f, -0.03768936f, 0.10009640f, 0.04485096f, 0.05882170f, -0.03849093f, 0.08761928f, 0.04858846f, -0.07109068f, -0.10744962f, 0.10647165f, -0.11886030f, -0.07523598f, -0.04736076f, -0.05410844f, -0.10050176f, -0.08093229f, 0.10039297f, 0.10464579f },
      { -0.11065824f, 0.05357961f, 0.03886898f, -0.09235238f, 0.05459914f, -0.10114263f, 0.00879327f, -0.07710379f, 0.00853546f, 0.05228004f, -0.05248729f, -0.06289157f, 0.04253544f, 0.03517076f, -0.12036677f, -0.06348396f, 0.04926478f, 0.09989935f, -0.10039910f, -0.04149893f, -0.08331594f, -0.11580151f, -0.01870048f, -0.06893391f, 0.06705458f, -0.04832935f, 0.05767947f, 0.07915776f, -0.06047767f, 0.06111955f, 0.05504152f, -0.00047750f },
      { 0.08388651f, -0.04028317f, -0.03758409f, -0.00673111f, 0.00494607f, -0.01562720f, 0.02129431f, -0.11528186f, -0.11104847f, 0.12949784f, -0.01611645f, -0.02585248f, -0.04161782f, 0.01598548f, 0.07181507f, 0.00912977f, 0.04948301f, 0.05087135f, -0.02025546f, 0.00154038f, 0.10398558f, 0.02887298f, 0.06259836f, 0.09433065f, 0.04286513f, 0.04016123f, -0.00450266f, 0.00166589f, -0.03534065f, -0.08011336f, 0.07917909f, -0.05061520f }
    },
    // kx=2
    {
      { -0.00031815f, -0.02147814f, 0.13759638f, -0.12867516f, 0.21468042f, -0.03414486f, -0.01994372f, 0.04024255f, 0.16941479f, 0.03616394f, 0.13630648f, -0.06635958f, -0.10553209f, -0.01435296f, 0.02392560f, -0.02332184f, 0.12639253f, -0.03475882f, 0.19224180f, 0.18085672f, -0.06898284f, 0.13176386f, 0.15772586f, 0.00604520f, 0.12492329f, 0.07859858f, 0.15861019f, 0.02835599f, 0.17452788f, 0.00818537f, 0.03654516f, -0.13094695f },
      { -0.06669663f, -0.09150944f, -0.10687467f, 0.06216003f, -0.03740380f, 0.00454456f, -0.01172811f, 0.10302296f, 0.08750804f, 0.01148851f, -0.09401541f, 0.07625000f, 0.03210197f, -0.05733218f, -0.04425020f, -0.08696350f, 0.05479892f, 0.05547085f, 0.05709182f, 0.04792988f, 0.10564526f, 0.02413920f, 0.02199688f, 0.03740001f, 0.04957271f, -0.05080090f, -0.02705027f, -0.05208103f, 0.00479520f, -0.04901577f, 0.09059769f, 0.06710212f },
      { -0.04125502f, 0.01462541f, 0.03115859f, -0.08224701f, 0.10030001f, 0.04849139f, -0.11961932f, -0.03464983f, -0.04211765f, -0.05988929f, -0.03859626f, 0.10647297f, -0.09568985f, -0.02066182f, -0.06107624f, -0.05780572f, 0.09376127f, 0.03500310f, 0.08983538f, 0.04846755f, -0.10760712f, -0.03131514f, 0.05639041f, 0.07648639f, -0.08713613f, -0.01513425f, 0.03869053f, 0.09114481f, -0.10412488f, 0.07646801f, 0.08440179f, 0.02082506f },
      { -0.08230121f, 0.06847106f, 0.07792730f, 0.02803695f, 0.07356528f, 0.04098601f, 0.10228325f, -0.09232754f, -0.12269579f, -0.08959656f, -0.02909401f, 0.05576418f, 0.00471330f, -0.01830983f, -0.01418300f, 0.05200332f, -0.08951766f, 0.02758860f, -0.09276886f, 0.06342327f, -0.01358388f, 0.08173466f, -0.06478819f, 0.01685246f, 0.03444635f, -0.03532232f, -0.11567480f, -0.07013872f, -0.03050171f, 0.10983893f, 0.06393103f, -0.01811391f },
      { -0.03416019f, 0.05260432f, 0.10788386f, 0.00302577f, -0.05542849f, -0.00890994f, -0.07420208f, 0.07594594f, -0.05405498f, 0.07886604f, 0.11772016f, 0.06237532f, 0.04931303f, 0.00218322f, 0.01764691f, -0.08853609f, -0.08204817f, -0.04075419f, -0.11442731f, 0.12680228f, 0.00685662f, 0.07635357f, 0.01948520f, 0.10639782f, 0.07129144f, -0.00525358f, 0.10120104f, 0.03063181f, 0.09877500f, -0.06916720f, -0.04838245f, 0.07320462f },
      { -0.08993336f, 0.08841113f, 0.03862805f, 0.02382271f, 0.00886663f, 0.07248548f, -0.02215678f, 0.04946272f, 0.14960881f, 0.06800770f, 0.14476216f, 0.05592962f, 0.08142904f, 0.04688799f, -0.04035732f, -0.03921431f, 0.10388187f, -0.15093996f, 0.06497931f, 0.13456941f, -0.06418774f, 0.01164723f, 0.11875571f, 0.12755783f, -0.07109816f, -0.03748222f, -0.02837329f, 0.08300513f, 0.04997630f, 0.13796176f, 0.08263551f, -0.09236819f },
      { -0.05868217f, 0.16891411f, -0.12073557f, 0.05663742f, 0.10290929f, 0.01793273f, 0.02293373f, 0.19591950f, -0.04050471f, 0.12969878f, 0.13028948f, -0.09599559f, 0.04162520f, -0.08324056f, -0.01644734f, -0.04530628f, -0.09193899f, 0.05889928f, 0.10141521f, 0.15250783f, -0.07223336f, 0.00272488f, 0.07025875f, 0.02877449f, -0.09263891f, 0.03619100f, 0.03295847f, -0.06884875f, -0.04681002f, 0.04336599f, 0.05370286f, 0.01730406f },
      { 0.02686002f, -0.07175422f, 0.09391964f, -0.06068151f, -0.01988777f, 0.02822863f, 0.03960144f, 0.11228340f, 0.02955838f, 0.02147950f, 0.10001267f, -0.09225177f, -0.04061198f, -0.03086439f, 0.01096068f, -0.10252124f, 0.08799251f, -0.07863218f, -0.04327892f, 0.09036609f, -0.06263252f, 0.11712219f, -0.00779849f, -0.09167360f, -0.05411368f, -0.04433356f, 0.15926413f, -0.08610989f, 0.00010723f, 0.03719859f, -0.01706009f, -0.04018589f },
      { -0.11617741f, 0.03354906f, -0.09223513f, -0.02810371f, 0.09254733f, 0.06146927f, 0.11041716f, 0.02237124f, -0.04486131f, 0.07302352f, 0.09033300f, 0.09206817f, 0.07681277f, -0.05324693f, 0.08689021f, 0.08699310f, 0.02006192f, 0.01448573f, -0.00455111f, 0.13904162f, -0.03749779f, 0.11870755f, 0.02599579f, -0.02183561f, 0.00036056f, -0.08179616f, -0.02209019f, -0.04957758f, 0.04460388f, -0.05439004f, -0.02344743f, -0.09834600f },
      { 0.01778344f, 0.06629402f, -0.02319956f, -0.06539867f, -0.05762130f, 0.13821231f, 0.11811140f, 0.08329566f, 0.05403182f, 0.03393851f, 0.00484620f, -0.08154187f, -0.07852127f, 0.11757857f, -0.10980625f, 0.08347101f, -0.01849500f, -0.08783272f, 0.01934727f, 0.04970280f, -0.10360027f, 0.13144545f, -0.07088664f, 0.08593646f, 0.06257959f, 0.07739729f, 0.04976421f, 0.01194158f, 0.08575618f, 0.03318791f, -0.00536550f, -0.13526079f },
      { -0.03855008f, 0.07667587f, 0.03097460f, -0.09184311f, 0.14456543f, -0.03260359f, 0.05622656f, 0.01194191f, -0.01717367f, 0.14615893f, 0.03369461f, 0.05081736f, 0.00892411f, 0.01377801f, -0.04935363f, 0.04225219f, 0.09920814f, 0.04380260f, 0.02696406f, 0.13569199f, -0.09057054f, -0.07672566f, -0.03668660f, -0.03922888f, -0.11346797f, -0.02522408f, 0.13937670f, -0.03524873f, -0.04378973f, 0.13758917f, 0.09109446f, 0.05271123f },
      { 0.01510408f, -0.10972615f, -0.12090643f, 0.07759693f, -0.02371728f, 0.01801335f, 0.06038117f, 0.08317377f, -0.01189399f, 0.10557586f, 0.08053494f, 0.00761356f, 0.06225859f, -0.03464952f, -0.03569896f, 0.05417699f, -0.07457332f, 0.03261935f, -0.11765457f, 0.09820455f, -0.06756181f, 0.01166150f, 0.06833069f, -0.03047609f, -0.03711680f, 0.03473920f, 0.01551127f, 0.03461648f, 0.04349543f, -0.06552167f, 0.02410393f, -0.04107441f },
      { -0.06840210f, -0.03798366f, 0.00539089f, 0.07846764f, 0.11052616f, 0.02200089f, 0.00094848f, -0.05007068f, -0.05370659f, -0.04234532f, 0.02884678f, -0.02715660f, -0.05912328f, 0.05975474f, 0.05550069f, -0.03650276f, -0.05867247f, -0.07103763f, -0.09389121f, -0.09723875f, 0.08115582f, -0.07619333f, 0.11224888f, -0.02615710f, -0.05305370f, -0.02847833f, -0.08012582f, -0.07485798f, 0.05272228f, 0.05182930f, 0.11464483f, 0.03258828f },
      { 0.10225006f, 0.08589171f, 0.06343161f, 0.00190211f, -0.05824414f, -0.07662357f, -0.02865990f, 0.05587172f, -0.03648630f, -0.03663225f, 0.04795862f, -0.02161022f, -0.05193679f, -0.01161308f, 0.05038120f, 0.06603049f, 0.08754858f, 0.02475056f, -0.10071930f, 0.12328648f, 0.07407472f, 0.03688390f, -0.00778261f, 0.03909906f, 0.02859973f, 0.06608978f, -0.10173326f, 0.00632600f, 0.03494529f, 0.06746404f, -0.01980685f, -0.04532052f },
      { -0.01793946f, 0.01882170f, -0.04817912f, -0.04881854f, -0.07818251f, 0.04309202f, 0.01701228f, -0.09876552f, 0.02003690f, -0.06091886f, 0.01178215f, 0.09466156f, -0.01019157f, 0.08881711f, 0.08718169f, 0.08046328f, 0.07030532f, -0.01505619f, -0.07236210f, 0.02316426f, 0.09158283f, -0.00526807f, -0.05784075f, 0.11737549f, 0.04370479f, -0.04822398f, 0.01188738f, 0.01981341f, 0.09650534f, -0.07866323f, -0.04840042f, -0.11635368f },
      { 0.08857939f, 0.02930708f, 0.07706911f, -0.04088126f, -0.03681536f, 0.05440903f, 0.08409812f, 0.04606604f, 0.11625770f, 0.00768691f, 0.08620903f, -0.00120468f, -0.12643576f, -0.09375573f, 0.09065110f, -0.02871421f, -0.05700975f, 0.10665675f, 0.05825438f, -0.02483474f, 0.01696526f, -0.06373883f, 0.06310997f, 0.03196626f, 0.11099571f, -0.07831255f, 0.04062483f, -0.12018801f, -0.01771355f, -0.05740226f, 0.05490845f, -0.04063056f }
    }
  }
};

static const float BIASES2[C2_OUT_C] = {
  -0.01264938f, -0.00474800f, -0.02892396f, -0.00101112f, -0.01696263f, -0.00869501f, -0.03360734f, -0.01375589f, 0.00635840f, -0.00777793f, -0.01943316f, 0.00126410f, 0.00577404f, -0.00717032f, -0.01794777f, 0.00481979f, -0.00746549f, 0.00649294f, 0.01217706f, -0.01350759f, 0.00598387f, -0.01812506f, -0.00868406f, -0.01264697f, -0.00980537f, -0.00016627f, -0.01730986f, -0.02111887f, -0.01627338f, -0.00600600f, -0.00822844f, 0.01836246f
};

#endif // WEIGHTS2_H